#include <math.h>
#include "hls_stream.h"
#include "ap_int.h"
#include "ap_fixed.h"
using namespace std;

#define INPUT_NODES 63
#define INPUT_LAYER_NODES 63
#define HIDDEN_LAYER_1_NODES 64
#define HIDDEN_LAYER_2_NODES 48
#define HIDDEN_LAYER_3_NODES 32
#define HIDDEN_LAYER_4_NODES 16
#define OUTPUT_LAYER_NODES 5

typedef ap_fixed<15, 4> float15;

float15 input_layer_weight[INPUT_NODES * INPUT_LAYER_NODES] = {
-0.18982179462909698, -0.21053491532802582, 0.07077857106924057, -0.21257278323173523, -0.25902462005615234, 0.3343496322631836, 0.08078945428133011, 0.13641421496868134, -0.023828528821468353, -0.13235409557819366, -0.2576386630535126, -0.11366427689790726, -0.07893171161413193, -0.15080124139785767, -0.07159993797540665, 0.4781551659107208, -0.07419139891862869, 0.012236400507390499, 0.03582609444856644, -0.16628368198871613, -0.2749846279621124, -0.0943906158208847, -0.13753624260425568, 0.12308076024055481, -0.09700266271829605, 0.12096825242042542, 0.03163444623351097, -0.16006627678871155, -0.06986504793167114, -0.16189821064472198, -0.22127792239189148, 0.11764252930879593, 0.18578919768333435, 0.17817322909832, -0.23162530362606049, 0.0694146528840065, -0.015856077894568443, -0.15605095028877258, -0.15166334807872772, -0.18028680980205536, -0.13059751689434052, 0.09416891634464264, 0.13665087521076202, -0.18619081377983093, -0.24030306935310364, 0.0595407597720623, -0.149261474609375, -0.13226622343063354, -0.2717226445674896, -0.039806611835956573, -0.057858243584632874, 0.12063831835985184, -0.11640410125255585, 0.189103364944458, -0.13123755156993866, -0.0299367718398571, 0.2065071314573288, -0.07860556244850159, -0.07782845944166183, -0.1974167376756668, 0.1062651202082634, -0.014535149559378624, -0.041329994797706604, 0.1217733696103096, -0.05153193324804306, -0.059666428714990616, 0.05302627384662628, -0.15859580039978027, -0.32727375626564026, 0.1356479376554489, 0.13359026610851288, -0.16994242370128632, -0.03487564995884895, -0.031843796372413635, 0.1520175039768219, 0.17710787057876587, 0.028583712875843048, 0.412020742893219, 0.006200747564435005, -0.12933029234409332, -0.08655769377946854, 0.05633413791656494, -0.07558345794677734, -0.1033070832490921, -0.051901303231716156, 0.10912194848060608, -0.10456112772226334, -0.21554411947727203, -0.07146082073450089, 0.1979374885559082, -0.031200522556900978, 0.08872173726558685, 0.0414467379450798, 0.024046896025538445, 0.0011901131365448236, -0.14353002607822418, -0.18261288106441498, -0.20924358069896698, -0.1504693180322647, -0.16588450968265533, 0.03566480427980423, 0.18041934072971344, 0.04193543270230293, 0.10585951805114746, -0.10360460728406906, -0.1911928802728653, 0.06030789017677307, 0.15620727837085724, -0.03344486653804779, -0.19345058500766754, 0.18143759667873383, -0.009365488775074482, 0.20391742885112762, 0.0422176793217659, -0.10926827043294907, 0.18689599633216858, -0.17341861128807068, -0.049881190061569214, 0.05538526922464371, -0.18940681219100952, 0.05625605210661888, -0.031838636845350266, 0.017425216734409332, -0.07463770359754562, -0.18235883116722107, -0.16664332151412964, 0.0032902590464800596, 0.07892423123121262, 0.19123785197734833, -0.009020920842885971, -0.14594994485378265, 0.2603805661201477, 0.21875658631324768, -0.022350775077939034, 0.17136803269386292, -0.19587211310863495, 0.014969108626246452, 0.14779631793498993, 0.11218328028917313, -0.1723415106534958, 0.21877679228782654, 0.3019540011882782, 0.08141668885946274, 0.23443368077278137, -0.07045257836580276, -0.09271150827407837, 0.16438975930213928, -0.05964997410774231, -0.05038325488567352, 0.007978525012731552, 0.0391373373568058, -0.07063564658164978, -0.0058178710751235485, -0.18212001025676727, -0.22113923728466034, 0.0824994295835495, 0.14164917171001434, 0.18231849372386932, 0.06329666078090668, 0.022915206849575043, 0.12924166023731232, 0.1797284334897995, 0.10308711975812912, -0.19844157993793488, -0.05064280331134796, -0.036086343228816986, 0.002193006919696927, -0.00029404921224340796, 0.12370418757200241, -0.15976321697235107, -0.1030384823679924, -0.14673486351966858, -0.22662049531936646, -0.11927393078804016, 0.018480641767382622, -0.15866820514202118, 0.03969943895936012, 0.03487047925591469, -0.06706241518259048, -0.1719093918800354, -0.17954614758491516, -0.01037702988833189, -0.30835196375846863, -0.1841059923171997, -0.1898312121629715, 0.06021561846137047, -0.14336919784545898, -0.033254146575927734, -0.21643850207328796, -0.1613428294658661, -0.17681057751178741, -0.20944848656654358, 0.0038593329954892397, 0.14463239908218384, 0.11125706881284714, -0.21938733756542206, 0.06802967935800552, -0.15471133589744568, -0.14559869468212128, 0.07344271242618561, -0.1321563571691513, -0.21787604689598083, -0.029864760115742683, -0.0288348700851202, 0.04479089379310608, -0.01990398019552231, -0.0898432508111, 0.01818198524415493, -0.04208360239863396, -0.1393667757511139, -0.13566656410694122, -0.2514607310295105, 0.07517608255147934, 0.15780270099639893, 0.11969722807407379, 0.12499020248651505, 0.04905908927321434, -0.04268600419163704, 0.16923975944519043, -0.04362393170595169, -0.08916445076465607, -0.04884202778339386, 0.06499703228473663, -0.06517702341079712, 0.3031781315803528, 0.08273304998874664, 0.17457930743694305, 0.15954366326332092, 0.16254638135433197, -0.2271236777305603, -0.05321763828396797, -0.1374642550945282, -0.011608711443841457, 0.08747732639312744, 0.12325602769851685, 0.12545591592788696, -0.23677748441696167, -0.0322512723505497, 0.0766451358795166, 0.07924824953079224, 0.1779005378484726, -0.14072811603546143, 0.11740760505199432, -0.22151553630828857, 0.014611558988690376, 0.06674856692552567, -0.12658143043518066, -0.23698394000530243, 0.1019408255815506, 0.0898706242442131, -0.15893791615962982, -0.24334560334682465, 0.157688707113266, -0.1903684139251709, 0.18967804312705994, 0.13776130974292755, 0.1136978268623352, 0.0020491215400397778, 0.036054931581020355, -0.08500435203313828, -0.14809641242027283, -0.1567230522632599, 0.032267022877931595, -0.17748089134693146, -0.012197436764836311, -0.11851601302623749, 0.22852301597595215, 0.010117863304913044, 0.16311170160770416, 0.13982923328876495, 0.17179417610168457, 0.08647071570158005, -0.1461169570684433, 0.06605637073516846, -0.026067886501550674, 0.03826499357819557, -0.1307857781648636, -0.09630627185106277, -0.06524153798818588, -0.03729775920510292, 0.06110197678208351, -0.15403704345226288, 0.13460376858711243, -0.1850670874118805, 0.14041021466255188, 0.14303041994571686, 0.11434375494718552, -0.18853090703487396, 0.11263679713010788, 0.03819838538765907, 0.1652715802192688, -0.0322096087038517, -0.1533033847808838, -0.16603346168994904, -0.21875444054603577, 0.05979365110397339, 0.07242804765701294, 0.19855442643165588, -0.08860751986503601, 0.22208352386951447, 0.11760590225458145, 0.13810880482196808, -0.11446631699800491, 0.15246064960956573, -0.0023297599982470274, -0.2750656306743622, 0.022948216646909714, 0.06538902223110199, -0.14803744852542877, -0.03559475392103195, 0.20825424790382385, -0.11872407048940659, 0.1621600240468979, -0.0026293820701539516, -0.01063189934939146, -0.13347066938877106, -0.1161930039525032, 0.007919540628790855, -0.16416367888450623, 0.017766647040843964, -0.34800416231155396, -0.07021795958280563, -0.18192869424819946, 0.03240567445755005, 0.03847121819853783, -0.09132394939661026, -0.04178113117814064, -0.03568129986524582, -0.06876179575920105, 0.2503890097141266, -0.24760739505290985, 0.23723988234996796, 0.040246836841106415, 0.1012076735496521, 0.22622747719287872, 0.006929093040525913, -0.08566783368587494, 0.06295200437307358, 0.25935137271881104, 0.07341362535953522, 0.1457342803478241, 0.14515312016010284, 0.06964932382106781, -0.12412784993648529, 0.17859411239624023, 0.2313358187675476, 0.20478317141532898, -0.09312983602285385, -0.01260342262685299, -0.09436977654695511, -0.11363425105810165, 0.10846011340618134, 0.14654423296451569, 0.1473052054643631, 0.12115266174077988, -0.027147378772497177, -0.29090866446495056, -0.3914424180984497, 0.19517841935157776, -0.22390581667423248, 0.1989394724369049, 0.1791524589061737, 0.10337457060813904, -0.1796758472919464, -0.003828533226624131, 0.04621167480945587, -0.16534174978733063, 0.1217484399676323, 0.09177282452583313, -0.117734894156456, 0.22374163568019867, 0.015917308628559113, 0.18557853996753693, -0.01783897541463375, 0.10332521796226501, 0.18006543815135956, -0.10765229910612106, 0.1647614985704422, 0.1439247876405716, 0.07450782507658005, 0.08177587389945984, -0.17921535670757294, -0.24624571204185486, 0.06687289476394653, 0.22448986768722534, 0.1414078027009964, 0.2133922427892685, -0.23939692974090576, -0.015297329984605312, -0.22063185274600983, -0.12910138070583344, 0.15088967978954315, -0.11389915645122528, 0.19265012443065643, 0.16647174954414368, 0.04944303631782532, -0.013763092458248138, 0.07263173907995224, 0.17537540197372437, 0.12469887733459473, -0.1315406858921051, 0.051616620272397995, 0.045068178325891495, 0.002437831833958626, 0.1662849634885788, -0.15309785306453705, 0.12355629354715347, 0.08286762982606888, 0.11052394658327103, -0.12269708514213562, -0.03493142127990723, -0.17438173294067383, 0.17979609966278076, -0.2668735682964325, -0.059859924018383026, 0.208978533744812, 0.10225590318441391, -0.12256468087434769, 0.04436379671096802, -0.09240039438009262, 0.10703057050704956, 0.2942752242088318, -0.05947604402899742, 0.05260031670331955, -0.11014607548713684, -0.22563880681991577, 0.006863542832434177, 0.171132892370224, -0.12980328500270844, 0.04958101361989975, 0.18433840572834015, 0.09588019549846649, -0.2100369781255722, -0.07826168090105057, -0.014014637097716331, -0.2266940027475357, -0.21016566455364227, -0.18590152263641357, 0.0747072622179985, -0.07536046952009201, 0.1851070374250412, -0.14770430326461792, -0.04011352360248566, 0.15023775398731232, -0.03009575791656971, -0.13311180472373962, -0.08202007412910461, 0.1905156821012497, 0.16372470557689667, 0.16788414120674133, -0.05617551505565643, -0.22608910501003265, -0.2582694888114929, 0.04776216298341751, 0.04386889189481735, -0.21681106090545654, 0.0539332777261734, -0.07858084887266159, -0.22281277179718018, -0.06973572075366974, -0.25202175974845886, 0.06996583193540573, -0.1918942928314209, -0.12605346739292145, 0.0849609449505806, 0.12090025097131729, 0.038769569247961044, -0.0484013669192791, -0.1076207086443901, 0.001927574397996068, -0.11519331485033035, 0.06742417067289352, -0.2197849452495575, 0.2529484033584595, -0.12079326808452606, -0.2250710427761078, 0.006732441950589418, -0.24904729425907135, 0.11380915343761444, 0.027203436940908432, -0.2121741771697998, 0.014341121539473534, 0.10214783996343613, 0.15494105219841003, -0.06660229712724686, 0.20592547953128815, 0.05738937854766846, -0.04504387453198433, 0.16306744515895844, 0.03872324153780937, 0.06974505633115768, 0.16539351642131805, 0.2249540388584137, -0.24168093502521515, -0.09590425342321396, -0.13326890766620636, 0.09135375171899796, 0.07173947244882584, -0.2749214172363281, 0.03380418196320534, -0.0949319526553154, -0.25039616227149963, 0.06998955458402634, 0.061011116951704025, 0.039546653628349304, 0.09956876933574677, -0.2007526010274887, -0.14772649109363556, -0.1575544774532318, -0.45972004532814026, -0.16050496697425842, 0.06814210116863251, -0.12547799944877625, -0.17235033214092255, -0.18788832426071167, 0.011027072556316853, 0.1073782816529274, 0.06878706067800522, -0.04349932074546814, -0.40651389956474304, -0.19233033061027527, -0.2000594586133957, 0.05052592232823372, 0.038698188960552216, -0.13380911946296692, -0.25410643219947815, -0.2472548633813858, 0.15265418589115143, -0.16654713451862335, 0.012527606450021267, -0.01750495284795761, -0.05558205768465996, 0.0026749332901090384, 0.06384383887052536, -0.01878499798476696, 0.01670798286795616, 0.10166803002357483, 0.2503090798854828, 1.7154976376332343e-05, -0.0038198449183255434, -0.08177800476551056, -0.24146747589111328, -0.12233022600412369, 0.07117556780576706, -0.24229374527931213, 0.14499135315418243, 0.06351654976606369, -0.15503087639808655, 0.2966187596321106, -0.2804305851459503, -0.10071970522403717, 0.13458789885044098, -0.02852654457092285, 0.09134919941425323, 0.18715320527553558, -0.09861429780721664, -0.018015705049037933, 0.05895978957414627, -0.10790400207042694, 0.10933876782655716, -0.14426879584789276, 0.10077409446239471, 0.16188552975654602, 0.1583162248134613, 0.13354340195655823, -0.09463118016719818, 0.10458921641111374, -0.04835272580385208, 0.13858288526535034, 0.012014291249215603, -0.06986422091722488, -0.06759374588727951, 0.04082833603024483, -0.0359058603644371, -0.015654006972908974, -0.11308775842189789, 0.133274644613266, 0.14011606574058533, -0.11635564267635345, 0.1645222008228302, 0.018174955621361732, -0.017636345699429512, -0.029324717819690704, 0.08012787997722626, -0.19874989986419678, 0.16760408878326416, 0.08664242178201675, -0.031665533781051636, 0.07084529101848602, 0.19738484919071198, -0.014163079671561718, -0.11174480617046356, 0.04654807224869728, -0.24061021208763123, -0.09347770363092422, 0.040906913578510284, -0.14531880617141724, -0.17013001441955566, 0.1788327842950821, -0.15962018072605133, -0.0679330825805664, 0.21432079374790192, -0.08405137062072754, -0.055672403424978256, 0.06568577140569687, 0.029748426750302315, -0.1887904405593872, 0.0871712788939476, -0.0598604641854763, -0.13119438290596008, 0.20972971618175507, 0.2156606763601303, -0.14376798272132874, -0.027363508939743042, -0.0745188519358635, -0.09183686971664429, 0.16770288348197937, -0.0260347630828619, 0.07778540998697281, 0.23808161914348602, -0.1657186895608902, -0.06365026533603668, 0.02962823584675789, -0.05569686368107796, 0.22033001482486725, 0.1558380424976349, 0.06447150558233261, 0.06091107428073883, -0.10875821858644485, -0.012866691686213017, -0.2112676501274109, -0.19063109159469604, 0.13724200427532196, 0.1556457281112671, -0.22962692379951477, 0.2512452304363251, 0.13012273609638214, -0.25540658831596375, -0.12662185728549957, -0.05125364661216736, 0.13280537724494934, -0.018122052773833275, 0.040219519287347794, 0.10015889257192612, -0.20475853979587555, 0.3411795198917389, -0.03541108965873718, 0.031139401718974113, -0.17480379343032837, 0.10828123241662979, -0.1767723560333252, -0.061445921659469604, 0.03592955693602562, 0.1389842927455902, 0.10561595112085342, -0.24359871447086334, 0.14851540327072144, 0.09726203978061676, -0.21393747627735138, -0.15065114200115204, -0.09768693149089813, -0.23760662972927094, 0.006459430791437626, -0.14779198169708252, 0.06919719278812408, 0.1906868815422058, -0.018789241090416908, -0.17508231103420258, -0.14902417361736298, 0.029500409960746765, 0.05210667476058006, -0.07157249748706818, -0.054307013750076294, -0.061684198677539825, 0.08824874460697174, -0.08719996362924576, 0.11201569437980652, 0.02174471877515316, -0.051184702664613724, 0.025717154145240784, 0.11231761425733566, -0.06270422786474228, -0.21970896422863007, 0.16035661101341248, 0.11628247797489166, -0.06532743573188782, 0.04985451325774193, -0.014065606519579887, 0.046050429344177246, -0.21594128012657166, -0.19190658628940582, -0.16670292615890503, -0.1718064546585083, 0.1277618259191513, 0.08689682930707932, 0.02620907686650753, -0.011497868224978447, -0.0996956005692482, 0.04940825328230858, -0.022222362458705902, -0.09641013294458389, 0.19911842048168182, 0.10105937719345093, -0.2194806933403015, -0.16352178156375885, 0.13618060946464539, 0.17862556874752045, 0.1668052077293396, 0.017704114317893982, -0.10356523096561432, -0.11851359158754349, 0.11741390079259872, -0.10823535919189453, -0.1754147857427597, -0.19349895417690277, -0.20885534584522247, -0.042664673179388046, -0.08954416215419769, -0.21321110427379608, -0.11950748413801193, -0.1647517830133438, 0.11476209759712219, 0.02991054579615593, 0.06382159888744354, -0.06839630752801895, 0.17922239005565643, 0.13948015868663788, -0.05624912679195404, -0.18032121658325195, -0.07800302654504776, -0.18723252415657043, -0.20865701138973236, 0.19525185227394104, -0.10792811959981918, 0.03474219888448715, 0.1587081402540207, 0.13411548733711243, -0.14941009879112244, -0.19474172592163086, -0.10902967303991318, -0.1442604959011078, 0.05764863267540932, -0.04807329177856445, -0.06693049520254135, 0.01036099810153246, -0.12628093361854553, -0.1802932769060135, -0.16689832508563995, 0.06365039944648743, -0.006838291417807341, 0.07579165697097778, -0.21051383018493652, 0.05100410059094429, -0.01757463999092579, -0.17852304875850677, -0.04537511244416237, -0.06631200760602951, 0.12542971968650818, 0.19732600450515747, 0.028551951050758362, -0.13397863507270813, -0.07294921576976776, 0.04559485241770744, 0.12791600823402405, 0.165207177400589, 0.1769443154335022, 0.1678638607263565, -0.14453740417957306, 0.022948408499360085, 0.07369735091924667, 0.36619833111763, 0.02552947774529457, 0.07701680064201355, 0.24062514305114746, 0.17669637501239777, 0.03242146968841553, -0.234322190284729, 0.10950200259685516, 0.02806823141872883, 0.1709292083978653, -0.09623252600431442, -0.1659122109413147, 0.08059763163328171, 0.0769505575299263, 0.12028629332780838, -0.22593829035758972, 0.056436263024806976, -0.20126385986804962, 0.25884756445884705, -0.16761338710784912, 0.16297903656959534, -0.09105145931243896, 0.04866325855255127, -0.20258647203445435, 0.09755218029022217, -0.03996448218822479, -0.13606412708759308, 0.1496930569410324, -0.10470589250326157, 0.10876945406198502, -0.25739461183547974, 0.06898771226406097, -0.2423156350851059, -0.02654636837542057, 0.13466289639472961, -0.17781299352645874, -0.340937077999115, 0.13298897445201874, -0.20184321701526642, 0.061327382922172546, -0.17664282023906708, -0.05554940178990364, 0.04578191787004471, -0.16743306815624237, -0.1265067607164383, 0.13280653953552246, -0.06348387151956558, -0.07312306016683578, -0.021228689700365067, 0.07389392703771591, -0.08202230930328369, -0.11863183230161667, -0.21128903329372406, 0.08687535673379898, -0.18825261294841766, -0.279224157333374, 0.10823944211006165, -0.04215250536799431, 0.17674753069877625, 0.01360197551548481, 0.0026437058113515377, -0.0483524315059185, -0.0015409168554469943, -0.16769914329051971, 0.24994391202926636, 0.033848777413368225, -0.17614872753620148, -0.19123880565166473, 0.11128538101911545, 0.09414853155612946, -0.03343982249498367, 0.19813552498817444, 0.05282849073410034, -0.06492405384778976, -0.13555322587490082, -0.004549691453576088, -0.20912747085094452, 0.10858228802680969, 0.19114412367343903, 0.034236643463373184, 0.19690150022506714, -0.090882308781147, -0.16098231077194214, -0.18663710355758667, -0.04696018248796463, -0.05850701406598091, -0.04476992040872574, 0.1738625168800354, 0.041087619960308075, -0.15213438868522644, 0.12236984819173813, 0.02637728862464428, 0.2898123860359192, 0.12929664552211761, 0.12492962926626205, 0.11261365562677383, -0.18160253763198853, -0.18650589883327484, 0.06013176962733269, -0.21317370235919952, 0.21275462210178375, 0.02114611677825451, -0.1149100661277771, 0.12727968394756317, 0.07168500125408173, -0.05621695518493652, 0.17311064898967743, 0.08114536106586456, 0.17679661512374878, -0.10884269326925278, -0.08267882466316223, -0.1636602282524109, 0.17392438650131226, 0.019251959398388863, 0.18570388853549957, -0.24325202405452728, -0.22814758121967316, 0.23519262671470642, 0.2451789379119873, 0.1582501381635666, -0.15264654159545898, 0.0830853208899498, -0.10693908482789993, 0.09022003412246704, 0.0210296381264925, 0.08282015472650528, -0.25671616196632385, 0.5034725069999695, -0.13028691709041595, -0.11102423816919327, 0.13956381380558014, 0.11959465593099594, 0.014386163093149662, -0.11069104820489883, -0.15977299213409424, 0.22120089828968048, 0.1761023849248886, 0.01642461121082306, 0.12159261107444763, -0.10776261985301971, -0.13630981743335724, 0.15147541463375092, 0.018889904022216797, -0.03702797740697861, 0.1384105533361435, 0.14664584398269653, -0.04325876012444496, -0.17483225464820862, 0.08135277032852173, -0.2281205654144287, -0.19307394325733185, 0.1372484713792801, 0.08602765947580338, -0.25276699662208557, -0.16709047555923462, -0.12459703534841537, -0.017555195838212967, -0.05870848149061203, -0.18582786619663239, 0.11147656291723251, 0.15905578434467316, -0.21555261313915253, 0.19303032755851746, 0.14748050272464752, -0.21244694292545319, -0.11816029995679855, 0.1524452418088913, -0.06378602236509323, 0.08400517702102661, 0.007103164214640856, -0.016815565526485443, 0.12988875806331635, -0.2532830238342285, -0.00033684459049254656, -0.07713610678911209, 0.10844698548316956, -0.20062199234962463, 0.16497568786144257, -0.05048743635416031, -0.1833915114402771, 0.24495655298233032, 0.15493664145469666, -0.016084926202893257, -0.05169753357768059, -0.035057876259088516, 0.009872051887214184, 0.11792830377817154, 0.01850617676973343, 0.15683326125144958, 0.006275438703596592, -0.08754237741231918, -0.058080077171325684, 0.19685250520706177, 0.004549026023596525, 0.14368879795074463, -0.17712634801864624, -0.1647820919752121, 0.212725430727005, 0.009448838420212269, 0.010872702114284039, -0.15791171789169312, 0.17791295051574707, 0.02235404960811138, 0.03789079934358597, -0.1374247819185257, 0.002154352143406868, 0.11269157379865646, 0.12963080406188965, -0.13908672332763672, -0.07781841605901718, 0.057716768234968185, 0.01682979241013527, -0.12832558155059814, -0.10681729763746262, 0.20895041525363922, 0.029611501842737198, -0.19758938252925873, 0.21378184854984283, -0.14543060958385468, -0.26880234479904175, 0.06553695350885391, 0.1273244321346283, 0.088890939950943, -0.13838937878608704, -0.07067340612411499, -0.10470830649137497, 0.08867160975933075, 0.03153831884264946, -0.2557187080383301, -0.071649469435215, 0.022401152178645134, 0.16072112321853638, 0.054580893367528915, -0.020921451970934868, -0.09322249889373779, -0.21703727543354034, 0.18018601834774017, -0.21184282004833221, -0.05265325680375099, 0.024838577955961227, -0.17531397938728333, -0.05268377065658569, 0.00623225187882781, 0.1032443568110466, 0.05611202120780945, -0.0662485659122467, -0.16098955273628235, -0.03511093184351921, -0.0353442057967186, 0.07604797929525375, 0.04687464237213135, 0.056748777627944946, -0.14305642247200012, -0.07357603311538696, -0.21032164990901947, -0.19281189143657684, 0.02487669698894024, 0.06526166945695877, 0.15865644812583923, -0.010357801802456379, 0.12927179038524628, 0.09290742129087448, -0.2669801414012909, 0.06857670843601227, -0.08618941158056259, -0.21962569653987885, -0.18509362637996674, -0.09713643789291382, 0.00014768326946068555, -0.027239423245191574, 0.012308421544730663, -0.1389780342578888, -0.033364299684762955, 0.08781613409519196, 0.035588085651397705, 0.1396101415157318, -0.12078962475061417, -0.015589458867907524, -0.10445718467235565, 0.24258504807949066, -0.03466848284006119, 0.047968100756406784, -0.021445240825414658, -0.05417463928461075, -0.13197630643844604, 0.09254217892885208, 0.11723532527685165, -0.07690805941820145, 0.11370830237865448, 0.13473108410835266, 0.21077938377857208, 0.23851433396339417, 0.030045434832572937, -0.043983832001686096, -0.004394928924739361, -0.00794572290033102, 0.09669870883226395, 0.2141810804605484, 0.11900925636291504, -0.18010303378105164, -0.13118095695972443, -0.050056058913469315, -0.1287076324224472, -0.20493252575397491, 0.04872925579547882, -0.029528489336371422, 0.03439829871058464, -0.12588317692279816, 0.02642172947525978, -0.05996387451887131, 0.07074149698019028, -0.16594506800174713, -0.04653945565223694, 0.0835716724395752, 0.11302068084478378, -0.2030998021364212, -0.2936932146549225, -0.0480424128472805, -0.08116944879293442, -0.13942645490169525, 0.016545535996556282, 0.14881213009357452, 0.14328829944133759, 0.008805780671536922, 0.12789176404476166, -0.03239019960165024, 0.06682243943214417, -0.04624487832188606, -0.1809980869293213, 0.09119316935539246, 0.02173074521124363, -0.19525104761123657, -0.1422564536333084, -0.3021504878997803, 0.21274462342262268, 0.17733925580978394, -0.22137735784053802, 0.011195612139999866, 0.2591862976551056, 0.12151452153921127, 0.07398326694965363, 0.1308164745569229, 0.20668412744998932, -0.09799957275390625, 0.03401143103837967, 0.30807486176490784, 0.050293345004320145, -0.2180745154619217, -0.07263443619012833, -0.17677655816078186, -0.05576815828680992, 0.11194118112325668, -0.11172007024288177, -0.08620777726173401, 0.087504081428051, 0.0913284569978714, 0.009967898018658161, -0.07545200735330582, 0.103659488260746, 0.02202741615474224, 0.16316615045070648, -0.1015949621796608, 0.017688335850834846, -0.16878153383731842, 0.11123307794332504, -0.18653859198093414, 0.10898447781801224, -0.22498860955238342, -0.07315412163734436, 0.15551498532295227, 0.1069110557436943, 0.16223804652690887, -0.04440499097108841, -0.04600915685296059, 0.15496426820755005, 0.0444522425532341, 0.12867875397205353, -0.20738637447357178, 0.00631230091676116, 0.4352816045284271, -0.020642384886741638, -0.19477024674415588, 0.006256858352571726, 0.1365855187177658, 0.14200791716575623, 0.0641605481505394, -0.005954407621175051, -0.1795274019241333, 0.009089004248380661, -0.1620095670223236, 0.11989381164312363, -0.23874546587467194, -0.03068666346371174, 0.0376889742910862, 0.059788595885038376, -0.06145976483821869, 0.14543908834457397, -0.024436114355921745, -0.14950799942016602, -0.10635226964950562, 0.032338812947273254, 0.1687484234571457, 0.08657471090555191, 0.12201237678527832, 0.13246376812458038, 0.00469751562923193, 0.05300167202949524, 0.2619219720363617, -0.11113090813159943, -0.0511188767850399, 0.13715630769729614, -0.16572660207748413, -0.18932518362998962, 0.008024424314498901, -0.2375001758337021, 0.09161544591188431, 0.13054858148097992, -0.1330297291278839, 0.0956151932477951, 0.2459409385919571, -0.1431078016757965, -0.20643392205238342, -0.17398951947689056, -0.03786119073629379, -0.054202862083911896, 0.05476876720786095, 0.0931614488363266, 0.1410730481147766, -0.013862742111086845, 0.16834759712219238, -0.09426086395978928, 0.10385717451572418, -0.051002513617277145, -0.20394034683704376, 0.16148966550827026, 0.19284501671791077, -0.16502340137958527, 0.07516086846590042, 0.1211341917514801, -0.004570698365569115, -0.0643283873796463, 0.06073446944355965, -0.2958291471004486, -0.09092607349157333, -0.045102547854185104, 1.920730574056506e-05, -0.08038969337940216, 0.25135141611099243, -0.0038961332757025957, 0.2093408852815628, -0.13484589755535126, 0.12136872857809067, -0.07642857730388641, -0.09845180064439774, 0.09481259435415268, 0.23679211735725403, 0.0941326841711998, 0.24922902882099152, -0.147090882062912, -0.03331921994686127, -0.06073683872818947, 0.20234175026416779, -0.17599812150001526, 0.13106761872768402, -0.05008174106478691, 0.11092522740364075, 0.0039931717328727245, -0.002329788636416197, 0.06419210135936737, -0.25109875202178955, 0.14049512147903442, 0.02872532606124878, -0.15842004120349884, 0.05408668518066406, 0.010042845271527767, 0.10502656549215317, -0.1670677810907364, 0.021427782252430916, 0.06502379477024078, -0.08811382949352264, -0.13885802030563354, -0.20368832349777222, 0.1876433789730072, -0.22692804038524628, 0.1452004313468933, 0.022460222244262695, 0.21506646275520325, 0.05077504366636276, -0.06314795464277267, -0.16475991904735565, 0.044999249279499054, -0.20914292335510254, 0.07106014341115952, -0.11676643043756485, 0.11169049888849258, 0.03164949640631676, 0.13323910534381866, 0.12397973239421844, 0.22137336432933807, 0.0878584086894989, 0.09599266946315765, -0.1576097309589386, 0.10192406922578812, 0.1243373453617096, 0.026755232363939285, -0.06509985029697418, -0.18226654827594757, -0.09486313909292221, 0.1809893101453781, -0.07256568223237991, -0.07680117338895798, -0.0882841944694519, 0.03153391554951668, -0.12729887664318085, 0.1330571323633194, -0.15946748852729797, 0.2264307290315628, 0.1087254136800766, 0.002956131938844919, -0.07787400484085083, 0.188443124294281, 0.06725551933050156, -0.13644255697727203, -0.11516135185956955, -0.050230976194143295, -0.14476345479488373, -0.12983611226081848, 0.13387306034564972, -0.13221418857574463, -0.06288120150566101, 0.13192163407802582, -0.15198516845703125, 0.03956238925457001, -0.10837644338607788, 0.02766854502260685, 0.15167009830474854, 0.10562131553888321, -0.08853794634342194, -0.12289533019065857, 0.02531271055340767, -0.063205286860466, 0.06694746762514114, 0.19091644883155823, -0.13453754782676697, -0.04426336660981178, -0.1958063244819641, -0.158189058303833, -0.10313340276479721, 0.005334792658686638, -0.042991552501916885, 0.07853943854570389, -0.060573652386665344, 0.08977089822292328, -0.15434253215789795, 0.14441247284412384, 0.0760381892323494, 0.05699501559138298, -0.1558108627796173, 0.0280621275305748, 0.07439406961202621, -0.20294170081615448, 0.1063685193657875, 0.1304488629102707, -0.14764223992824554, 0.012511735782027245, -0.028356654569506645, -0.06257886439561844, 0.1755830943584442, 0.3093618154525757, 0.04542328044772148, -0.012088250368833542, -0.12832042574882507, -0.11795903742313385, -0.08951830863952637, 0.06448512524366379, 0.14606133103370667, -0.06821280717849731, 0.15769456326961517, -0.12512975931167603, 0.01212207693606615, 0.07071825116872787, 0.05916394665837288, 0.004044224973767996, -0.21676161885261536, -0.05238540843129158, 0.07749304175376892, 0.13695792853832245, 0.254975825548172, 0.0501561164855957, 0.1440105438232422, -0.2627340257167816, 0.10458867996931076, -0.15186485648155212, -0.012161331251263618, -0.12844550609588623, 0.25234922766685486, -0.08631780743598938, 0.10765032470226288, -0.004509461112320423, 0.040235526859760284, -0.04724740609526634, 0.049306292086839676, 0.002583402907475829, 0.004080481827259064, 0.0016984478570520878, 0.2408672720193863, 0.021786145865917206, 0.05814708024263382, -0.048381201922893524, -0.28804415464401245, -0.11285335570573807, 0.13784430921077728, 0.15412060916423798, -0.15800176560878754, -0.14470355212688446, -0.09467538446187973, -0.015484840609133244, -0.19993124902248383, 0.20627248287200928, -0.07641249150037766, 0.06663619726896286, -0.07333624362945557, -0.16266053915023804, 0.03812302649021149, 0.07300303876399994, 0.03311166167259216, 0.012710061855614185, -0.19593459367752075, 0.05217216536402702, 0.14316007494926453, 0.3015201985836029, 0.09273739159107208, 0.06375855952501297, 0.062304165214300156, -0.22330337762832642, 0.17041078209877014, -0.09378363937139511, 0.12961098551750183, -0.21729978919029236, 0.02412460930645466, 0.19839325547218323, -0.1965968757867813, -0.09243306517601013, -0.0012743521947413683, -0.1750752478837967, -0.1296887993812561, 0.1385447233915329, 0.026748759672045708, 0.1018904596567154, -0.012414250522851944, 0.1330466866493225, -0.20305782556533813, 0.10740935057401657, 0.07353247702121735, 0.14709033071994781, 0.10680574923753738, 0.07684300094842911, 0.22660395503044128, -0.05921582877635956, 0.0415402427315712, 0.042768485844135284, -0.10199897736310959, -0.15713459253311157, -0.14285965263843536, 0.03842771425843239, 0.13177289068698883, -0.09123753011226654, 0.05256102606654167, -0.1436653584241867, -0.2310134619474411, 0.11242528259754181, -0.014667747542262077, -0.21923594176769257, 0.14577941596508026, 0.04084287956357002, 0.14443176984786987, -0.20796363055706024, 0.05975911393761635, 0.08307306468486786, -0.13826128840446472, 0.11888507753610611, -0.20133383572101593, 0.07974253594875336, -0.1039704978466034, -0.1292644590139389, -0.056028783321380615, -0.17175664007663727, -0.12072719633579254, -0.008816980756819248, -0.12286090850830078, -0.22477209568023682, 0.15956787765026093, 0.13820280134677887, -0.08138216286897659, -0.3186856806278229, 0.12367314100265503, 0.1160096526145935, -0.0595545694231987, 0.060623299330472946, 0.08798379451036453, -0.07638724148273468, 0.06092663109302521, -0.07931765168905258, -0.19073010981082916, -0.007549982517957687, -0.0031545963138341904, 0.09469246119260788, 0.17152588069438934, -0.15469104051589966, -0.1278056800365448, 0.12341921776533127, 0.06513116508722305, 0.15627464652061462, 0.05117127671837807, -0.23456509411334991, 0.061360061168670654, 0.17098554968833923, -0.10796494036912918, -0.059409189969301224, -0.09352634847164154, -0.0601254366338253, 0.000825114781036973, 0.05021001398563385, 0.021459583193063736, -0.024789266288280487, 0.13161349296569824, -0.14719896018505096, 0.05269833654165268, 0.2034386396408081, 0.2461613565683365, -0.26453718543052673, 0.11990208178758621, -0.08849985897541046, 0.18471573293209076, -0.10307395458221436, -0.03692110255360603, 0.1646568477153778, 0.09970910847187042, -0.009975247085094452, 0.07898472249507904, -0.09466850757598877, 0.023947698995471, 0.03694336116313934, -0.204645037651062, -0.14099974930286407, -0.0713239312171936, -0.07295016199350357, 0.07352162152528763, 0.17824001610279083, 0.18164916336536407, -0.14944720268249512, 0.18453845381736755, 0.12884093821048737, 0.12385957688093185, -0.23036420345306396, -0.03750172629952431, -0.036427099257707596, -0.08796478807926178, 0.05484692379832268, -0.1909567266702652, 0.1767556369304657, -0.0512266643345356, 0.03648284077644348, 0.05814258009195328, -0.12228602170944214, -0.06001599133014679, -0.19548696279525757, -0.008374818600714207, -0.16379621624946594, 0.0724368691444397, 0.005942364223301411, -0.19873623549938202, -0.07640407979488373, -0.23245161771774292, -0.03920472040772438, -0.07030659168958664, -0.2699880301952362, 0.03215348720550537, -0.15870261192321777, 0.08633406460285187, -0.08305221796035767, 0.05372264236211777, 0.14358671009540558, 0.283446341753006, 0.10613575577735901, -0.05191619321703911, 0.04616248980164528, 0.20508360862731934, 0.08752524107694626, -0.207375630736351, 0.11497371643781662, -0.14210093021392822, 0.04642747342586517, 0.12961696088314056, 0.020763706415891647, -0.1500287652015686, -0.009808906354010105, -0.20487482845783234, 0.23734374344348907, -0.06802556663751602, -0.03688778728246689, 0.09603286534547806, -0.19545616209506989, -0.02508288063108921, 0.05619755759835243, 0.1496395766735077, 0.0696934387087822, -0.13052372634410858, -0.06520405411720276, 0.032346416264772415, -0.1196320503950119, 0.07964348793029785, -0.08347447961568832, -0.07985105365514755, -0.1561722457408905, -0.1200975850224495, 0.2217024564743042, -0.20434270799160004, -0.0421469621360302, 0.22533750534057617, 0.04846172779798508, 0.1544368714094162, -0.09547886252403259, -0.20422200858592987, 0.03281829133629799, 0.10574577748775482, -0.20478415489196777, 0.20592664182186127, -0.10020431876182556, -0.1760907769203186, 0.1750022917985916, -0.1445743888616562, -0.025230567902326584, 0.044770315289497375, 0.18274898827075958, 0.05366098880767822, 0.07069382071495056, -0.12703096866607666, 0.12658590078353882, -0.08896329998970032, -0.09644649922847748, -0.061809688806533813, -0.05156076326966286, 0.1439899206161499, -0.1599123328924179, 0.11003425717353821, 0.017563004046678543, -0.19487299025058746, 0.35308220982551575, -0.053543344140052795, -0.11662034690380096, -0.10255654901266098, -0.16193285584449768, -0.16899333894252777, -0.12063165754079819, -0.15461365878582, 0.20427358150482178, 0.13110840320587158, -0.01642521470785141, 0.11417447030544281, 0.024133525788784027, -0.19234879314899445, 0.005949433892965317, 0.19463303685188293, -0.187708780169487, 0.1916394829750061, -0.07289387285709381, -0.09170842170715332, -0.02321733348071575, 0.10971250385046005, 0.05235758796334267, -0.07311788946390152, -0.19847393035888672, 0.273630291223526, 0.28797489404678345, -0.024592097848653793, -0.025100214406847954, 0.002794872270897031, 0.17879538238048553, -0.06519480049610138, -0.12955038249492645, 0.11461813747882843, 0.13737840950489044, 0.04189371317625046, 0.15794770419597626, 0.22497235238552094, 0.015455753542482853, -0.021695682778954506, 0.03290385380387306, 0.12798897922039032, 0.11404050141572952, -0.11065313965082169, 0.1376420557498932, -0.13174737989902496, 0.008262541145086288, -0.1293794810771942, 0.0007423521601594985, -0.10973484069108963, 0.040288589894771576, -0.04736863449215889, 0.09954588115215302, -0.058604225516319275, -0.07735034078359604, 0.11398801952600479, -0.046651095151901245, 0.19047582149505615, -0.18461717665195465, -0.1394970417022705, -0.1105874702334404, -0.03622574731707573, 0.07998905330896378, 0.15974678099155426, -0.23107334971427917, 0.17660239338874817, -0.02701307088136673, 0.1427159160375595, 0.20337291061878204, 0.10129381716251373, 0.17075136303901672, -0.09312257170677185, -0.17363812029361725, -0.03149193897843361, -0.01863986998796463, -0.14892733097076416, -0.16219434142112732, 0.03254133090376854, 0.05356159433722496, -0.07168957591056824, 0.16908462345600128, -0.017302926629781723, -0.18714173138141632, 0.06259854137897491, -0.1356394737958908, -0.05239776149392128, 0.07643751055002213, -0.02452799119055271, -0.3329467475414276, -0.00316641409881413, 0.028595998883247375, -0.24033083021640778, 0.0308693815022707, 0.11423631757497787, 0.18868722021579742, 0.07842519879341125, 0.1576131135225296, -0.21725177764892578, -0.11346877366304398, -0.15961240231990814, 0.14101457595825195, -0.13408994674682617, -0.03450630232691765, -0.016148917376995087, 0.07713896781206131, -0.05936082452535629, 0.017068076878786087, -0.11453323811292648, -0.027539195492863655, -0.19609329104423523, -0.17677928507328033, 0.06825078278779984, 0.1857847273349762, -0.19949820637702942, 0.19309115409851074, -0.21322859823703766, 0.040676213800907135, -0.1218217983841896, 0.10962805151939392, -0.2626483738422394, -0.090426966547966, 0.1028863936662674, -0.14419881999492645, 0.03624679520726204, 0.0014037188375368714, -0.061298683285713196, 0.09620670229196548, -0.05473969876766205, -0.11606917530298233, -0.19389936327934265, 0.07794541865587234, -0.06819503754377365, -0.05338374152779579, -0.25065553188323975, 0.10867573320865631, 0.07739613205194473, 0.05025136470794678, -0.1549707055091858, -0.1925799697637558, 0.09053204208612442, -0.07283837348222733, -0.08723411709070206, -0.11967739462852478, -0.19142192602157593, 5.1882059779018164e-05, -0.10031101852655411, -0.10709602385759354, 0.19696350395679474, -0.10360953956842422, -0.06606055796146393, -0.07304885238409042, -0.3869176208972931, 0.08346385508775711, -0.11233879625797272, -0.1936326026916504, -0.20687368512153625, -0.04937298595905304, 0.08167785406112671, -0.02257675491273403, 0.10545153170824051, 0.15280060470104218, -0.05746028572320938, 0.05013114586472511, 0.24510091543197632, 0.09970676898956299, 0.20910479128360748, 0.00030935215181671083, -0.1676284223794937, -0.09715591371059418, 0.26211094856262207, 0.1109037697315216, -0.1424204409122467, 0.24640758335590363, -0.2059425562620163, -0.11936450004577637, 0.08315903693437576, -0.165530264377594, 0.07559021562337875, 0.017469892278313637, -0.17149394750595093, 0.0956118032336235, -0.0834214985370636, -0.04592060297727585, 0.1603122353553772, 0.14452172815799713, 0.2160593420267105, 0.05290430039167404, -0.0365845151245594, -0.29149121046066284, -0.2062704712152481, 0.051977645605802536, -0.18924987316131592, 0.06389419734477997, 0.20021061599254608, -0.1211889460682869, -0.19511070847511292, -0.029776472598314285, 0.09164126217365265, -0.04157564789056778, -0.19179370999336243, -0.23892630636692047, 0.02666574902832508, -0.09779668599367142, 0.18354780972003937, -0.04131561517715454, 0.08188978582620621, 0.19713392853736877, 0.21052780747413635, 0.13654787838459015, 0.042914018034935, -0.17448140680789948, 0.15478768944740295, -0.10618196427822113, 0.0828535407781601, -0.1827366203069687, -0.07943499833345413, 0.03768511116504669, 0.16636978089809418, -0.052879929542541504, -0.04495325684547424, 0.055755365639925, 0.0247780941426754, 0.06538917124271393, -0.23526567220687866, 0.02396519109606743, -0.1800927221775055, 0.07511031627655029, 0.18157969415187836, 0.08974156528711319, -0.16857270896434784, -0.1829528510570526, 0.21578428149223328, -0.23322592675685883, 0.14465227723121643, 0.19084373116493225, -0.15880043804645538, -0.0035007582046091557, 0.13269762694835663, 0.11533563584089279, -0.18676450848579407, 0.06257753819227219, -0.30989423394203186, 0.1457505077123642, -0.01546779740601778, -0.13609039783477783, 0.12651322782039642, 0.09959835559129715, -0.09367577731609344, 0.06894059479236603, 0.08033517003059387, 0.1261007934808731, 0.21253260970115662, -0.06396675854921341, 0.0037254614289849997, -0.005374052561819553, 0.10874925553798676, -0.012548165395855904, 0.19039110839366913, -0.19080998003482819, 0.0444326214492321, 0.014528773725032806, 0.07766826450824738, 0.1701463907957077, 0.21297070384025574, 0.14524054527282715, -0.11421501636505127, 0.05918784439563751, 0.15654148161411285, -0.0259002223610878, -0.1225631982088089, -0.07130377739667892, 0.09005807340145111, -0.08623207360506058, 0.17881719768047333, 0.05003354325890541, 0.005005152430385351, 0.07599195837974548, 0.05787891149520874, -0.25461745262145996, 0.13820688426494598, 0.1372852623462677, 0.06782867759466171, 0.20099541544914246, 0.1406133770942688, -0.1922750174999237, 0.002867736853659153, -0.11203856021165848, -0.050285693258047104, 0.11739426851272583, -0.1826988160610199, 0.03875938057899475, -0.008964152075350285, -0.20808257162570953, -0.07237190008163452, 0.12802499532699585, -0.21920675039291382, 0.08847154676914215, 0.19033801555633545, -0.22505255043506622, -0.17463968694210052, 0.086744025349617, 0.20080450177192688, 0.1689172387123108, 0.09405086189508438, -0.17839469015598297, 0.13427263498306274, 0.25978633761405945, -0.08667127043008804, 0.01768561638891697, 0.20474359393119812, 0.0942440927028656, -0.128379225730896, 0.10356470942497253, 0.1064191684126854, -0.23635946214199066, 0.36163076758384705, 0.0966363400220871, -0.07126231491565704, -0.17290183901786804, 0.10621266812086105, 0.02757200039923191, -0.20445191860198975, -0.052017103880643845, 0.23979909718036652, 0.1037401407957077, 0.07377796620130539, 0.07894487679004669, 0.033278100192546844, 0.07833488285541534, 0.03486328944563866, 0.14239858090877533, 0.08975601196289062, -0.12912774085998535, 0.032434605062007904, 0.09104463458061218, -0.2286810576915741, -0.1521110087633133, 0.09606719017028809, -0.1933640092611313, -0.17754259705543518, -0.32596245408058167, -0.4615693688392639, 0.11800353229045868, -0.2620141804218292, 0.02545059844851494, -0.05106820538640022, 0.07743123173713684, -0.19137631356716156, 0.010685381479561329, -0.23513105511665344, -0.42746150493621826, -0.2038419097661972, -0.10182511061429977, 0.07571055740118027, 0.018294818699359894, -0.009377233684062958, -0.07608135044574738, -0.06502646207809448, -0.11138845235109329, -0.03202002868056297, 0.0009724791161715984, -0.0354064516723156, 0.024669373407959938, -0.08974539488554001, -0.21195334196090698, -0.058943066745996475, -0.012541493400931358, -0.1756150722503662, -0.0010021342895925045, 0.207093745470047, -0.2163495421409607, -0.19408871233463287, 0.1813342422246933, -0.07557281851768494, -0.02537282183766365, -0.15837517380714417, 0.021227877587080002, -0.025065584108233452, 0.08722902089357376, 0.2191096544265747, -0.25308963656425476, -0.21614305675029755, 0.1755603551864624, 0.025039829313755035, 0.05653511360287666, 0.13275602459907532, 0.025549830868840218, 0.10800765454769135, -0.19541527330875397, 0.11380919069051743, -0.3530927300453186, -0.06848370283842087, 0.15666601061820984, -0.008660425432026386, 0.167027086019516, -0.1310817450284958, -0.022525139153003693, 0.06761238723993301, -0.09884040802717209, 0.0708734393119812, -0.10378164798021317, 0.07709240168333054, -0.11708667874336243, 0.1266362965106964, 0.028659870848059654, 0.0004167448205407709, -0.06953269988298416, -0.010513597168028355, 0.06349512189626694, 0.148681640625, -0.06630737334489822, -0.08590459823608398, -0.12400592863559723, -0.19541342556476593, 0.005722425878047943, -0.2026001513004303, -0.16571415960788727, 0.06455670297145844, 0.18702103197574615, 0.19327393174171448, -0.10259596258401871, -0.08186490088701248, 0.13575395941734314, 0.20941483974456787, -0.049413517117500305, 0.0757940337061882, -0.1458984911441803, 0.10657651722431183, 0.1760467141866684, 0.07357925921678543, -0.0034690117463469505, 0.10819299519062042, 0.11546479165554047, -0.08484302461147308, -0.0030979509465396404, 0.09601149708032608, -0.035165198147296906, -0.06840145587921143, -0.01386866346001625, -0.019895680248737335, -0.13942699134349823, 0.10258036106824875, -0.1095627024769783, -0.035958271473646164, 0.15651649236679077, -0.09542398899793625, 0.09468016773462296, -0.020650655031204224, -0.26152336597442627, 0.21416856348514557, 0.11907782405614853, 0.1746649146080017, -0.04473753273487091, -0.07797135412693024, -0.1590457558631897, 0.11108723282814026, 0.18627245724201202, 0.08725497126579285, -0.19619867205619812, 0.09400041401386261, 0.12822271883487701, -0.15885214507579803, 0.09940003603696823, -0.07935480773448944, -0.0796416774392128, 0.05198037251830101, 0.020305749028921127, -0.1705946922302246, 0.17999392747879028, -0.06843307614326477, 0.21741311252117157, -0.059548597782850266, -0.09878803789615631, 0.15056759119033813, 0.012062408030033112, -0.10708881914615631, -0.30784112215042114, -0.06252103298902512, 0.14111939072608948, 0.11961584538221359, 0.008811685256659985, 0.05316203087568283, -0.1358160376548767, -0.18933604657649994, 0.12648726999759674, -0.2302400916814804, 0.06490954756736755, 0.17256899178028107, -0.10413630306720734, 0.030949579551815987, 0.17221353948116302, 0.11297067254781723, 0.03205772116780281, -0.04335427284240723, 0.22905318439006805, -0.08063319325447083, 0.2413078397512436, -0.025201430544257164, 0.19975054264068604, 0.011827739886939526, 0.14584974944591522, -0.14052163064479828, -0.01222282275557518, -0.06868387758731842, 0.08388350903987885, -0.015134710818529129, 0.05855957418680191, -0.029201582074165344, -0.1152520552277565, 0.1163424402475357, -0.06941482424736023, -0.41619598865509033, 0.13485847413539886, -0.21337804198265076, -0.020036514848470688, -0.08238740265369415, -0.08252021670341492, 0.11820761114358902, 0.20603930950164795, -0.17804837226867676, -0.04224583879113197, 0.23928074538707733, -0.05244841054081917, 0.08232462406158447, -0.20990601181983948, -0.23545603454113007, 0.1264730840921402, -0.0674491748213768, 0.00936385989189148, -0.21802963316440582, -0.41253662109375, -0.08317364752292633, -0.017790161073207855, 0.09156449139118195, -0.0067991772666573524, 0.01497297640889883, -0.17804300785064697, -0.20035597681999207, -0.042509451508522034, -0.12774930894374847, 0.14896242320537567, -0.16485685110092163, 0.11382197588682175, 0.16900582611560822, -0.048366475850343704, -0.216880202293396, -0.09491283446550369, -0.2700995206832886, -0.18020394444465637, 0.19957591593265533, 0.09457653015851974, 0.05396456643939018, 0.054958708584308624, 0.031092047691345215, 0.13241586089134216, -0.08052666485309601, 0.21910957992076874, -0.035142868757247925, -0.0332115963101387, 0.06308992952108383, 0.0642685666680336, 0.07394527643918991, 0.11871303617954254, 0.12655191123485565, 0.04945407062768936, -0.041131146252155304, -0.05724864825606346, -0.13768109679222107, 0.029410501942038536, 0.16433179378509521, -0.21316958963871002, -0.19011330604553223, 0.06351278722286224, 0.06572671234607697, -0.2118692398071289, 0.012982209213078022, 0.157987579703331, 0.026775527745485306, -0.18599282205104828, -0.1545799821615219, 0.09781999886035919, -0.14300961792469025, 0.11970508843660355, -0.20362181961536407, -0.10071153193712234, 0.04900258034467697, 0.1633123904466629, 0.11320716887712479, -0.035842202603816986, -0.06495075672864914, -0.02527211420238018, -0.16675449907779694, -0.32647401094436646, -0.21509526669979095, 0.17331795394420624, -0.04431689903140068, -0.04053254798054695, 0.04218970611691475, -0.02895636297762394, -0.2137586921453476, 0.02088642120361328, 0.19569829106330872, -0.1988077312707901, 0.08784011751413345, -0.21397055685520172, -0.017676308751106262, -0.15733572840690613, -0.1724248081445694, 0.20098994672298431, 0.1754760593175888, 0.05775447189807892, 0.08533497899770737, -0.11906976997852325, 0.06412176787853241, -0.1516442596912384, -0.16378267109394073, 0.21660910546779633, 0.15604111552238464, 0.06914005428552628, 0.015981271862983704, -0.009408143348991871, -0.017450230196118355, 0.15507175028324127, -0.12485478073358536, 0.1879514455795288, 0.08324194699525833, 0.126242995262146, 0.02932851016521454, 0.19033010303974152, -0.00841976236552, -0.1298663467168808, 0.16714447736740112, 0.14135363698005676, -0.08792271465063095, 0.13306672871112823, -0.06865456700325012, -0.20593135058879852, -0.2011333405971527, -0.05863269418478012, 0.04613206908106804, -0.11307920515537262, -0.11453356593847275, 0.21763528883457184, 0.12255404144525528, -0.09937691688537598, -0.011761034838855267, -0.0462317056953907, 0.10915257781744003, -0.05409108102321625, 0.13419795036315918, 0.028380967676639557, -0.03989697992801666, 0.08430071920156479, 0.10379163175821304, -0.16964015364646912, -0.0586630254983902, -0.3428230881690979, -0.0955662801861763, -0.06905891746282578, 0.1543561816215515, -0.11610313504934311, -0.05557282641530037, 0.058386411517858505, -0.19736348092556, 0.3094341456890106, -0.4107147455215454, -0.1883440911769867, -0.1841520071029663, -0.09364532679319382, -0.0419485867023468, 0.1685229241847992, 0.17640265822410583, -0.024743570014834404, 0.23056627810001373, -0.26898133754730225, -0.1276557594537735, -0.15296588838100433, 0.23043520748615265, 0.11783705651760101, -0.09443394094705582, 0.11521631479263306, -0.007075744215399027, -0.10765859484672546, 0.20375342667102814, -0.021675745025277138, 0.08766405284404755, -0.0539536327123642, -0.21727998554706573, -0.15838998556137085, 0.014139029197394848, 0.14087723195552826, -0.1530720591545105, 0.22311781346797943, -0.06279172003269196, 0.009464538656175137, -0.24105052649974823, 0.0584774948656559, 0.15406551957130432, 0.10629511624574661, 0.010051899589598179, 0.10811897367238998, 0.005968107376247644, 0.028853965923190117, 0.09498487412929535, 0.017518749460577965, 0.07098951935768127, -0.030163373798131943, -0.08111944794654846, -0.015084870159626007, -0.10748827457427979, -0.10682254284620285, -0.1178743839263916, 0.1105390414595604, 0.16474352777004242, 0.1451367288827896, -0.047601617872714996, 0.1233750656247139, -0.2110278308391571, -0.09168343991041183, -0.12267505377531052, -0.1417008936405182, -0.02882532775402069, -0.06628693640232086, -0.013776393607258797, -0.19653961062431335, 0.09092649072408676, -0.050603460520505905, -0.23806551098823547, 0.4022323787212372, 0.0982716977596283, -0.2310311496257782, -0.008362580090761185, -0.04540935158729553, -0.18039362132549286, 0.15488745272159576, -0.12634219229221344, -0.20851708948612213, 0.0028280317783355713, 0.1706453561782837, -0.06323149800300598, 0.13909751176834106, 0.088438019156456, -0.10262187570333481, -0.19201506674289703, -0.012658169493079185, -0.04714573174715042, 0.0624893493950367, 0.0609310008585453, -0.08130846917629242, 0.1860238015651703, 0.24111822247505188, -0.16935467720031738, 0.14444665610790253, 0.0261174738407135, 0.03207368403673172, 0.06314722448587418, -0.01225882489234209, 0.18162617087364197, -0.0511409156024456, -0.15512751042842865, -0.03549950197339058, -0.1086798757314682, 0.14264588057994843, 0.09472417086362839, 0.23041965067386627, 0.0447986014187336, 0.0879439041018486, 0.2306397259235382, 0.17784544825553894, 0.1725093126296997, -0.2059684693813324, 0.15214170515537262, 0.022580519318580627, 0.0990268662571907, -0.08213962614536285, -0.05244877561926842, -0.25432294607162476, 0.1607314497232437, 0.09085733443498611, 0.03897761553525925, -0.18865832686424255, 0.14417417347431183, 0.07817838340997696, 0.0764264240860939, 0.13762058317661285, -0.11371167004108429, -0.03271998092532158, -0.23237894475460052, 0.14374151825904846, 0.09485427290201187, 0.07075395435094833, 0.12329506874084473, -0.17104153335094452, 0.0339217483997345, -0.09025972336530685, -0.23558032512664795, -0.14021556079387665, -0.21683833003044128, -0.16432404518127441, -0.024337954819202423, 0.04455440863966942, 0.10388749092817307, 0.023022959008812904, 0.06916891783475876, -0.051415421068668365, -0.07703032344579697, -0.05505876988172531, -0.09832713752985, 0.04547939822077751, -0.1446244865655899, -0.040052417665719986, 0.09341887384653091, 0.01903584599494934, -0.009531233459711075, -0.19058559834957123, -0.06830695271492004, -0.10501599311828613, 0.1006181463599205, -0.16599440574645996, 0.003073437139391899, -0.14660415053367615, 0.10263479501008987, -0.2008676528930664, -0.2559964656829834, 0.05867085978388786, -0.11935117095708847, -0.14386847615242004, 0.13699404895305634, -0.17933055758476257, 0.09816580265760422, -0.12645839154720306, 0.26875609159469604, -0.09961581230163574, -0.10951299220323563, 0.03363783285021782, 0.1300339698791504, -0.1218864843249321, 0.0242869034409523, -0.17067745327949524, 0.055740490555763245, -0.1001611053943634, -0.08932892978191376, -0.07361455261707306, 0.007159985601902008, 0.006052328273653984, -0.09056951105594635, -0.10991580039262772, 0.16154412925243378, 0.18774192035198212, 0.15670931339263916, 0.17888835072517395, 0.011262542568147182, -0.1649443656206131, 0.2679082155227661, -0.11060391366481781, -0.02347017638385296, 0.13478583097457886, 0.03880691155791283, -0.0990564152598381, -0.14437173306941986, 0.010382428765296936, -0.14849472045898438, 0.20662198960781097, 0.01882936991751194, 0.0368531197309494, -0.13809241354465485, -0.056319709867239, -0.13171634078025818, -0.19769878685474396, 0.04303906112909317, -0.015283172950148582, -0.03334957733750343, 0.19640003144741058, -0.017526963725686073, 0.11289698630571365, -0.03051494061946869, -0.21660877764225006, 0.0165034681558609, -0.016804225742816925, 0.006750733591616154, -0.19256673753261566, 0.16869308054447174, 0.08290047198534012, 0.0707981064915657, 0.13617092370986938, 0.20664916932582855, -0.07306534051895142, 0.02342752367258072, -0.18276306986808777, -0.21704158186912537, 0.1414305865764618, -0.06777147948741913, -0.12027217447757721, 0.15616202354431152, -0.19166970252990723, 0.19620965421199799, 0.12859861552715302, 0.061822909861803055, 0.16073636710643768, -0.05271691828966141, -0.16949383914470673, -0.15310031175613403, -0.13138528168201447, -0.10956001281738281, 0.13646215200424194, -0.12137638032436371, -0.08156529814004898, 0.23516559600830078, 0.3680872619152069, -0.09293918311595917, 0.09232137352228165, -0.17763173580169678, 0.12737731635570526, 0.03625420853495598, -0.1493435800075531, -0.027984928339719772, -0.0971250832080841, 0.37614691257476807, -0.002131714951246977, 0.09521637111902237, 0.030434224754571915, -0.1588132679462433, 0.08047016710042953, 0.1050443947315216, -0.046534206718206406, 0.18408562242984772, -0.1271986961364746, -0.17640742659568787, -0.15905699133872986, -0.020936165004968643, -0.26495397090911865, -0.10905388742685318, -0.22898583114147186, -0.23942884802818298, 0.14420239627361298, 0.0453171581029892, -0.27839362621307373, 0.054998334497213364, 0.17079532146453857, -0.21714891493320465, 0.14526857435703278, -0.08951802551746368, -0.034718889743089676, 0.10158763825893402, -0.11667164415121078, -0.30387061834335327, -0.2571370303630829, -0.2268412560224533, -0.1711767613887787, -0.14896366000175476, -0.23404929041862488, -0.15812140703201294, 0.1294889897108078, -0.09741614013910294, -0.06397093087434769, 0.15899357199668884, -0.17268411815166473, 0.10188373178243637, 0.14994537830352783, -0.1861853152513504, -0.19123554229736328, -0.2509535849094391, -0.02724524959921837, -0.22883029282093048, 0.11383599042892456, 0.2195368856191635, -0.010636482387781143, 0.21965563297271729, 0.0504847913980484, -0.07099190354347229, -0.062151383608579636, -0.04551828280091286, 0.20206144452095032, 0.15016187727451324, 0.11377248167991638, -0.20706899464130402, -0.10375867784023285, -0.17968134582042694, -0.17695298790931702, 0.18715894222259521, -0.3835867643356323, 0.07328297197818756, -0.12967000901699066, 0.1460334062576294, -0.10174024105072021, -0.19476892054080963, 0.1837451010942459, 0.04762066528201103, 0.022603806108236313, 0.03712209686636925, -0.17537541687488556, 0.19002440571784973, 0.08968691527843475, 0.2066584825515747, -0.09887346625328064, 0.04057304561138153, 0.05995246022939682, 0.0958743765950203, 0.13155639171600342, 0.07353784143924713, 0.09018532186746597, 0.07689809054136276, 0.11134400963783264, 0.012673006393015385, 0.05176851525902748, -0.20849306881427765, 0.19108910858631134, 0.22503963112831116, -0.01689751259982586, 0.08561216294765472, 0.18379561603069305, 0.20471513271331787, 0.020930461585521698, -0.03268945962190628, -0.09129542112350464, -0.057454921305179596, -0.10132213681936264, 0.02375895157456398, -0.03090779297053814, 0.18170402944087982, 0.1095723882317543, 0.24673789739608765, 0.050665244460105896, -0.062050409615039825, -0.044611599296331406, 0.1288572996854782, -0.19020847976207733, -0.02542315050959587, -0.00810109544545412, 0.03808491304516792, -0.15173058211803436, 0.019084211438894272, 0.22663280367851257, 0.09278430044651031, -0.12557560205459595, -0.17060169577598572, 0.06671066582202911, -0.12062546610832214, 0.03334566578269005, 0.0564914233982563, 0.0721174106001854, -0.04046507552266121, 0.09746427088975906, 0.3448832035064697, 0.04835357144474983, -0.07989960163831711, -0.08345180004835129, 0.18627536296844482, -0.18480443954467773, 0.18650855123996735, 0.058730367571115494, 0.16029229760169983, 0.21998752653598785, -0.024549100548028946, -0.17913269996643066, -0.12358177453279495, 0.21681851148605347, 0.05850168317556381, 0.10459381341934204, 0.10917525738477707, -0.055225055664777756, -0.2159871906042099, -0.04197709262371063, -0.12254922091960907, 0.1683948040008545, 0.13120390474796295, -0.08335211127996445, -0.10915768891572952, 0.13474991917610168, -0.10545399785041809, 0.20077474415302277, -0.05344178527593613, -0.006866610608994961, -0.16997991502285004, -0.1635923981666565, -0.13838501274585724, -0.16889774799346924, 0.09838809818029404, 0.04149017110466957, 0.22221313416957855, -0.14372986555099487, 0.10540629178285599, -0.0782548263669014, 0.0851629450917244, 0.10576271265745163, 0.1519336700439453, -0.1303911954164505, 0.22301839292049408, -0.20911699533462524, -0.12323693931102753, -0.15746380388736725, 0.0639718696475029, -0.1662418395280838, 0.021921444684267044, -0.10037258267402649, 0.16494342684745789, 0.027738718315958977, 0.2824496626853943, -0.20099003612995148, -0.2076011449098587, 0.029706403613090515, -0.22252719104290009, -0.21727877855300903, -0.026757197454571724, -0.14514614641666412, 0.04149659723043442, 0.10841440409421921, -0.23658449947834015, 0.1390717327594757, 0.12687334418296814, 0.13236479461193085, 0.039125628769397736, 0.0746450200676918, -0.15506601333618164, 0.18229205906391144, -0.03869369626045227, -0.038033463060855865, -0.1661480814218521, 0.04867015779018402, -0.009691314771771431, -0.1720474660396576, -0.07741310447454453, -0.17600427567958832, 0.22260607779026031, 0.16768503189086914, 0.14320193231105804, 0.12938536703586578, -0.02202235348522663, -0.04212949424982071, -0.24996280670166016, 0.09477321058511734, 0.062399670481681824, -0.027749676257371902, -0.12129189074039459, -0.04954779893159866, -0.2855890393257141, -0.0185793898999691, 0.1054031252861023, 0.1547306925058365, -0.03280733525753021, 0.14254745841026306, 0.23356275260448456, 0.2357187122106552, -0.03370905667543411, -0.06784417480230331, 0.14161939918994904, -0.022450948134064674, 0.0024134928826242685, -0.11939588934183121, 0.03325461596250534, -0.03354129195213318, -0.007082153111696243, 0.12184642255306244, 0.08384327590465546, 0.14647746086120605, 0.01370092760771513, -0.07246208935976028, 0.14471709728240967, 0.12354914098978043, -0.21104378998279572, -0.12839652597904205, -0.040944769978523254, 0.033493395894765854, -0.11125349253416061, -0.12652607262134552, -0.17223548889160156, -0.10307769477367401, -0.033090416342020035, 0.1168891042470932, -0.016661416739225388, 0.14086271822452545, 0.13883399963378906, 0.18552017211914062, 0.17143090069293976, 0.18735052645206451, -0.23516413569450378, -0.1396455019712448, 0.23646493256092072, -0.015512404032051563, 0.1421462893486023, 0.005214151460677385, 0.11909878998994827, 0.06961486488580704, -0.18553400039672852, -0.1580415815114975, 0.09427528083324432, -0.07224560528993607, 0.18754588067531586, 0.21789085865020752, -0.11868729442358017, -0.19461914896965027, -0.14623329043388367, -0.20496919751167297, -0.17093588411808014, 0.1840054839849472, 0.06257326155900955, -0.157220259308815, 0.16196882724761963, -0.22985532879829407, 0.0948852077126503, -0.017975488677620888, -0.22359859943389893, 0.018970204517245293, -0.009328130632638931, -0.24103239178657532, -0.13545265793800354, -0.14760813117027283, 0.0005371472216211259, 0.09518241137266159, 0.03970771282911301, 0.16915011405944824, -0.18207311630249023, 0.19965633749961853, 0.019951174035668373, 0.19495488703250885, -0.16726163029670715, -0.0067051989026367664, -0.08004117757081985, -0.0787070170044899, 0.20753365755081177, 0.23229072988033295, 0.04112095385789871, -0.061859793961048126, -0.19774971902370453, 0.13407331705093384, -0.22093155980110168, 0.2389138787984848, -0.044967666268348694, 0.20055262744426727, 0.023646671324968338, 0.2024991512298584, 0.08594115823507309, -0.2688082158565521, 0.019984690472483635, 0.057138193398714066, 0.056551311165094376, -0.07170255482196808, 0.10547779500484467, 0.16837114095687866, -0.16134755313396454, 0.2177102267742157, -0.11085210740566254, 0.1369682252407074, 0.17325887084007263, 0.019246187061071396, 0.1188601702451706, 0.20191864669322968, 0.13243791460990906, 0.027574827894568443, -0.05668364092707634, 0.07193757593631744, 0.1314113885164261, -0.1176542341709137, -0.1479218453168869, -0.15421481430530548, -0.16352255642414093, 0.21017858386039734, 0.13030314445495605, -0.14733034372329712, -0.18745501339435577, -0.22821123898029327, -0.1419985145330429, -0.15387681126594543, -0.029754048213362694, 0.006458525080233812, 0.12124171108007431, 0.057597700506448746, 0.19675803184509277, 0.14858736097812653, 0.19148364663124084, 0.05168744549155235, 0.03838790953159332, -0.21886500716209412, -0.06509748846292496, 0.08296269178390503, 0.06478888541460037, 0.1654067486524582, 0.03959346190094948, 0.2183658480644226, 0.21093079447746277, -0.236393004655838, 0.06768189370632172, 0.02300545759499073, 0.14071698486804962, -0.10515487194061279, 0.15731288492679596, 0.003203024622052908, 0.1418377161026001, -0.1626920849084854, -0.12934544682502747, 0.08151201903820038, -0.06281185150146484, 0.06791432946920395, -0.07133181393146515, 0.15557926893234253, 0.11626038700342178, 0.05744831636548042, -0.08586512506008148, 0.07261424511671066, -0.07755366712808609, 0.1329556554555893, -0.18796077370643616, 0.12837918102741241, 0.12009015679359436, -0.13478794693946838, 0.12472530454397202, -0.2643624544143677, 0.06152310222387314, 0.24158580601215363, 0.0762820616364479, 0.03507259115576744, 0.012920874170958996, -0.13314677774906158, 0.07518196105957031, 0.2719499468803406, 0.042051371186971664, 0.1268179714679718, -0.22490739822387695, -0.20275266468524933, -0.21298210322856903, 0.18728353083133698, -0.05428630858659744, -0.05688372999429703, -0.11403057724237442, 0.1156931221485138, 0.008397756144404411, 0.19494085013866425, -0.1720626801252365, -0.1138853058218956, 0.17280957102775574, -0.32373377680778503, 0.18250936269760132, -0.17406713962554932, 0.11901482939720154, -0.16104905307292938, -0.1209297776222229, -0.17519034445285797, 0.03026975877583027, -0.0965220183134079, -0.05304191634058952, 0.038107991218566895, -0.015318412333726883, -0.09931189566850662, -0.16089169681072235, -0.04708312451839447, -0.18402458727359772, 0.02460978552699089, -0.1750110238790512, 0.23850254714488983, 0.178205206990242, -0.11208626627922058, 0.056325435638427734, 0.0857267901301384, 0.08832735568284988, -0.15918180346488953, -0.11103731393814087, 0.11857114732265472, 0.2234567552804947, 0.15779559314250946, 0.10723216831684113, 0.22493098676204681, -0.06587815284729004, -0.2477124184370041, 0.11987709999084473, -0.09780842810869217, 0.12531064450740814, -0.004282970447093248, 0.15855973958969116, 0.12747907638549805, -0.20623040199279785, -0.07885078340768814, 0.11853624135255814, -0.05743324011564255, 0.004981571342796087, 0.08345480263233185, 0.08258147537708282, 0.06762421876192093, 0.11696693301200867, -0.134260892868042, -0.12224271148443222, -0.1484653800725937, 0.048711344599723816, 0.07498344779014587, 0.008299250155687332, -0.10213280469179153, -0.16111987829208374, 0.029385289177298546, -0.03599424660205841, 0.08556091785430908, 0.035373445600271225, -0.15342621505260468, 0.14518730342388153, -0.12045680731534958, -0.102845698595047, 0.07226351648569107, 0.11218445003032684, 0.02076207660138607, 0.2127687633037567, 0.1766752302646637, -0.06438875198364258, 0.015583263710141182, 0.14791223406791687, 0.16545714437961578, -0.0900760069489479, 0.09083189815282822, -0.22596687078475952, 0.03003963641822338, -0.068191297352314, 0.09815956652164459, 0.07960180193185806, 0.05699324980378151, 0.1055976003408432, 0.27061784267425537, 0.044178981333971024, -0.16059985756874084, -0.18549872934818268, -0.13648608326911926, 0.14417393505573273, -0.156917542219162, 0.12690278887748718, -0.250653475522995, -0.25473690032958984, 0.11579784005880356, -0.061550337821245193, -0.0789206251502037, 0.09291648119688034, 0.19930791854858398, 0.07316876202821732, 0.0491701178252697, -0.08087322115898132, 0.11833519488573074, 0.15748196840286255, -0.1391488015651703, 0.21613533794879913, 0.07066678255796432, -0.010634045116603374, -0.08333486318588257, 0.15527480840682983, 0.07772625237703323, 0.2441226840019226, -0.04349704086780548, -0.14063194394111633, -0.16571980714797974, -0.3019190728664398, 0.051836047321558, -0.13726966083049774, 0.06671328842639923, 0.1808561086654663, 0.12756256759166718, -0.1673436462879181, -0.09171105921268463, -0.09442209452390671, 0.22583672404289246, -0.14604608714580536, 0.12896452844142914, 0.1930670291185379, 0.17564845085144043, -0.013522467575967312, -0.02589566819369793, 0.08827725052833557, 0.010175606235861778, -0.2576978802680969, 0.09699419885873795, -0.09976326674222946, -0.08478163182735443, -0.07372988760471344, -0.09312208741903305, -0.15925472974777222, -0.17500993609428406, 0.13531506061553955, -0.011266841553151608, -0.11590226739645004, -0.057501886039972305, -0.166840061545372, -0.19935259222984314, -0.114812932908535, -0.035490792244672775, 0.16279824078083038, -0.19536192715168, -0.0284422617405653, 0.00856518279761076, 0.019285211339592934, 0.09167543798685074, 0.10350050032138824, -0.08981295675039291, -0.25918370485305786, -0.042499519884586334, 0.06315740197896957, 0.0996619388461113, 0.133894145488739, -0.09204880893230438, 0.08951686322689056, 0.21164554357528687, 0.18586185574531555, 0.13125573098659515, -0.05761893838644028, 0.016572482883930206, -0.16511188447475433, 0.14185094833374023, 0.05869782716035843, 0.044039156287908554, -0.19200299680233002, 0.19499313831329346, 0.12372338026762009, -0.07917609065771103, -0.17192643880844116, 0.01745300181210041, 0.19180601835250854, 0.00018881342839449644, 0.13626794517040253, 0.1542409062385559, 0.10592010617256165, 0.17144931852817535, 0.3204529583454132, -0.2272425889968872, -0.07001981884241104, 0.16452018916606903, 0.07400868088006973, -0.09658745676279068, -0.19573302567005157, -0.06648766249418259, 0.10890527814626694, -0.02599964290857315, 0.227308988571167, -0.03966856375336647, 0.0650399923324585, 0.08187985420227051, -0.10676293075084686, 0.1699681580066681, 0.035571228712797165, -0.17738041281700134, 0.12909820675849915, 0.17747634649276733, 0.1429225355386734, -0.1343029886484146, -0.1296444684267044, 0.06754638999700546, 0.04663076251745224, -0.2983553409576416, 0.17136047780513763, 0.11636794358491898, 0.13392877578735352, 0.11249347776174545, -0.24707312881946564, -0.20711809396743774, -0.0281028151512146, 0.28990837931632996, -0.10703743994235992, 0.09864024072885513, 0.11618945002555847, -0.1722675859928131, 0.08792849630117416, -0.04304501786828041, 0.02895665168762207, 0.15870369970798492, 0.3290281295776367, 0.14384934306144714, 0.17046403884887695, -0.1568901389837265, -0.04180927947163582, -0.23705923557281494, -0.09901561588048935, 0.1459837704896927, 0.16527964174747467, -0.03291024640202522, -0.15624314546585083, 0.08027081191539764, -0.13837696611881256, 0.1450437307357788, -0.04871555417776108, 0.08114758878946304, -0.16271275281906128, 0.012974529527127743, 0.17906057834625244, 0.09045173972845078, -0.17374181747436523, -0.2277073711156845, -0.0745214968919754, -0.1819697767496109, 0.03360023349523544, -0.15733397006988525, -0.09607908874750137, 0.22045695781707764, -0.15538565814495087, 0.1160377487540245, -0.057145506143569946, 0.12380964308977127, -0.1438462734222412, 0.2278045117855072, -0.2035015970468521, -0.1308373212814331, 0.011013869196176529, -0.2240409404039383, -0.11595163494348526, 0.051686182618141174, 0.05141839757561684, -0.13033895194530487, -0.08567505329847336, -0.19474565982818604, 0.03401479497551918, 0.016293199732899666, 0.09864795953035355, -0.2447531670331955, 0.13173870742321014, 0.07505407184362411, -0.14149980247020721, 0.09749904274940491, -0.20878687500953674, 0.056544456630945206, 0.23752130568027496, -0.12643715739250183, 0.06194503605365753, 0.22261852025985718, 0.10567266494035721, 0.024514352902770042, 0.06655614823102951, -0.13524092733860016, 0.14078189432621002, -0.10332944989204407, -0.13071151077747345, -0.07423702627420425, -0.026585277169942856, 0.0025326870381832123, 0.1350795030593872, -0.18782858550548553, -0.06515506654977798, 0.06653601676225662, 0.05813764035701752, 0.006509387865662575, -0.25328218936920166, 0.33994391560554504, -0.13978096842765808, -0.07333225756883621, -0.15487703680992126, -0.2388797551393509, -0.029141642153263092, -0.2445075511932373, -0.24450302124023438, 0.06875411421060562, -0.11855804920196533, 0.14721643924713135, 0.08857003599405289, 0.11389340460300446, 0.10386787354946136, -0.02158290147781372, -0.12518078088760376, 0.13462471961975098, -0.1135571077466011, -0.10450989753007889, -0.08162553608417511, 0.005056293215602636, -0.0447821281850338, -0.2359468787908554, 0.07699376344680786, 0.08285009860992432, -0.22925059497356415, 0.06458829343318939, 0.13413649797439575, 0.20506156980991364, -0.06676557660102844, 0.1662684679031372, 0.07237613946199417, -0.12024013698101044, 0.19450320303440094, 0.08977276086807251, -0.08892437070608139, 0.16140130162239075, -0.16512463986873627, 0.07443525642156601, -0.0025771658401936293, 0.1906988024711609, -0.12206681072711945, 0.03312557935714722, 0.2958388924598694, -0.04919232055544853, -0.01292276382446289, -0.04634324088692665, -0.17257116734981537, -0.1668316125869751, 0.06429433077573776, -0.16852442920207977, -0.2832481861114502, 0.1288958638906479, 0.19542372226715088, 0.1925731599330902, -0.23029610514640808, -0.09323951601982117, 0.15293870866298676, -0.17987221479415894, -0.040022969245910645, -0.06280799955129623, 0.06131885200738907, 0.09447257220745087, 0.0554860420525074, -0.014936555176973343, 0.18111175298690796, 0.033818118274211884, 0.010209974832832813, -0.08469603210687637, 0.18172644078731537, -0.14462268352508545, -0.02391969971358776, -0.11163632571697235, 0.15599024295806885, -0.10420303791761398, -0.1625598818063736, -0.17516911029815674, 0.20102672278881073, 0.1083584800362587, 0.19531936943531036, -0.08868416398763657, -0.027478855103254318, 0.014033649116754532, 0.2382715493440628, -0.014577475376427174, -0.14287488162517548, 0.14319930970668793, -0.18904434144496918, 0.022930152714252472, -0.039794787764549255, -0.15667879581451416, -0.012086711823940277, -0.11199478060007095, -0.09485939890146255, -0.08385347574949265, 0.16422490775585175, -0.21017587184906006, 0.06288427859544754, -0.038459837436676025, 0.11114787310361862, 0.11011223495006561, 0.06463436782360077, 0.15936370193958282, -0.09285672008991241, -0.01184156071394682, -0.30536675453186035, -0.015183123759925365, 0.01813318394124508, -0.20298652350902557, 0.18520328402519226, 0.2025458663702011, 0.03727828338742256, 0.2103317826986313, -0.03522217273712158, 0.17302264273166656, -0.15390151739120483, 0.12456651031970978, -0.03784699738025665, -0.18608573079109192, -0.07012113928794861, -0.06502500176429749, 0.019187327474355698, 0.1607198864221573, -0.026021603494882584, 0.0797143280506134, -0.07526206225156784, 0.0017396785551682115, 0.10769502073526382, -0.060298845171928406, 0.1672878861427307, 0.13869380950927734, -0.15795813500881195, 0.257331907749176, 0.012506051920354366, -0.06383570283651352, -0.14067932963371277, 0.05495718494057655, -0.22367534041404724, 0.19297316670417786, 0.05332362279295921, -0.06469550728797913, -0.09035850316286087, 0.21565373241901398, -0.2477048933506012, 0.09345224499702454, 0.10484819859266281, 0.09406459331512451, 0.24649497866630554, 0.04356718063354492, -0.0761629045009613, -0.1877385973930359, 0.07005393505096436, 0.0176064595580101, -0.02752787247300148, -0.1891653835773468, 0.08077673614025116, 0.1816328912973404, 0.027515767142176628, 0.12309407442808151, 0.21055090427398682, -0.05340087041258812, -0.07164893299341202, -0.2171446681022644, -0.15907099843025208, -0.09185478836297989, 0.028260836377739906, -0.15862929821014404, -0.06681980192661285, 0.03172769770026207, 0.2634907364845276, -0.1579413115978241, 0.17491744458675385, -0.09942613542079926, -0.21126626431941986, 0.14938023686408997, -0.19704854488372803, -0.09628862142562866, -0.23812474310398102, 0.2631473243236542, -0.1481432318687439, -0.2252306044101715, -0.21913743019104004, 0.13449308276176453, -0.10862228274345398, 0.10105954855680466, 0.06427808851003647, -0.10232087969779968, -0.21705107390880585, 0.018870435655117035, -0.09512852132320404, 0.06721863895654678, -0.17138174176216125, 0.14069795608520508, -0.058024805039167404, 0.1424320638179779, -0.029800906777381897, -0.11022891849279404, -0.04515539109706879, 0.03536880016326904, -0.18226340413093567, 0.033672500401735306, -0.21873803436756134, 0.004143216647207737, -0.11243097484111786, 0.09037524461746216, 0.19271109998226166, 0.057640332728624344, -0.018539413809776306, -0.09312138706445694, -0.06661354005336761, -0.0023549667093902826, -0.05020866543054581, -0.08274290710687637, 0.0433165468275547, -0.1977471262216568, 0.011413364671170712, -0.17400559782981873, -0.1548607498407364, -0.1629284769296646, -0.01095439214259386, -0.19470299780368805, -0.14365942776203156, 0.3062589764595032, -0.07459454238414764, -0.12227572500705719, 0.1403951644897461, -0.20421230792999268, 0.19070515036582947, 0.13361017405986786, -0.05826575681567192, -0.16302138566970825, 0.12550091743469238, 0.2877795398235321, -0.23658387362957, 0.10928147286176682, -0.07383190840482712, -0.18126973509788513, 0.1654898226261139, 0.16862961649894714, -0.20886321365833282, -0.0644540935754776, -0.05837792530655861, -0.12239396572113037, 0.08512341231107712, -0.14016200602054596, -0.10841352492570877, -0.09676197171211243, -0.16807234287261963, -0.050523873418569565, -0.07197581976652145, -0.057951122522354126, -0.10748396068811417, -0.081134133040905, 0.22179123759269714, -0.06332901120185852, 0.19373220205307007, -0.13185971975326538, 0.11836010217666626, 0.2222689390182495, 0.1289674937725067, -0.13803015649318695, -0.2015121579170227, -0.18885552883148193, -0.23428308963775635, -0.10158661752939224, -0.021084388718008995, -0.009603564627468586, -0.17081081867218018, -0.06461445242166519, -0.13259084522724152, 0.03552601858973503, 0.02753530628979206, -0.023562563583254814, -0.11968568712472916, 0.07341843843460083, 0.05357060208916664, -0.2133544683456421, -0.08437097817659378, -0.2379978448152542, 0.12661217153072357, 0.012250062078237534, -0.11180269718170166, -0.16553154587745667, -0.008449583314359188, -0.13412350416183472, -0.30479615926742554, -0.2684696912765503, -0.051515765488147736, -0.19661705195903778, -0.1706574708223343, -0.015488173812627792, 0.06278164684772491, 0.08330808579921722, 0.1489103138446808, -0.01764812134206295, -0.1394236832857132, -0.04389169439673424, -0.041783761233091354, 0.09488335996866226, 0.05019296705722809, -0.20165133476257324, 0.08237939327955246, -0.0841469019651413, -0.05563877522945404, -0.15225276350975037, 0.08763545006513596, 0.14607451856136322, -0.12221119552850723, 0.17164315283298492, -0.06041723117232323, 0.22404807806015015, 0.16737492382526398, -0.15997806191444397, 0.015958188101649284, 0.11178414523601532, -0.0032639820128679276, -0.11012422293424606, -0.08726372569799423, -0.1433771848678589, -0.13190484046936035, -0.15647491812705994, 0.1642569601535797, -0.10563543438911438, 0.2181035876274109, 0.08052011579275131, 0.10865128040313721, -0.09569670259952545, -0.1323021501302719, 0.16596433520317078, 0.029146194458007812, -0.33722102642059326, 0.222489133477211, 0.18674805760383606, -0.03953028470277786, 0.026493653655052185, 0.1873565912246704, -0.03389599546790123, -0.13114722073078156, 0.11781357228755951, 0.008015407249331474, 0.15939174592494965, -0.06971049308776855, -0.11647839844226837, 0.1123938113451004, -0.18820452690124512, 0.056360211223363876, -0.12474174797534943, -0.0912652239203453, -0.14651606976985931, 0.05205297842621803, -0.09393760561943054, -0.21015794575214386, -0.05568922311067581, 0.02217254415154457, -0.10908054560422897, 0.13961653411388397, -0.06294871866703033, 0.2444009631872177, -0.07468973845243454, 0.05371307209134102, 0.21147000789642334, 0.09697869420051575, -0.061583321541547775, -0.018098480999469757, 0.051469095051288605, 0.17715565860271454, -0.01648217812180519, -0.10718635469675064, -0.15653061866760254, 0.15805883705615997, 0.009269816800951958, 0.12110724300146103, 0.037577226758003235, -0.005878669675439596, 0.1006954237818718, -0.086197629570961, 0.1207430511713028, 0.15194638073444366, -0.1595219373703003, 0.1442447304725647, 0.1540936827659607, -0.17749187350273132, -0.09683242440223694, 0.16765759885311127, -0.2264081984758377, -0.019236192107200623, 0.103188157081604, -0.0108216293156147, -0.10073017328977585, 0.23938383162021637, -0.0525059774518013, -0.07315145432949066, -0.14597277343273163, 0.05811753869056702, -0.1893516182899475, 0.24715134501457214, 0.1179487407207489, 0.005565169267356396, -0.2486291378736496, -0.16063503921031952, -0.20690272748470306, -0.05835205316543579, -0.0031164493411779404, -0.06851537525653839, 0.17142252624034882, 0.00702919764444232, 0.028413258492946625, -0.21616588532924652, 0.1131163015961647, 0.17342469096183777, 0.04428919032216072, 0.15941168367862701, 0.07234170287847519, -0.17318598926067352, -0.21683341264724731, 0.0322774238884449, -0.14103849232196808, -0.16693495213985443, 0.1773306429386139, 0.17858368158340454, -0.2545090913772583, 0.05612947791814804, 0.10366936028003693, 0.1003926545381546, 0.13340361416339874, -0.07908160984516144, -0.15295065939426422, 0.09585706889629364, 0.09814964234828949, 0.16310229897499084, 0.012406743131577969, 0.23150072991847992, 0.17296001315116882, 0.012910176999866962, -0.17388871312141418, -0.008854669518768787, 0.1482170820236206, 0.07955101132392883, 0.04592982307076454, -0.22437776625156403, -0.2723158299922943, 0.034599438309669495, 0.17181359231472015, -0.19867873191833496, 0.12108980119228363, -0.16176269948482513, -0.022201914340257645, 0.012868867255747318, 0.16000968217849731, -0.2696297764778137, -0.1475437879562378, 0.007934359833598137, -0.019847864285111427, -0.1041610985994339, -0.20439958572387695, 0.11870697885751724, -0.052333105355501175, 0.08627337962388992, -0.02711075358092785, 0.15772280097007751, -0.09687726199626923, -0.16202084720134735, 0.23310208320617676, 0.20668645203113556, -0.002941897138953209, 0.1905767321586609, 0.03293200209736824, -0.15195801854133606, 0.00014815300528425723, -0.09557733684778214, 0.10979238897562027, -0.04789704456925392, -0.20032867789268494, -0.20632699131965637, -0.11871474981307983, -0.10267951339483261, 0.11478136479854584, -0.14171141386032104, -0.2245168387889862, -4.030534182675183e-05, -0.17706818878650665, -0.11321229487657547, -0.21065682172775269, -0.02507484331727028, -0.42611268162727356, -0.1674027144908905, -0.07583644986152649, 0.1584804356098175, -0.1969977766275406, -0.06860273331403732, -0.14215749502182007, -0.12885040044784546, -0.07201551645994186, -0.2616964876651764, 0.0052055129781365395, -0.02777635119855404, -0.07845529168844223, -0.1037277802824974, 0.056253161281347275, -0.22975941002368927, 0.11824747174978256, -0.03027345985174179, 0.11990917474031448, 0.09585895389318466, -0.022455547004938126, -0.21389295160770416, -0.10803113132715225, -0.08937801420688629, -0.006360091734677553, 0.08633586019277573, 0.14387734234333038, -0.07950994372367859, -0.020258406177163124, 0.15987035632133484, -0.23621097207069397, -0.022364798933267593, -0.16082903742790222, -0.05545293539762497, 0.07972948998212814, -0.12897305190563202, 0.02131195366382599, 0.15206646919250488, -0.039424993097782135, 0.007343553472310305, -0.18574616312980652, 0.1462295651435852, -0.0749603733420372, 0.15666817128658295, 0.026862340047955513, 0.18799623847007751, -0.13584795594215393, 0.08589614182710648, 0.19187530875205994, 0.11994805186986923, 0.042360153049230576, 0.020860081538558006, 0.01551776472479105, 0.07460552453994751, 0.21572920680046082, 0.1717657595872879, -0.12325626611709595, -0.03188958019018173, -0.1157555803656578, -0.1833808720111847, 0.14481382071971893, -0.037751998752355576, 0.21667645871639252, 0.08905117958784103, -0.0301805566996336, -0.11346691101789474, -0.21396595239639282, -0.013880327343940735, 0.13048121333122253, 0.15372954308986664, -0.038299549371004105, 0.16780860722064972, -0.10779450833797455, 0.00021466365433298051, 0.028811682015657425, -0.18228968977928162, -0.11116982996463776, 0.00030219610198400915, -0.08697725832462311, -0.017475204542279243, 0.166163370013237, -0.028112074360251427, -0.030138012021780014, 0.12612253427505493, -0.22676587104797363, -0.24966511130332947, 0.10065155476331711, -0.04590977355837822, 0.2143118977546692, -0.027557216584682465, -0.06869664788246155, 0.14528167247772217, -0.10967739671468735, -0.18376949429512024, -0.1603701114654541, -0.15372829139232635, -0.17291200160980225, -0.20967896282672882, 0.044886793941259384, 0.08100833743810654, -0.16961000859737396, -0.06793152540922165, 0.2276308387517929, 0.15123413503170013, 0.032556019723415375, 0.16103042662143707, -0.04762838035821915, -0.08439300209283829, 0.15218491852283478, 0.14228132367134094, 0.18628649413585663, 0.10827428847551346, 0.09748508781194687, 0.11664799600839615, -0.09185653924942017, 0.06020683795213699, -0.25568315386772156, -0.2540993392467499, -0.1859092265367508, 0.12240748852491379, -0.08353891223669052, -0.00025302876019850373, 0.10635912418365479, 0.1311093121767044, 0.04218529909849167, -0.05324655398726463, -0.29718297719955444, -0.19098882377147675, 0.16007786989212036, -0.10911043733358383, -0.0945688933134079, 0.17758622765541077, -0.055750392377376556, 0.04533823952078819, 0.18724167346954346, -0.20012204349040985, 0.12451189756393433, 0.14223375916481018, -0.11838974058628082, -0.2085467278957367, -0.236400306224823, 0.10761111229658127, -0.11991903185844421, -0.1658228635787964, -0.08254759013652802, 0.17505188286304474, -0.028192803263664246, 0.16186632215976715, 0.015300904400646687, -0.028038280084729195, 0.1134783998131752, 0.12072041630744934, 0.3058660328388214, -0.03338874876499176, 0.24594828486442566, -0.11541213095188141, 0.0631827786564827, -0.23563013970851898, 0.0955553874373436, -0.21349166333675385, -0.1717229187488556, -0.17978186905384064, 0.20160414278507233, 0.11215473711490631, -0.19901084899902344, -0.2371373325586319, 0.08883689343929291, 0.19412904977798462, 0.09125101566314697, -0.11243170499801636, -0.14887283742427826, -0.12829801440238953, 0.15845507383346558, -0.07098038494586945, 0.1252642273902893, -0.11130177974700928, -0.24007882177829742, -0.18818804621696472, -0.13291871547698975, -0.1816723793745041, -0.31485649943351746, -0.09361489117145538, 0.1682915985584259, -0.23063161969184875, 0.17742131650447845, 0.08685620129108429, 0.11921624094247818, 0.09271072596311569, -0.07662206143140793, -0.161579430103302, 0.10721015930175781, -0.1999526470899582, -0.17681939899921417, 0.10650455206632614, -0.01655985228717327, -0.1867063045501709, 0.0005058693350292742, 0.21224652230739594, -0.05168754979968071, 0.08898082375526428, -0.12082859128713608, 0.13227000832557678, -0.09453083574771881, 0.003811682341620326, -0.044935088604688644, -0.20068573951721191, 0.1979559361934662, -0.13778375089168549, 0.18622325360774994, 0.08084359765052795, -0.1304703652858734, -0.2441340535879135, 0.05404737591743469, 0.09552635252475739, -0.08247769623994827, 0.16738082468509674, -0.0745830088853836, 0.18145254254341125, -0.22609248757362366, 0.1386193186044693, 0.04361758381128311, 0.05970490351319313, -0.04141208902001381, -0.09950093924999237, -0.14803734421730042, 0.030933277681469917, -0.10749781876802444, -0.10954486578702927, 0.02418249472975731, -0.12024957686662674, 0.0280754454433918, -0.2330411821603775, -0.08078169077634811, -0.05694554001092911, 0.07703396677970886, 0.18670649826526642, 0.03009031154215336, 
};

float15 h1_weight[INPUT_LAYER_NODES * HIDDEN_LAYER_1_NODES] = {
