#include <math.h>
#include "hls_stream.h"
#include "ap_int.h"
#include "ap_fixed.h"
using namespace std;

#define INPUT_NODES 36
//layers
#define INPUT_LAYER_NODES 36
#define HIDDEN_LAYER_1_NODES 64
#define HIDDEN_LAYER_2_NODES 48
#define HIDDEN_LAYER_3_NODES 32
#define HIDDEN_LAYER_4_NODES 16
#define OUTPUT_LAYER_NODES 5

typedef ap_fixed<15, 4> float15;

float15 input_layer_weight[INPUT_NODES * INPUT_LAYER_NODES] = {
-0.06966270506381989, 0.039666056632995605, 0.10143778473138809, -0.3307211995124817, 0.16859157383441925, -0.20823727548122406, -0.1640067845582962, 0.041450828313827515, 0.05162513256072998, 0.27148979902267456, -0.057406239211559296, 0.022709950804710388, 0.18919216096401215, -0.1393272876739502, 0.12325238436460495, 0.24588680267333984, 0.04721660912036896, -0.23890167474746704, 0.07503818720579147, 0.23535194993019104, 0.23100456595420837, -0.1658591628074646, -0.07561343908309937, 0.14580422639846802, 0.150800421833992, -0.27712109684944153, 0.0763959288597107, 0.035522766411304474, -0.11301583051681519, 0.2000257819890976, -0.1678154170513153, -0.27070561051368713, 0.1454041600227356, -0.14641308784484863, -0.022354373708367348, -0.22629603743553162, -0.11786139756441116, 0.18734104931354523, 0.06740693747997284, 0.35464537143707275, 0.0351780466735363, 0.02627091109752655, 0.14244967699050903, 0.08636444061994553, 0.11556703597307205, -0.2815140187740326, -0.1966942995786667, 0.09249062836170197, 0.3236307203769684, 0.3423846364021301, -0.06252429634332657, -0.0917310044169426, 0.019232794642448425, -0.21160684525966644, -0.2205618917942047, -0.2161538302898407, 0.07192016392946243, -0.006190428044646978, 0.11205872893333435, 0.06540202349424362, 0.005275479517877102, -0.27718624472618103, -0.02262761816382408, 0.008823794312775135, -0.021521925926208496, 0.28439462184906006, -0.10403933376073837, -0.15306445956230164, 0.07988592237234116, -0.035563815385103226, -0.04864388331770897, 0.057715725153684616, 0.21371936798095703, 0.16838574409484863, 0.13090671598911285, 0.2960796356201172, 0.1614702194929123, 0.16264374554157257, -0.0964469164609909, -0.011292796581983566, 0.3810889422893524, 0.20415128767490387, 0.08090700954198837, 0.04688107594847679, -0.10963792353868484, -0.18393546342849731, 0.14613912999629974, -0.36576756834983826, 0.13577142357826233, -0.06489723920822144, -0.22044257819652557, -0.19077201187610626, -0.13557414710521698, -0.1789862960577011, -0.2969554662704468, 0.0308896042406559, 0.03397512435913086, 0.17241118848323822, -0.196838840842247, -0.15513084828853607, 0.30597779154777527, 0.02384280599653721, 0.1315585821866989, 0.04268753156065941, -0.01531698927283287, -0.13913048803806305, 0.16569209098815918, -0.062286678701639175, -0.19712021946907043, -0.29767727851867676, 0.07142676413059235, 0.3951457440853119, -0.2948485016822815, 0.14002278447151184, -0.07182935625314713, -0.2527150809764862, -0.24581070244312286, 0.07109268754720688, 0.07166962325572968, 0.12481418251991272, -0.05069779232144356, -0.28167280554771423, -0.2650212347507477, -0.289023220539093, -0.23038896918296814, 0.09229660034179688, -0.06594032794237137, 0.00574084697291255, -0.11772669851779938, 0.048889074474573135, -0.17574751377105713, 0.220937117934227, 0.06926041841506958, 0.17401696741580963, -0.12393833696842194, 0.12781643867492676, -0.2321791797876358, -0.08480789512395859, 0.15522930026054382, -0.08094248175621033, 0.0020941521506756544, 0.03328749164938927, -0.05385441333055496, -0.17851027846336365, -0.006252149119973183, -0.08385170996189117, -0.1953057199716568, 0.17521798610687256, -0.07656453549861908, 0.1224026083946228, 0.2684381902217865, 0.20408524572849274, 0.12639495730400085, -0.10430659353733063, 0.21468287706375122, 0.18237130343914032, -0.27080395817756653, -0.08359946310520172, -0.2306535392999649, 0.18434488773345947, 0.009088009595870972, -0.22306841611862183, -0.24252480268478394, 0.0036642984487116337, -0.08324353396892548, 0.2750518321990967, -0.15814848244190216, -0.2225533425807953, 0.2665195167064667, 0.1300591677427292, -0.04565903916954994, -0.14832700788974762, -0.1159316748380661, 0.18688179552555084, 0.19941404461860657, 0.04049897938966751, 0.1907360851764679, -0.15437091886997223, 0.17754700779914856, -0.05506908893585205, 0.11988626420497894, 0.14174267649650574, -0.13408422470092773, -0.05479700490832329, 0.07447729259729385, -0.09791107475757599, 0.008249151520431042, 0.0018287654966115952, -0.29297375679016113, -0.046740103513002396, 0.07823581993579865, 0.11609108000993729, 0.09545615315437317, 0.14326708018779755, -0.08619096130132675, 0.0701814517378807, 0.06357202678918839, 0.1337295025587082, -0.10065147280693054, 0.19584372639656067, 0.178293839097023, -0.23908193409442902, 0.030738340690732002, 0.2029952108860016, 0.14017273485660553, -0.10022564977407455, 0.06646265834569931, 0.15479473769664764, 0.1994190216064453, 0.2402953803539276, -0.022391721606254578, -0.1773529201745987, 0.08431453257799149, -0.07982544600963593, 0.19788089394569397, -0.0657912865281105, 0.1720219999551773, -0.19323879480361938, -0.2358325570821762, -0.20714950561523438, -0.02047947607934475, -0.2560499906539917, 0.15131297707557678, -0.03651239722967148, -0.5082508325576782, -0.11342012882232666, 0.058059487491846085, 0.08593382686376572, -0.03349687159061432, -0.22387123107910156, -0.09173489362001419, -0.1351076364517212, -0.20485900342464447, 0.04882556200027466, 0.039967671036720276, 0.040118031203746796, -0.29273518919944763, 0.08347587287425995, 0.18877173960208893, 0.09809202700853348, 0.3364158272743225, -0.16676634550094604, -0.2135174572467804, -0.06037374958395958, -0.05134379491209984, 0.18612299859523773, -0.1884172409772873, 0.17060261964797974, -0.1419520229101181, 0.27592334151268005, 0.08217404037714005, 0.2074703872203827, -0.048594217747449875, -0.26210808753967285, 0.0799199789762497, 0.2606501579284668, -0.03875546529889107, -0.1635437160730362, 0.2827509343624115, 0.20168770849704742, 0.28826507925987244, -0.217289537191391, 0.11016850173473358, -0.10450787842273712, 0.08509724587202072, 0.05710115283727646, -0.005927026271820068, -0.004680968355387449, 0.17099063098430634, -0.19606547057628632, -0.280171662569046, -0.02585540898144245, 0.02422984130680561, -0.28463247418403625, 0.018728170543909073, -0.42265039682388306, -0.1470986157655716, -0.1051551103591919, -0.1653902530670166, 0.37334737181663513, 0.061968568712472916, -0.23591215908527374, 0.05984058976173401, 0.042853496968746185, 0.22928905487060547, -0.19243866205215454, 0.1392233818769455, -0.01659725420176983, -0.2198413908481598, -0.08307404071092606, -0.2712496221065521, -0.26357966661453247, -0.0034755130764096975, 0.16823048889636993, 0.0006901060114614666, -0.3190116286277771, -0.19570404291152954, -0.06372309476137161, -0.1222178041934967, 0.10287702828645706, 0.008652432821691036, 0.2694651782512665, -0.07572425901889801, 0.24029874801635742, 0.26582852005958557, 0.3009657859802246, 0.03516377881169319, -0.09065361320972443, 0.02029416337609291, 0.3391585052013397, 0.3514256179332733, 0.17486390471458435, -0.029869329184293747, 0.12409494072198868, 0.12337073683738708, 0.15186312794685364, 0.22238832712173462, -0.03726084902882576, 0.06403959542512894, 0.2186485230922699, -0.05760328471660614, 0.07395307719707489, -0.11391442269086838, 0.22380124032497406, 0.2457008957862854, 0.03496203571557999, 0.1359572857618332, 0.08985712379217148, 0.010082310065627098, 0.24779364466667175, -0.15066806972026825, 0.10839532315731049, -0.016450045630335808, 0.07311561703681946, 0.17431765794754028, -0.2433532476425171, 0.09906958043575287, -0.10701873153448105, -0.01803300715982914, 0.2308245450258255, 0.022911442443728447, 0.24851703643798828, 0.07580769062042236, -0.25877663493156433, -0.042003072798252106, -0.11477536708116531, -0.3433397114276886, -0.1317104995250702, -0.03915209323167801, -0.04941811412572861, -0.21734246611595154, -0.11549149453639984, 0.11628628522157669, -0.3483242094516754, -0.20470766723155975, 0.19203613698482513, -0.17393767833709717, 0.03865435719490051, 0.15794120728969574, 0.1626255214214325, 0.058520007878541946, -0.2144591361284256, -0.16043244302272797, 0.1887199580669403, -0.205976665019989, -0.28450384736061096, -0.02150707133114338, 0.3186502754688263, 0.1400185227394104, 0.05458389222621918, 0.176775261759758, 0.2170058637857437, -0.09184487909078598, -0.1691524237394333, -0.19420497119426727, -0.12574684619903564, -0.18721285462379456, 0.21540848910808563, -0.20812711119651794, 0.10313400626182556, -0.062230367213487625, 0.06293191760778427, -0.28022152185440063, -0.174712672829628, 0.19816184043884277, 0.10197994112968445, 0.1263849139213562, -0.2719016969203949, 0.17252682149410248, -0.11433081328868866, -0.2731671929359436, -0.2192230373620987, -0.16449251770973206, -0.09187062084674835, 0.13703972101211548, -0.1872694492340088, 0.07108940929174423, 0.17451798915863037, 0.1590854376554489, 0.21564503014087677, 0.025097500532865524, -0.26459866762161255, 0.018086306750774384, 0.054281413555145264, -0.12508907914161682, -0.09172431379556656, 0.01166000310331583, 0.17736023664474487, -0.23831424117088318, -0.03121107816696167, 0.06888221204280853, 0.24053943157196045, 0.09890105575323105, -0.1280997097492218, 0.1858542263507843, -0.22511735558509827, 0.11818321794271469, 0.16990506649017334, -0.4076986014842987, 0.3315771222114563, -0.01545054093003273, -0.26383844017982483, 0.12107212096452713, -0.28758326172828674, -0.14478528499603271, 0.173554927110672, 0.02757282741367817, 0.13515730202198029, 0.15910552442073822, 0.05674799904227257, 0.021825779229402542, 0.13164570927619934, 0.21655932068824768, -0.12302203476428986, 0.09869494289159775, -0.11809922009706497, 0.19177910685539246, 0.09530597925186157, -0.30393630266189575, -0.29288873076438904, -0.33562472462654114, 0.08298437297344208, 0.09803120046854019, 0.11900690943002701, -0.03143348917365074, 0.030774729326367378, -0.14250260591506958, 0.22566866874694824, -0.041662804782390594, 0.27849122881889343, 0.018329104408621788, 0.03581276163458824, 0.15212570130825043, -0.013652551919221878, 0.11661391705274582, -0.12723129987716675, -0.23000110685825348, -0.03713918849825859, -0.1992805451154709, 0.1693488210439682, 0.060596633702516556, -0.1568349003791809, -0.16333825886249542, 0.08933338522911072, -0.09233495593070984, -0.1030794009566307, -0.22834272682666779, -0.21865741908550262, 0.0607948824763298, 0.14266371726989746, -0.0759834349155426, -0.15009179711341858, -0.10993235558271408, -0.22349517047405243, 0.2844866216182709, -0.03800458088517189, 0.10716675221920013, -0.09983255714178085, -0.129248708486557, -0.29721274971961975, 0.13397298753261566, -0.23879706859588623, 0.1887153536081314, -0.013960528187453747, 0.2904987335205078, 0.18296732008457184, -0.2955833375453949, 0.26063796877861023, 0.2136230170726776, 0.2670343518257141, -0.353047251701355, 0.09252621233463287, 0.0173922348767519, 0.07780473679304123, -0.2801406681537628, -0.14717553555965424, -0.08505955338478088, -0.2266635000705719, 0.013328216038644314, -0.08276399224996567, -0.20053480565547943, 0.14975464344024658, -0.10066501051187515, -0.13926497101783752, 0.171833798289299, 0.04432160034775734, -0.2203935980796814, 0.07185950875282288, -0.1276499181985855, -0.2760453224182129, 0.07073888182640076, -0.004845895804464817, 0.3364257514476776, 0.03849783539772034, -0.23609784245491028, -0.01758435368537903, -0.08768357336521149, 0.3169442415237427, -0.07148101925849915, 0.05128847435116768, -0.2957204580307007, -0.1823582947254181, -0.16433170437812805, -0.02573368139564991, 0.10446770489215851, 0.14666835963726044, 0.21532516181468964, 0.14828157424926758, 0.20803841948509216, -0.15779130160808563, 0.18918247520923615, -0.2733335793018341, 0.14136427640914917, -0.24951618909835815, 0.06913063675165176, 0.20552748441696167, 0.13469073176383972, -0.05278341844677925, 0.1068534106016159, 0.014021222479641438, 0.01939038187265396, -0.27699822187423706, -0.22776012122631073, 0.16122575104236603, 0.14312756061553955, -0.06680340319871902, -0.22878363728523254, 0.1605665683746338, -0.31617945432662964, 0.3005520701408386, -0.1134093850851059, -0.04429255425930023, 0.04262666776776314, -0.18135209381580353, 0.28505071997642517, 0.023878149688243866, 0.04893140494823456, -0.17581264674663544, -0.15357789397239685, -0.18182465434074402, 0.06766609102487564, 0.07953771948814392, 0.1306772083044052, -0.25483834743499756, 0.15608365833759308, 0.2830054461956024, 0.2548428475856781, -0.027105538174510002, 0.14948472380638123, -0.20612962543964386, 0.19413278996944427, -0.18460290133953094, 0.26631900668144226, -0.25895628333091736, 0.2704809010028839, -0.25652188062667847, 0.11363118141889572, 0.15463602542877197, 0.12611499428749084, -0.30061617493629456, -0.22759748995304108, 0.05280563607811928, 0.15630510449409485, -0.00024404558644164354, -0.2000853568315506, 0.03943447768688202, -0.07886979728937149, -0.20002491772174835, 0.2907519042491913, 0.22828881442546844, 0.20720160007476807, -0.030910100787878036, -0.2230193018913269, -0.07770972698926926, -0.008570215664803982, 0.10623013973236084, 0.2758639454841614, -0.08803718537092209, 0.357990562915802, 0.09050904959440231, 0.314008891582489, -0.03232213854789734, 0.10880140215158463, -0.019235102459788322, 0.23488721251487732, 0.20300261676311493, 0.24600009620189667, -0.11891192197799683, -0.17025141417980194, -0.0013759221183136106, 0.12895049154758453, 0.12074372172355652, -0.02357216365635395, 0.23613354563713074, -0.2993723154067993, 0.0626453161239624, -0.12112606316804886, 0.09096694737672806, 0.22046612203121185, 0.012008095160126686, -0.28476065397262573, -0.24783073365688324, 0.018535612151026726, -0.23396320641040802, 0.06288115680217743, 0.2823040187358856, 0.31635934114456177, -0.020848894491791725, -0.2333681434392929, 0.0973753035068512, 0.24669963121414185, 0.08995351195335388, -0.21708160638809204, 0.08879450708627701, -0.2782386541366577, 0.07719890773296356, -0.010325422510504723, -0.19316965341567993, 0.15144996345043182, 0.00487764086574316, 0.13678571581840515, 0.14185525476932526, 0.23634818196296692, -0.009314981289207935, 0.02375190332531929, -0.2850694954395294, -0.24434441328048706, -0.2513875365257263, -0.24695740640163422, -0.10699907690286636, 0.23718173801898956, 0.04714925214648247, 0.3142164945602417, 0.1928064078092575, 0.13678337633609772, 0.22559146583080292, 0.124705471098423, -0.19374383985996246, -0.29917430877685547, -0.2445952296257019, -0.10298678278923035, -0.18300223350524902, -0.058092307299375534, -0.17431378364562988, -0.25804319977760315, -0.01615200564265251, 0.06397978961467743, -0.2720913589000702, 0.015654608607292175, -0.15302424132823944, 0.006851015146821737, -0.11995431035757065, -0.0859815701842308, -0.04867290332913399, 0.13534408807754517, -0.28800204396247864, -0.16684336960315704, 0.06093033403158188, -0.014562077820301056, 0.12486504763364792, 0.2344910055398941, -0.2813122868537903, -0.31496894359588623, 0.04616742581129074, 0.04984433576464653, 0.1786431223154068, -0.35223686695098877, -0.23935624957084656, -0.0400674045085907, -0.07661400735378265, 0.1895572990179062, -0.055268608033657074, 0.16624708473682404, 0.14403927326202393, 0.16247409582138062, -0.1224164366722107, -0.09100516885519028, 0.18474484980106354, 0.26738789677619934, -0.2968153953552246, 0.10491728037595749, -0.004992122761905193, 0.23902462422847748, -0.08101373165845871, -0.22820809483528137, 0.13165029883384705, 0.27709513902664185, 0.005952578969299793, 0.029744045808911324, 0.08097627758979797, 0.1443338245153427, 0.30682241916656494, -0.13067325949668884, -0.3495274782180786, -0.005020881071686745, -0.07225067168474197, 0.06497205048799515, -0.25706398487091064, 0.05525970458984375, -0.22204682230949402, 0.12392962723970413, -0.08077849447727203, 0.3294129967689514, 0.10205768793821335, 0.29127398133277893, 0.003423333866521716, 0.1105572059750557, -0.20452743768692017, 0.2935485243797302, 0.1504521667957306, 0.1584400087594986, -0.043937087059020996, 0.17539046704769135, -0.0815735012292862, -0.040495868772268295, 0.11992666870355606, 0.15709678828716278, 0.16978709399700165, -0.07658123970031738, -0.011711424216628075, 0.12059742212295532, 0.09144977480173111, 0.113584004342556, 0.2218245565891266, -0.20775172114372253, -0.2064961940050125, -0.281572550535202, 0.17364460229873657, 0.2269386351108551, -0.05730864778161049, -0.1928696632385254, 0.022195620462298393, -0.34486299753189087, 0.04416525363922119, -0.3289346396923065, -0.058981314301490784, -0.0432414673268795, 0.1359851360321045, -0.2047506868839264, 0.13188113272190094, -0.05823792144656181, -0.20729447901248932, -0.06990005820989609, -0.20550982654094696, 0.43464362621307373, 0.030565133318305016, -0.20561198890209198, 0.15677174925804138, 0.20158334076404572, 0.017823072150349617, 0.03410631790757179, -0.15594960749149323, -0.1240755170583725, 0.0027649621479213238, 0.22190503776073456, -0.03798557072877884, -0.022007659077644348, 0.27388912439346313, 0.12212230265140533, -0.17499138414859772, -0.12586946785449982, 0.18545545637607574, 0.07877170294523239, 0.10799767822027206, 0.22688598930835724, 0.2633785605430603, -0.07669886946678162, 0.14892849326133728, -0.1600438952445984, 0.09990185499191284, 0.10730291157960892, 0.19880738854408264, 0.08249005675315857, -0.06448931246995926, -0.2706603705883026, -0.3761570453643799, 0.13707335293293, 0.04851081222295761, 0.23264357447624207, 0.13024991750717163, -0.3155055344104767, -0.18272261321544647, 0.10603730380535126, -0.024231065064668655, -0.11151792109012604, -0.03361698240041733, -0.25646889209747314, -0.145307719707489, -0.1995353400707245, 0.2569064795970917, -0.13996388018131256, 0.10817964375019073, 0.05601763725280762, 0.27900516986846924, -0.1586623191833496, -0.23943200707435608, 0.20413289964199066, 0.1352415829896927, 0.08739248663187027, 0.10203351080417633, -0.22635041177272797, -0.19470451772212982, -0.14689306914806366, 0.28117814660072327, -0.1078820452094078, 0.047932516783475876, 0.20449090003967285, 0.05776830390095711, -0.00486357556656003, -0.24960853159427643, -0.048922620713710785, -0.31791070103645325, 0.20825044810771942, -0.2059497833251953, 0.06912621110677719, 0.0517658106982708, 0.13169026374816895, -0.14142413437366486, -0.132858008146286, 0.24779421091079712, -0.26168692111968994, -0.02336479350924492, -0.1612684726715088, -0.07206573337316513, 0.2345021814107895, 0.18246090412139893, -0.2561129629611969, 0.06794335693120956, 0.0778338834643364, -0.10677610337734222, 0.23797248303890228, 0.17810267210006714, 0.019319534301757812, -0.12375327199697495, -0.060809794813394547, 0.14362625777721405, 0.2795485556125641, 0.13905154168605804, 0.031448591500520706, 0.14005900919437408, -0.21668808162212372, -0.06765574961900711, -0.21020975708961487, -0.04305808246135712, -0.11586839705705643, -0.034309741109609604, -0.049458444118499756, -0.2238929122686386, 0.27429428696632385, 0.26043081283569336, 0.02978641167283058, -0.3772513270378113, -0.11484897881746292, 0.13088302314281464, 0.21069271862506866, 0.16102510690689087, -0.2032334804534912, -0.29180723428726196, -0.16540218889713287, 0.07150987535715103, -0.16026175022125244, -0.2711332440376282, 0.22611474990844727, 0.12869079411029816, 0.22992274165153503, -0.18143709003925323, 0.24643483757972717, 0.29503706097602844, -0.1070578545331955, 0.13448071479797363, 0.13189445436000824, 0.07474830001592636, -0.09142426401376724, 0.09867990761995316, -0.08817687630653381, -0.23390483856201172, -0.06749391555786133, -0.09603152424097061, -0.2223113626241684, -0.09334976971149445, 0.07623815536499023, -0.012572892010211945, -0.1534551978111267, -0.3822372555732727, 0.24058692157268524, -0.10012660175561905, 0.017364440485835075, 0.2264443188905716, -0.03189679980278015, 0.13371127843856812, -0.16729623079299927, -0.21423375606536865, 0.06350582838058472, -0.07337110489606857, -0.06647318601608276, 0.26546305418014526, 0.22716183960437775, 0.17981930077075958, -0.12195762246847153, 0.13240566849708557, 0.217413991689682, -0.24243837594985962, 0.1291244775056839, 0.18595662713050842, 0.07549414038658142, 0.004016753286123276, 0.13061974942684174, 0.05466567352414131, -0.19529634714126587, -0.29817384481430054, -0.15081577003002167, 0.08825705945491791, 0.021484771743416786, -0.2019912749528885, -0.23348335921764374, 0.15711887180805206, -0.1280158907175064, -0.02612815424799919, 0.1213914304971695, -0.17529092729091644, -0.12797684967517853, -0.2958427369594574, 0.10935654491186142, 0.1927766054868698, 0.4104754328727722, -0.15700682997703552, -0.027456533163785934, 0.16084825992584229, 0.1822877824306488, 0.23872941732406616, -0.21371035277843475, -0.25641125440597534, 0.08054658770561218, 0.25825899839401245, 0.09585820138454437, -0.06416149437427521, -0.2538692355155945, -0.1271018385887146, 0.1444719433784485, 0.17130650579929352, -0.20540204644203186, -0.049388665705919266, -0.10750409215688705, 0.3117392659187317, -0.0555277056992054, 0.3122633695602417, -0.1611350029706955, -0.28841203451156616, -0.1442570984363556, 0.20397686958312988, 0.245633065700531, -0.2677174508571625, 0.07322001457214355, 0.0611545704305172, 0.005673814099282026, 0.15542548894882202, -0.07396001368761063, 0.021358037367463112, 0.1425953507423401, -0.18181097507476807, -0.22383025288581848, 0.16282038390636444, -0.02730240486562252, 0.1671604961156845, 0.191494420170784, -0.001785510336048901, -0.1480567753314972, 0.2650313079357147, -0.22047439217567444, -0.2303035408258438, -0.13648560643196106, -0.11819498986005783, -0.2359120398759842, 0.1614469289779663, 0.1654507964849472, 0.11969095468521118, -0.322737455368042, 0.044389571994543076, 0.25279709696769714, 0.2086506187915802, 0.07313355058431625, -0.3267366588115692, 0.058231648057699203, -0.09485208243131638, 0.0926525890827179, 0.12846137583255768, -0.11303175240755081, 0.17244838178157806, -0.2174137681722641, -0.12782222032546997, 0.15495248138904572, -0.319665789604187, -0.02917972020804882, 0.04835067316889763, 0.13493400812149048, 0.01458230335265398, -0.3036871552467346, 0.053151775151491165, 0.2313525229692459, 0.11063643544912338, 0.089060477912426, 0.15099048614501953, -0.061650555580854416, -0.26433154940605164, 0.09669841825962067, -0.1883147805929184, -0.0270587969571352, -0.16812463104724884, 0.024858707562088966, -0.045589298009872437, -0.07615397870540619, 0.30773353576660156, 0.20218898355960846, 0.1535390317440033, 0.012578059919178486, -0.20757438242435455, 0.03656189516186714, 0.3251174986362457, -0.04391804337501526, 0.193691223859787, -0.29069098830223083, 0.11474240571260452, -0.07762601226568222, -0.22388426959514618, -0.24982625246047974, 0.27217328548431396, 0.285043329000473, -0.13115988671779633, -0.17646808922290802, 0.24477313458919525, 0.08641969412565231, -0.41813740134239197, -0.056007348001003265, -0.07303261756896973, 0.14395341277122498, -0.029625512659549713, -0.08371901512145996, 0.01406093593686819, 0.10137602686882019, -0.2698783874511719, -0.0652535930275917, -0.11368220299482346, 0.2886568009853363, -0.23111492395401, -0.21431288123130798, 0.31350764632225037, 0.3590753376483917, 0.03036505915224552, 0.3079269528388977, 0.140672504901886, 0.219127357006073, -0.4893130660057068, -0.11081593483686447, -0.07722052186727524, 0.2618919610977173, -0.17546163499355316, 0.2552735209465027, 0.14364665746688843, -0.1323854923248291, -0.09957903623580933, -0.3212975561618805, -0.2471027821302414, 0.26773756742477417, 0.009625370614230633, -0.15600919723510742, -0.15782493352890015, -0.15965081751346588, -0.014590461738407612, 0.3124334216117859, 0.09494241327047348, -0.2355067878961563, -0.34835168719291687, -0.3434140980243683, -0.14474613964557648, 0.1393008679151535, 0.08693856745958328, -0.15910352766513824, -0.0886354148387909, 0.07874488830566406, 0.25914016366004944, 0.14411157369613647, 0.04769683629274368, 0.1990891695022583, -0.1474764347076416, -0.23678283393383026, 0.051832351833581924, 0.08387091010808945, -0.20705749094486237, 0.12684407830238342, 0.19960181415081024, -0.11182640492916107, 0.24812398850917816, -0.16375023126602173, 0.09063496440649033, -0.13915948569774628, 0.06514259427785873, -0.028561115264892578, -0.06079331412911415, -0.13029438257217407, 0.06157422810792923, 0.1245603933930397, -0.0686897560954094, 0.09793306887149811, 0.07495129853487015, 0.31901121139526367, 0.29105955362319946, -0.291270911693573, -0.07648724317550659, -0.24239052832126617, 0.2567245364189148, -0.10845661163330078, 0.014650381170213223, 0.14202138781547546, 0.2686452567577362, 0.1687043011188507, -0.09888596087694168, -0.0700192004442215, -0.2657405734062195, -0.17047858238220215, -0.1830391138792038, 0.12337121367454529, 0.06365567445755005, -0.20748376846313477, -0.3542899191379547, 0.07974672317504883, 0.07575926929712296, -0.042457979172468185, -0.3411145508289337, -0.2388618290424347, 0.20914411544799805, -0.270559698343277, -0.05192592367529869, -0.07240384072065353, -0.09073136001825333, -0.07688451558351517, -0.21418747305870056, 0.14537565410137177, 0.034961115568876266, -0.14258424937725067, 0.0035833430010825396, -0.13124355673789978, -0.2203410118818283, -0.09784062206745148, -0.18115106225013733, 0.30730462074279785, -0.08618047088384628, 0.15333199501037598, 0.023568570613861084, 0.11281619220972061, -0.2672935724258423, 0.10852549970149994, -0.2656712234020233, -0.11548981070518494, 0.053898897022008896, 0.2197374850511551, 0.05257381126284599, 0.26677191257476807, -0.15769195556640625, 0.22666972875595093, 0.022089583799242973, 0.025224441662430763, -0.12918922305107117, 0.07012546062469482, -0.06015760079026222, -0.20922748744487762, 0.2889426648616791, 0.07174661755561829, -0.15519560873508453, 0.23800349235534668, -0.05472973734140396, 0.3461531400680542, 0.16262176632881165, -0.13486994802951813, 0.05371317267417908, 0.01025577075779438, 0.17087602615356445, -0.14925672113895416, -0.1767793893814087, 0.13782475888729095, 0.19723400473594666, 0.2847725749015808, 0.31445807218551636, 0.28206562995910645, 0.2924077808856964, -0.2737605571746826, 0.0036543894093483686, 0.005960042122751474, 0.16822080314159393, -0.045178454369306564, -0.0855715274810791, 0.039838213473558426, 0.09583261609077454, 0.19530881941318512, 0.20105300843715668, 0.036105044186115265, 0.12252254039049149, 0.07167771458625793, -0.20407375693321228, 0.014981037005782127, 0.021223362535238266, 0.10708053410053253, -0.06124791130423546, 0.06315402686595917, -0.12779271602630615, 0.0435144416987896, 0.050973132252693176, 0.01203355472534895, -0.13506817817687988, 0.21985474228858948, 0.024834997951984406, 0.02078002505004406, -0.025287726894021034, -0.2644160985946655, -0.3361838161945343, 0.07880449295043945, 0.018283233046531677, -0.096956767141819, 0.22441457211971283, -0.005287354812026024, -0.007731898687779903, 0.20829077064990997, 0.1354217529296875, -0.12446337193250656, -0.3167640268802643, 0.017570875585079193, 0.20966801047325134, 0.37655138969421387, 0.13129836320877075, -0.176765576004982, -0.044746268540620804, -0.06683699041604996, -0.1748727262020111, -0.21705617010593414, 0.00923107098788023, -0.03422669321298599, -0.10692095011472702, 0.010151107795536518, -0.3217985928058624, -0.23153139650821686, -0.0633367970585823, 0.10191493481397629, -0.12977078557014465, -0.060072921216487885, 0.09267156571149826, 0.04566451162099838, -0.0632377490401268, -0.22274470329284668, 0.36144116520881653, -0.3222677707672119, 0.035575639456510544, 0.017043564468622208, -0.2204640507698059, 0.17407235503196716, 0.07020101696252823, 0.3257909119129181, 0.12743990123271942, 0.025491513311862946, -0.17637673020362854, 0.10872460901737213, -0.19872142374515533, -0.05745987966656685, -0.21073445677757263, -0.1480427086353302, -0.08211694657802582, -0.07897399365901947, -0.015571619383990765, -0.2169148474931717, 0.07442520558834076, -0.02674032561480999, 0.17378860712051392, -0.11700283735990524, 0.05135100334882736, 0.11021887511014938, -0.15685999393463135, 0.24636369943618774, -0.19557185471057892, 
};

float15 h1_weight[INPUT_LAYER_NODES * HIDDEN_LAYER_1_NODES] = {
0.17492878437042236, -0.007407317869365215, 0.042758066207170486, -0.10887864232063293, 0.12754952907562256, 0.2036164402961731, 0.09011724591255188, -0.20649990439414978, -0.16433337330818176, 0.26833170652389526, 0.20065084099769592, 0.1657479703426361, -0.07830403000116348, 0.2786782681941986, 0.12253829836845398, 0.17038041353225708, -0.1856343299150467, 0.025924837216734886, 0.02455306611955166, -0.33304089307785034, 0.058244314044713974, -0.15081259608268738, -0.12218257784843445, 0.15357212722301483, -0.014797914773225784, 0.16771523654460907, -0.20081298053264618, 0.05044672638177872, 0.15654359757900238, 0.1256323605775833, -0.025843895971775055, 0.12973329424858093, 0.28193965554237366, -0.05024436488747597, -0.059401948004961014, 0.1613183319568634, 0.07339268922805786, -0.12889476120471954, -0.3714630901813507, -0.11387494206428528, 0.2278691977262497, -0.2345718890428543, 0.1459660828113556, 0.15307196974754333, 0.14447323977947235, -0.1644381731748581, 0.2386140078306198, -0.05361500009894371, 0.15489904582500458, 0.00873063039034605, -0.10448084026575089, 0.17710326611995697, -0.01778876595199108, 0.15978044271469116, 0.07005345821380615, 0.28144824504852295, -0.23654524981975555, -0.13599321246147156, 0.03359132632613182, -0.03449878841638565, 0.06437282264232635, -0.05746421590447426, -0.1685304343700409, -0.03102978877723217, 0.08223754167556763, -0.18673478066921234, -0.23049549758434296, 0.21716170012950897, -0.015111560001969337, 0.0943509116768837, 0.1239590123295784, 0.30789047479629517, 0.09755857288837433, 0.15563489496707916, 0.04294509068131447, -0.19626498222351074, 0.11837109178304672, 0.26986753940582275, 0.1633327454328537, -0.10833439975976944, -0.13486428558826447, 0.03533640876412392, 0.06204551085829735, -0.17934001982212067, -0.1649979054927826, -0.1550796627998352, 0.31994080543518066, -0.10703594982624054, 0.05727853626012802, 0.12946687638759613, 0.09952083975076675, -0.018286196514964104, 0.23284746706485748, 0.01645055040717125, 0.1850205510854721, -0.12842194736003876, 0.18912197649478912, 0.23999203741550446, 0.12190761417150497, -0.11389770358800888, 0.056491781026124954, -0.07696663588285446, 0.2499087005853653, -0.13027991354465485, -0.08570599555969238, -0.18640466034412384, 0.09476616978645325, -0.2469656765460968, 0.11192377656698227, 0.10349884629249573, 0.04285352677106857, 0.03845096006989479, -0.1362261176109314, 0.11755643039941788, 0.1426062434911728, 0.3195892572402954, 0.18901389837265015, 0.1699223667383194, -0.20755267143249512, -0.2687075436115265, 0.1409120410680771, 0.13305886089801788, 0.08827267587184906, 0.12282887101173401, -0.014569707214832306, -0.004703865852206945, 0.12698566913604736, -0.0801319032907486, 0.307582825422287, -0.03617946803569794, 0.08170892298221588, -0.15505017340183258, 0.12837491929531097, 0.11899799108505249, 0.17114263772964478, 0.1879536360502243, 0.07509446144104004, 0.08493431657552719, 0.17802880704402924, 0.2741009294986725, -0.044945649802684784, 0.055775538086891174, -0.11185142397880554, 0.2241634726524353, 0.10261072218418121, 0.045456696301698685, 0.2796999216079712, 0.22553452849388123, -0.15686093270778656, -0.25358274579048157, -0.38771486282348633, -0.1262975037097931, 0.15421652793884277, 0.2764476537704468, 0.26836758852005005, -0.09607034176588058, 0.10989992320537567, -0.0881727784872055, -0.07480064779520035, 0.0012200458440929651, 0.0338534452021122, -0.0023340783081948757, 0.05242471769452095, -0.16362906992435455, 0.15303878486156464, -0.05516061931848526, -0.02995055541396141, -0.18422044813632965, 0.018725043162703514, -0.02671346627175808, -0.13102459907531738, 0.1913304477930069, 0.12530788779258728, 0.24194906651973724, 0.11077696830034256, 0.038098983466625214, 0.15062996745109558, 0.11159811168909073, 0.23853039741516113, 0.05579707771539688, -0.04835426062345505, -0.01901254802942276, -0.1545623540878296, 0.04801296070218086, 0.0745118036866188, 0.2738204002380371, 0.24602074921131134, 0.03014221414923668, -0.11013224720954895, -0.03214125707745552, -0.1173272505402565, 0.3944769501686096, -0.15222486853599548, 0.28443625569343567, -0.2925700545310974, -0.1023893654346466, -0.053427521139383316, -0.07829611748456955, -0.1381799429655075, -0.20654147863388062, -0.09196001291275024, -0.32100722193717957, -0.007952016778290272, 0.2613588571548462, 0.13422240316867828, 0.3225049376487732, -0.20801591873168945, -0.22753575444221497, -0.08860675245523453, 0.19750601053237915, -0.032312653958797455, 0.214140847325325, -0.12685391306877136, -0.13625334203243256, -0.20128656923770905, 0.026784317567944527, 0.2269664853811264, 0.1828993558883667, -0.2751205265522003, 0.32179340720176697, 0.002579722087830305, 0.21032483875751495, -0.20109540224075317, 0.3222915828227997, 0.09151089936494827, -0.15920154750347137, -0.2627907991409302, 0.018563879653811455, 0.22315624356269836, -0.2634737491607666, -0.2972337603569031, 0.005357110872864723, -0.10784589499235153, -0.15086206793785095, -0.036624468863010406, -0.2189587503671646, 0.24955883622169495, 0.22297784686088562, -0.1864340752363205, 0.1832098811864853, -0.07265210151672363, -0.1249687522649765, 0.24051739275455475, 0.02163613587617874, -0.15328669548034668, -0.09542286396026611, -0.021573273465037346, -0.12938514351844788, 0.025712283328175545, 0.28503748774528503, -0.18205158412456512, 0.13179107010364532, 0.01849517598748207, -0.16256555914878845, -0.17570523917675018, -0.10744568705558777, -0.09301503002643585, -0.0714547336101532, -0.21759574115276337, 0.21764308214187622, -0.19622060656547546, -0.015184644609689713, 0.03546615689992905, 0.13156476616859436, -0.10403765738010406, 0.29376375675201416, -0.007086625322699547, -0.011995325796306133, 0.028482038527727127, -0.13451969623565674, -0.10986227542161942, 0.16835571825504303, -0.025978686287999153, -0.028268106281757355, 0.20148153603076935, 0.10076400637626648, -0.12646076083183289, 0.04865162447094917, -0.11913663148880005, 0.19319882988929749, -0.13311393558979034, 0.012808666564524174, 0.11157580465078354, 0.1363600194454193, -0.21120961010456085, -0.1918940246105194, 0.001078431261703372, -0.12400379031896591, -0.16616083681583405, -0.025149356573820114, -0.13030916452407837, -0.02261948212981224, -0.2232431322336197, -0.008605841547250748, -0.1861436367034912, 0.16847756505012512, -0.04905658960342407, -0.13428913056850433, 0.21033313870429993, -0.03183474391698837, -0.10382091999053955, 0.04629988223314285, -0.08662213385105133, 0.1345282942056656, 0.21065697073936462, 0.2185370773077011, 0.07018406689167023, 0.05684652552008629, -0.13016696274280548, 0.1286986917257309, 0.0775439441204071, -0.07858298718929291, -0.14764659106731415, 0.19476495683193207, -0.012173217721283436, -0.1387711763381958, -0.23313859105110168, 0.045925334095954895, 0.034926991909742355, 0.26859748363494873, 0.08466006815433502, -0.11327742040157318, -0.04529666155576706, 0.294866681098938, 0.13251854479312897, 0.2790452539920807, -0.05546519160270691, 0.06939585506916046, -0.15617001056671143, 0.12889647483825684, -0.15580302476882935, -0.050031062215566635, 0.2248537242412567, 0.1979350596666336, -0.12271204590797424, -0.032387446612119675, -0.06896065175533295, -0.17361150681972504, -0.13789774477481842, 0.04234391450881958, 0.28890663385391235, 0.28009435534477234, 0.1020536720752716, -0.24186253547668457, 0.21395356953144073, 0.22339150309562683, -0.06671686470508575, -0.02911357581615448, 0.11702649295330048, -0.2090071737766266, 0.18744632601737976, 0.21415963768959045, 0.26923105120658875, -0.27882006764411926, -0.10238416492938995, 0.10384921729564667, -0.15430808067321777, -0.0822235643863678, 0.1492253839969635, -0.06999348104000092, 0.13823743164539337, -0.03934182599186897, 0.05712484195828438, -0.16122515499591827, -0.2153400480747223, 0.18630792200565338, 0.21253083646297455, -0.2345028668642044, 0.12952560186386108, -0.3213803172111511, 0.12785959243774414, 0.07563561946153641, -0.22705994546413422, 0.26480406522750854, 0.17663037776947021, 0.05604154244065285, 0.0899314433336258, -0.05253201723098755, -0.3286289572715759, 0.10553006082773209, 0.16304491460323334, 0.028651662170886993, 0.1351051926612854, 0.16523747146129608, -0.02300407551229, 0.1900511384010315, -0.052562348544597626, -0.20840565860271454, 0.12410269677639008, -0.1589018702507019, 0.24756385385990143, -0.24919493496418, 0.09751850366592407, -0.18080559372901917, -0.057988833636045456, -0.25320613384246826, -0.03707437217235565, -0.17790062725543976, -0.17577174305915833, 0.23085732758045197, -0.08213964849710464, 0.2131696343421936, 0.23358756303787231, 0.15391942858695984, 0.16168655455112457, 0.16060803830623627, 0.2145528495311737, 0.3400375247001648, 0.059047065675258636, 0.26203295588493347, -0.26991894841194153, -0.13591021299362183, -0.2040282040834427, -0.1845603734254837, 0.2578180730342865, 0.007169283460825682, 0.20992764830589294, -0.040089260786771774, -0.0776112824678421, -0.15990938246250153, 0.10206225514411926, 0.0052104368805885315, 0.17306192219257355, -0.1159452274441719, 0.09438052028417587, 0.23366564512252808, -0.14315958321094513, 0.007511341944336891, 0.16730105876922607, 0.17646369338035583, 0.18130160868167877, 0.21695159375667572, 0.26541048288345337, -0.2517259120941162, 0.12340573966503143, -0.02120375819504261, 0.23187130689620972, 0.1416255086660385, 0.025684431195259094, -0.13481521606445312, -0.17885319888591766, -0.005568899679929018, 0.19191481173038483, -0.05744372308254242, -0.06788521260023117, 0.26365047693252563, -0.0616888627409935, -0.05315995216369629, 0.12141873687505722, -0.04042017459869385, 0.01830175332725048, -0.15996497869491577, 0.033549390733242035, -0.1998036652803421, 0.11866592615842819, -0.12426961213350296, 0.23247286677360535, 0.13786470890045166, -0.0714341476559639, 0.009147963486611843, 0.08796052634716034, -0.11114247888326645, -0.11028552800416946, 0.23617257177829742, -0.11515061557292938, -0.08064299076795578, -0.09588959068059921, 0.21820521354675293, -0.2593012750148773, 0.15547813475131989, -0.10178718715906143, 0.11128328740596771, 0.17004835605621338, 0.048786044120788574, -0.20785292983055115, -0.1520054191350937, 0.16187842190265656, -0.038473110646009445, 0.25409334897994995, -0.19237126410007477, -0.098628930747509, -0.1797725409269333, 0.00039265124360099435, 0.2390279918909073, -0.21740275621414185, -0.11180677264928818, -0.10586374253034592, -0.12842561304569244, -0.030111955478787422, -0.023833012208342552, -0.24261680245399475, 0.05867142602801323, -0.06265855580568314, -0.09310595691204071, -0.19914057850837708, 0.24877022206783295, 0.0863218680024147, -0.11227437108755112, -0.15469138324260712, -0.14981965720653534, 0.1218826100230217, -0.1633613109588623, 0.1053122729063034, 0.08289214968681335, -0.07559742033481598, -0.016301164403557777, 0.08585315942764282, 0.03668148070573807, 0.21878479421138763, -0.14518049359321594, 0.1584537923336029, -0.12847034633159637, 0.22045987844467163, 0.17673134803771973, -0.15192370116710663, -0.09176115691661835, 0.085160993039608, -0.26507553458213806, 0.2606680989265442, 0.1547544002532959, -0.05170425772666931, 0.08603189885616302, 0.24329878389835358, -0.1191890761256218, 0.01437646895647049, 0.13447532057762146, 0.0694042444229126, 0.17144323885440826, -0.10083740949630737, 0.08141961693763733, 0.16473813354969025, -0.019271457567811012, 0.04189470782876015, 0.2719559967517853, 0.03997627645730972, 0.014082187786698341, 0.05228535830974579, 0.08171382546424866, -0.16710171103477478, 0.017084533348679543, -0.06571396440267563, 0.24654729664325714, -0.4329911172389984, 0.17318323254585266, 0.07241305708885193, -0.14509573578834534, 0.2776660919189453, 0.10091621428728104, 0.16531367599964142, -0.08333314210176468, -0.16827388107776642, 0.11374854296445847, 0.29038795828819275, 0.1314488798379898, 0.10817505419254303, 0.21522808074951172, 0.3120126724243164, -0.1658637821674347, 0.21534889936447144, -0.19941648840904236, 0.1140671893954277, -0.17415104806423187, 0.07996287196874619, 0.1417396515607834, 0.02508798986673355, 0.09495367854833603, -0.03785274177789688, -0.011964552104473114, 0.15765322744846344, 0.1505417376756668, -0.16431522369384766, -0.1265104115009308, 0.06308061629533768, 0.0303997490555048, 0.26903241872787476, 0.135933056473732, 0.011980108916759491, 0.004796705674380064, 0.07780992239713669, -0.033671971410512924, -0.0172458253800869, -0.1869644969701767, 0.032284919172525406, -0.09673996269702911, -0.15033701062202454, -0.32648059725761414, -0.36789223551750183, -0.09772153198719025, -0.12388809025287628, -0.20074880123138428, 0.14189369976520538, 0.24383409321308136, 0.1316518485546112, -0.07573869824409485, 0.22987402975559235, 0.1600428819656372, 0.1559828221797943, -0.12080594152212143, -0.19388748705387115, 0.12242966890335083, -0.031176256015896797, 0.12076050043106079, 0.1265973299741745, -0.23774950206279755, -0.15236662328243256, 0.3238101303577423, -0.14875838160514832, 0.08190041035413742, 0.015239068306982517, -0.208134263753891, 0.3291659653186798, -0.2566268742084503, -0.09818074107170105, 0.18973390758037567, -0.0266109649091959, -0.24483957886695862, -0.17380613088607788, 0.2137698233127594, -0.05317936837673187, -0.0546850748360157, -0.03782086446881294, 0.21615512669086456, 0.1048518568277359, 0.14062045514583588, 0.12391887605190277, 0.13321511447429657, 0.25728777050971985, 0.10224182903766632, -0.19101236760616302, -0.21213029325008392, 0.23649662733078003, 0.028808826580643654, 0.21702693402767181, -0.18696293234825134, 0.11157999187707901, -0.1385575532913208, 0.18480782210826874, -0.19901590049266815, 0.25469252467155457, 0.12373355776071548, 0.19453886151313782, -0.2962133288383484, 0.194464772939682, 0.08409589529037476, -0.1341291069984436, 0.19842766225337982, 0.12466017156839371, 0.026211440563201904, 0.30795353651046753, 0.15559980273246765, -0.3306092619895935, -0.10619370639324188, -0.24100923538208008, -0.12519070506095886, 0.10866847634315491, 0.05583034083247185, 0.09698573499917984, 0.0369972288608551, -0.014388304203748703, 0.06834930926561356, -0.19641901552677155, -0.04150741547346115, 0.1721487045288086, 0.19681398570537567, -0.030614836141467094, 0.04894218221306801, 0.13455505669116974, -0.11485810577869415, 0.17303544282913208, -0.03891238942742348, -0.2009238600730896, -0.1128106638789177, -0.1569080799818039, -0.06687773764133453, -0.07455358654260635, -0.10527724027633667, -0.16244229674339294, -0.18376067280769348, -0.08673077821731567, 0.025177258998155594, 0.20526984333992004, 0.12418975681066513, -0.15225276350975037, 0.024061203002929688, -0.014831832610070705, -0.22998681664466858, -0.16505025327205658, 0.11160680651664734, -0.0478886254131794, 0.2782859802246094, 0.25385650992393494, -0.16053920984268188, -0.14882129430770874, -0.08169901371002197, -0.15780125558376312, 0.05262313410639763, 0.2159705013036728, 0.009253970347344875, -0.1371563971042633, 0.18548649549484253, 0.11491659283638, 0.27353447675704956, 0.1441684067249298, 0.024683233350515366, 0.0531354621052742, -0.22405357658863068, 0.03177087381482124, -0.16887852549552917, 0.24693745374679565, -0.06813886761665344, -0.16805416345596313, -0.04690447449684143, 0.11640036106109619, 0.0701926127076149, 0.13454221189022064, 0.040962811559438705, 0.06650399416685104, -0.00778531190007925, 0.08817723393440247, 0.15739092230796814, -0.15275901556015015, 0.21994057297706604, -0.016809731721878052, 0.24217823147773743, 0.16096632182598114, -0.010562633164227009, -0.09767089039087296, -0.21614143252372742, -0.22686897218227386, 0.30537962913513184, 0.20366621017456055, -0.05198533833026886, 0.1478426307439804, -0.24023249745368958, 0.11146403849124908, -0.10185525566339493, 0.04969782009720802, 0.1557125747203827, -0.13142351806163788, -0.2153325378894806, -0.04011910781264305, 0.07114771753549576, 0.04074123874306679, -0.014096145518124104, -0.09721089154481888, -0.3536418676376343, 0.20695053040981293, 0.07550086081027985, 0.05336937680840492, -0.06589325517416, 0.20214270055294037, -0.16954070329666138, -0.11279687285423279, -0.07781428098678589, 0.19313973188400269, -0.2096831351518631, -0.18932506442070007, 0.003531242022290826, -0.3030667006969452, -0.2901971936225891, -0.20981791615486145, -0.23583844304084778, -0.035640522837638855, -0.04346109554171562, -0.13537898659706116, 0.3396456241607666, -0.20498088002204895, -0.2042730748653412, -0.004312803503125906, 0.22796808183193207, -0.023132339119911194, 0.1730232834815979, -0.052266478538513184, 0.035212062299251556, -0.19349877536296844, 0.05924534425139427, 0.05532258003950119, -0.02421926148235798, 0.18068480491638184, -0.16366852819919586, -0.09914255142211914, -0.16048873960971832, -0.2449217289686203, -0.047886744141578674, 0.08931691944599152, 0.18687041103839874, -0.05204517021775246, 0.2235986441373825, 0.04418126493692398, 0.03206510841846466, -0.004104330204427242, -0.16375602781772614, 0.20806026458740234, 0.1726657897233963, 0.14576701819896698, -0.09818515926599503, -0.0567282997071743, -0.03707825392484665, -0.15476706624031067, 0.27185627818107605, -0.1426328420639038, 0.0305311419069767, 0.1555161029100418, -0.17380809783935547, -0.01256770920008421, -0.15166939795017242, -0.09819701313972473, -0.14053545892238617, 0.20155011117458344, 0.1471899002790451, -0.1325473040342331, 0.05868352949619293, -0.14653369784355164, -0.08925186842679977, -0.18914370238780975, -0.2797934114933014, -0.16663236916065216, 0.24628253281116486, 0.007882321253418922, 0.15114782750606537, -0.11930209398269653, -0.15970151126384735, -0.25435394048690796, 0.22400082647800446, -0.19385547935962677, 0.05598077550530434, -0.14829175174236298, 0.09300976246595383, -0.18209484219551086, 0.21079887449741364, -0.07250119745731354, -0.19002076983451843, 0.0924573764204979, 0.2076834887266159, 0.28187838196754456, -0.1490805298089981, -0.18446505069732666, -0.02162068337202072, -0.1955585926771164, -0.15376316010951996, -0.1367437243461609, -0.12171506881713867, 0.03913109749555588, -0.015458359383046627, 0.11331579089164734, -0.11140595376491547, 0.11388836801052094, 0.1952882707118988, -0.2141360491514206, 0.20668372511863708, -0.13168956339359283, -0.03836541995406151, 0.2480211853981018, -0.2604536712169647, -0.14090824127197266, -0.06265275925397873, -0.05746576562523842, -0.05507674068212509, 0.10417910665273666, -0.2129078209400177, 0.2270159274339676, -0.18798886239528656, -0.11654432117938995, -0.18982887268066406, 0.13659000396728516, -0.30259791016578674, 0.13799993693828583, 0.2174081653356552, 0.10013248771429062, -0.029240814968943596, -0.08377499133348465, -0.07393330335617065, 0.034509941935539246, -0.3147270679473877, -0.12040380388498306, -0.2705782651901245, -0.11726908385753632, -0.10092964768409729, 0.26268479228019714, 0.005952737294137478, -0.03216700255870819, -0.0022719574626535177, -0.021627094596624374, -0.063189297914505, -0.16126154363155365, -0.17082077264785767, 0.07446585595607758, 0.14112336933612823, 0.07647082954645157, 0.359815776348114, 0.19126823544502258, -0.027749888598918915, 0.17823286354541779, 0.05880357697606087, 0.11507101356983185, -0.029528632760047913, 0.14872241020202637, -0.20310966670513153, -0.10814501345157623, 0.06294605135917664, 0.15429729223251343, -0.03070758283138275, 0.23941610753536224, -0.09936855733394623, -0.23375950753688812, -0.27101683616638184, 0.026349734514951706, 0.17394481599330902, -0.2999315559864044, 0.1279429793357849, 0.14606288075447083, 0.09536760300397873, 0.13985826075077057, 0.09333881735801697, -0.14923503994941711, -0.19057263433933258, -0.10899336636066437, -0.141947403550148, 0.13075219094753265, 0.04660959169268608, 0.22285395860671997, -0.017782393842935562, 0.2009795904159546, -0.06714300811290741, -0.031400762498378754, 0.010138886980712414, 0.01593034528195858, -0.04585321992635727, 0.18701928853988647, 0.11762920022010803, 0.23358459770679474, -0.1277710348367691, -0.0720202699303627, 0.2069910317659378, 0.25581198930740356, -0.10945624858140945, -0.04613639414310455, -0.05882389470934868, -0.08005058020353317, -0.1313788890838623, -0.07770005613565445, 0.21085911989212036, -0.001524581341072917, -0.12018804997205734, 0.1119878962635994, 0.2867116630077362, 0.022833632305264473, 0.0007748767966404557, 0.09176547080278397, 0.005947739817202091, 0.20536921918392181, 0.2159726470708847, 0.09470585733652115, 0.04048975557088852, 0.12138662487268448, -0.0580153726041317, 0.16175174713134766, 0.16646462678909302, -0.18342308700084686, 0.14154408872127533, -0.20926721394062042, -0.319197416305542, 0.17065522074699402, -0.0477885864675045, 0.06462136656045914, 0.05554697662591934, 0.15022395551204681, -0.09443411976099014, -0.23339077830314636, 0.05327706038951874, -0.027659473940730095, -0.300800085067749, 0.22134347259998322, 0.14793002605438232, 0.11424125730991364, -0.0923546776175499, 0.15202611684799194, 0.13221800327301025, -0.05933825671672821, -0.16779731214046478, -0.2638828754425049, -0.08950170874595642, 0.09091439843177795, -0.09233993291854858, -0.053105518221855164, -0.20585252344608307, 0.23346765339374542, 0.12504802644252777, -0.1549045294523239, -0.027105046436190605, 0.24926243722438812, 0.03781203180551529, -0.09897274523973465, 0.020646722987294197, 0.07677867263555527, 0.2311946004629135, -0.12906447052955627, -0.16214941442012787, 0.10645578801631927, 0.03863983228802681, -0.15605825185775757, 0.0013321200385689735, 0.2930949628353119, -0.028699727728962898, -0.0852670818567276, -0.09681033343076706, -0.16887639462947845, 0.1447565108537674, 0.08155874162912369, -0.1781274527311325, -0.05934935808181763, 0.2558988630771637, -0.017506038770079613, 0.2909720540046692, 0.1789010763168335, -0.019791724160313606, 0.12850114703178406, -0.12234100699424744, -0.03313778340816498, 0.012418817728757858, 0.0038564843125641346, -0.05681390315294266, -0.14758507907390594, -0.24971513450145721, 0.2947787046432495, 0.2241899073123932, -0.03932570666074753, 0.26053816080093384, -0.2444116175174713, -0.1575581431388855, 0.024495264515280724, 0.08777237683534622, 0.06131674349308014, 0.328334778547287, -0.20279648900032043, 0.052017997950315475, 0.03869140148162842, 0.22494164109230042, -0.06533920764923096, 0.10117834061384201, 0.12739937007427216, 0.24006985127925873, -0.09912633150815964, 0.2196124941110611, -0.1483423262834549, -0.11872918903827667, 0.04165429249405861, -0.26305103302001953, 0.2141249179840088, -0.08908366411924362, -0.052954405546188354, 0.12488160282373428, -0.250080943107605, 0.07735762745141983, 0.025540482252836227, -0.08787842094898224, -0.03770194202661514, 0.1927625983953476, 0.06852733343839645, 0.13184888660907745, -0.022661985829472542, -0.11850075423717499, -0.15233971178531647, 0.07320628315210342, -0.051887571811676025, -0.1302376389503479, -0.12641042470932007, 0.23690716922283173, 0.19001953303813934, 0.18402153253555298, 0.11670411378145218, -0.1405421942472458, -0.08511608093976974, 0.2755964994430542, 0.2889784872531891, 0.17109937965869904, -0.2572307288646698, 0.19577361643314362, 0.12298684567213058, -0.24927927553653717, -0.1753520965576172, -0.12273906916379929, 0.12262890487909317, 0.051219675689935684, -0.030631784349679947, 0.2070828676223755, -0.15492504835128784, 0.1866140216588974, 0.0738837718963623, -0.19587241113185883, -0.06009051576256752, 0.13116571307182312, -0.19093284010887146, -0.2683415710926056, -0.11102692037820816, 0.03727514296770096, 0.1672147661447525, 0.07432756572961807, 0.07655642926692963, 0.1527976244688034, 0.0616786815226078, -0.1900249719619751, -0.1625683605670929, -0.15029826760292053, 0.13533395528793335, -0.0016431943513453007, -0.1243743896484375, -0.18858981132507324, -0.03801241144537926, -0.07248600572347641, -0.22780488431453705, -0.14882083237171173, 0.017606576904654503, -0.043243665248155594, 0.17807911336421967, -0.18325446546077728, -0.06596192717552185, 0.28205418586730957, 0.042856670916080475, -0.3221166729927063, -0.00931626558303833, -0.21246963739395142, -0.2573815584182739, 0.24206145107746124, -0.14584232866764069, -0.2632221579551697, 0.061493974179029465, -0.29366928339004517, -0.06386340409517288, 0.02229977212846279, 0.20456640422344208, 0.05155503749847412, -0.025140371173620224, 0.28236159682273865, -0.23639486730098724, 0.21376191079616547, -0.3024013042449951, -0.08327411115169525, 0.06178859621286392, -0.10005716979503632, -0.23585821688175201, -0.13777722418308258, -0.15413238108158112, -0.10167762637138367, 0.09412514418363571, -0.0677461251616478, -0.08622896671295166, 0.020838860422372818, -0.056925151497125626, 0.25161999464035034, -0.05886736139655113, 0.23775286972522736, -0.011189215816557407, 0.07556029409170151, 0.048329517245292664, -0.10756029933691025, 0.06051533669233322, 0.005582000128924847, 0.1175849661231041, 0.021507658064365387, 0.13163445889949799, 0.0008425413980148733, 0.14648745954036713, -0.09180701524019241, -0.2784441113471985, 0.12409602850675583, 0.03619980812072754, 0.22843869030475616, 0.16390511393547058, -0.06699536740779877, 0.050391193479299545, 0.01389019750058651, 0.12219000607728958, -0.028365591540932655, 0.009722953662276268, -0.0833025723695755, 0.029199210926890373, -0.09888492524623871, -0.2551213800907135, -0.14672909677028656, 0.09552416950464249, 0.3467073142528534, -0.14608082175254822, 0.16379137337207794, 0.29170799255371094, -0.0077544874511659145, -0.11063229292631149, 0.26303553581237793, 0.2351202517747879, -0.016217660158872604, 0.026787329465150833, -0.0667538046836853, -0.14343278110027313, 0.05763114243745804, -0.20675426721572876, -0.19117942452430725, -0.1738985925912857, -0.23525622487068176, 0.02259814366698265, 0.3052692711353302, 0.047768380492925644, -0.217576265335083, -0.0354720801115036, 0.16556954383850098, 0.20547817647457123, 0.14242897927761078, 0.2470695972442627, -0.09915610402822495, 0.10262128710746765, -0.02531800977885723, 0.1807224154472351, 0.23977291584014893, 0.05864734202623367, 0.1616906076669693, -0.0725390762090683, 0.11297763884067535, 0.20722128450870514, -0.30208340287208557, -0.09344353526830673, 0.14989019930362701, -0.07969435304403305, 0.243097722530365, 0.25431111454963684, -0.20024600625038147, 0.20068423449993134, 0.22130319476127625, 0.03519298881292343, -0.25551649928092957, -0.18869128823280334, -0.2735198438167572, -0.18383759260177612, 0.07721175998449326, -0.10638179630041122, -0.0156140411272645, -0.0608908012509346, 0.06481919437646866, -0.024087734520435333, -0.09155649691820145, 0.20462532341480255, 0.11900705099105835, -0.2271406650543213, -0.07311543822288513, -0.16971252858638763, 0.08953982591629028, -0.1716984659433365, 0.10346637666225433, -0.1480603665113449, 0.15288357436656952, 0.09893956035375595, -0.17361503839492798, -0.1814248263835907, 0.15080876648426056, -0.03570736199617386, 0.13824333250522614, -0.0599881149828434, 0.10061440616846085, 0.0045996461994946, 0.15917232632637024, 0.11510658264160156, 0.2218782752752304, -0.042283885180950165, 0.03772810846567154, 0.07164639979600906, 0.15447717905044556, -0.06374116241931915, -0.09514527022838593, 0.18570587038993835, -0.044035449624061584, 0.0657600611448288, 0.04291883483529091, 0.07892155647277832, -0.03496343269944191, -0.030841266736388206, 0.06846629083156586, 0.07540257275104523, -0.030368255451321602, -0.0466424860060215, -0.0655163899064064, 0.02685665525496006, -0.05078994482755661, 0.23360122740268707, -0.17458100616931915, -0.028288789093494415, -0.0163902435451746, 0.09099838137626648, 0.1887873411178589, 0.18628787994384766, 0.15235652029514313, 0.05901019275188446, -0.10390719026327133, 0.1086086705327034, -0.09785623103380203, -0.08408919721841812, -0.0357525534927845, -0.11574248224496841, 0.12329485267400742, -0.1757480502128601, -0.1049070954322815, -0.30941587686538696, 0.10428488999605179, 0.0437520332634449, -0.26085904240608215, -0.2140672355890274, 0.08247768133878708, -0.17287306487560272, 0.03825337067246437, 0.15172380208969116, 0.02057446353137493, 0.2718058228492737, 0.09063274413347244, 0.12933970987796783, 0.21365094184875488, 0.13776178658008575, 0.175277441740036, -0.06687755882740021, 0.1541115790605545, 0.15786628425121307, -0.1023932471871376, -0.08799707889556885, -0.20291560888290405, -0.2205275446176529, -0.020825328305363655, 0.002801217371597886, -0.02360713854432106, 0.18165169656276703, 0.28653472661972046, -0.20172029733657837, -0.04489116370677948, -0.08232370018959045, 0.13458412885665894, 0.29865142703056335, 0.033454202115535736, 0.08810298144817352, -0.06527218967676163, 0.3046739399433136, 0.11112683266401291, -0.05604952573776245, 0.09447722882032394, -0.15162058174610138, -0.18240433931350708, -0.1824517399072647, 0.007705228868871927, 0.29816147685050964, 0.08199268579483032, 0.17397958040237427, -0.16055631637573242, 0.11691824346780777, 0.17248064279556274, 0.03751448169350624, 0.12820954620838165, 0.020198378711938858, 0.15557809174060822, 0.2654884457588196, -0.16782516241073608, 0.168295755982399, 0.03989371657371521, -0.033197250217199326, -0.11452850699424744, 0.168397456407547, 0.026974201202392578, 0.07437609136104584, 0.17253801226615906, 0.1304806023836136, 0.06991005688905716, -0.2419566810131073, -0.002040322870016098, 0.24947234988212585, -0.24146710336208344, -0.05120035260915756, 0.2557099759578705, -0.05492876470088959, 0.07411497086286545, 0.027926413342356682, 0.14900289475917816, -0.2757417857646942, 0.04807380214333534, -0.21833287179470062, -0.0011501982808113098, 0.06482002139091492, 0.15815241634845734, -0.0064544701017439365, -0.1632903516292572, -0.28545284271240234, -0.041225191205739975, 0.27982139587402344, -0.24929063022136688, 0.14223767817020416, -0.23580674827098846, 0.241672083735466, -0.2068168818950653, 0.038233570754528046, -0.17188534140586853, 0.09651736915111542, -0.20868951082229614, 0.2038387656211853, 0.1579694151878357, 0.24265514314174652, 0.1397431641817093, 0.30040761828422546, 0.2443820983171463, -0.16246992349624634, 0.25797605514526367, 0.10311730951070786, -0.1767919659614563, 0.028125718235969543, -0.11371461302042007, 0.015235789120197296, 0.07983370870351791, 0.10054586827754974, 0.13827703893184662, 0.35708707571029663, 0.21089838445186615, -0.09868146479129791, -0.1534547656774521, 0.04317673668265343, 0.12065258622169495, 0.16693741083145142, 0.045013755559921265, 0.023878121748566628, -0.08681561052799225, -0.06056997925043106, -0.11435233056545258, 0.168889120221138, 0.14128534495830536, -0.13531772792339325, 0.1600193828344345, 0.08160451799631119, 0.0713205337524414, 0.24048519134521484, 0.03289001062512398, 0.10984516143798828, -0.2103329598903656, 0.24907134473323822, -0.05126113444566727, -0.13179334998130798, -0.20458348095417023, 0.10473364591598511, 0.21143656969070435, -0.005772799253463745, -0.08999960869550705, 0.014622382819652557, 0.22536461055278778, -0.20450101792812347, -0.2555978298187256, 0.16528666019439697, -0.11095628887414932, -0.0250575952231884, -0.1623181700706482, 0.14356479048728943, -0.2024293839931488, -0.13515619933605194, -0.07370403409004211, -0.13815486431121826, -0.07908801734447479, 0.3076637387275696, 0.2669757008552551, 0.028119903057813644, 0.10844158381223679, -0.1456066519021988, 0.06561943888664246, -0.07105321437120438, 0.18275965750217438, 0.05064228177070618, 0.21289823949337006, -0.018197717145085335, 0.09508143365383148, -0.06504873931407928, -0.06963948160409927, 0.15330936014652252, 0.027025870978832245, 0.26556962728500366, 0.023969193920493126, -0.07129830121994019, 0.09263435751199722, -0.26441341638565063, -0.11535146087408066, -0.10488332062959671, 0.267334520816803, -0.01996615156531334, 0.20798397064208984, 0.15949901938438416, 0.19678570330142975, 0.05315075442194939, 0.30398455262184143, -0.12284700572490692, -0.1805029660463333, 0.07725226134061813, 0.2993418574333191, -0.14755986630916595, -0.20223043859004974, -0.29988789558410645, -0.029713714495301247, 0.08274407684803009, 0.10026413947343826, 0.010948573239147663, -0.23339290916919708, 0.07759616523981094, 0.08107923716306686, -0.0964062288403511, 0.05146687477827072, 0.010936212725937366, -0.07923729717731476, 0.16257695853710175, 0.17867977917194366, 0.15942291915416718, 0.055578507483005524, -0.1915239542722702, -0.2565220892429352, 0.053531426936388016, -0.06866451352834702, -0.10627289116382599, -0.027321359142661095, 0.024388721212744713, 0.06744106113910675, -0.3083261251449585, 0.16130296885967255, 0.05712864547967911, 0.17585301399230957, -0.12382140755653381, -0.17313829064369202, 0.22235053777694702, 0.14848634600639343, 0.04718626290559769, 0.04810537025332451, -0.030487559735774994, -0.28226256370544434, -0.3090362846851349, 0.08235562592744827, 0.049873147159814835, 0.2351614236831665, -0.1742570996284485, -0.24649551510810852, 0.1190536841750145, -0.2363900989294052, -0.06583905220031738, -0.1879354864358902, 0.152291402220726, -0.28914403915405273, 0.0620407871901989, -0.041016366332769394, 0.18416908383369446, -0.06090341508388519, -0.21355430781841278, -0.0802047923207283, 0.1838115006685257, 0.05483683571219444, 0.2535310685634613, -0.16045516729354858, 0.18182605504989624, -0.13535107672214508, -0.02600494958460331, 0.07161581516265869, -0.28147435188293457, 0.06325054168701172, -0.020940911024808884, 0.2288615107536316, -0.03789222985506058, 0.23546995222568512, -0.02436348982155323, 0.18264248967170715, 0.07161111384630203, 0.12936407327651978, -0.11946946382522583, -0.10405217856168747, 0.26835957169532776, -0.08375957608222961, -0.08456683158874512, 0.07130224257707596, -0.15252037346363068, 0.004250894300639629, 0.16113457083702087, 0.29773885011672974, -0.1953440010547638, 0.15575110912322998, -0.13380731642246246, -0.1558733433485031, 0.012582669965922832, -0.013702749274671078, 0.1278914511203766, 0.2605043351650238, 0.24768956005573273, 0.0017758740577846766, -0.12006688863039017, -0.06486555188894272, 0.09129456430673599, -0.11944381892681122, 0.16702255606651306, 0.042066216468811035, 0.11882340908050537, -0.23901237547397614, 0.029978947713971138, 0.018436051905155182, -0.09243851155042648, 0.002686970168724656, 0.15631170570850372, 0.05782598629593849, -0.012644525617361069, 0.01040549948811531, -0.207444965839386, 0.18337246775627136, 0.14709316194057465, -0.0879734605550766, -0.03716568648815155, -0.1572578251361847, -0.00017528081662021577, 0.16489335894584656, 0.06841913610696793, 0.06101461499929428, -0.033129625022411346, -0.04994077980518341, 0.001124525093473494, -0.2784183919429779, 0.04709016904234886, 0.19564636051654816, -0.004686395637691021, 0.24243900179862976, 0.2636379599571228, 0.003940730821341276, 0.1284528225660324, -0.0912897139787674, 0.01125195249915123, 0.10345786064863205, 0.01800912246108055, 0.13234852254390717, 0.06518662720918655, -0.18997961282730103, 0.23585008084774017, 0.26830989122390747, 0.008365079760551453, 0.1992265284061432, -0.21511749923229218, 0.14772598445415497, -0.1549060344696045, 0.08049135655164719, -0.13632632791996002, -0.03539609909057617, -0.0007693266379646957, 0.14235597848892212, -0.000407909945352003, -0.035922348499298096, -0.06712695956230164, -0.12160859256982803, -0.1030149906873703, -0.21487699449062347, -0.10048434883356094, 0.07712605595588684, -0.1855696737766266, -0.15289844572544098, 0.015582488849759102, 0.13919492065906525, 0.0061405980959534645, -0.12381561845541, -0.07748623937368393, -0.06567510217428207, -0.1363871991634369, -0.12964355945587158, -0.022202782332897186, 0.11330748349428177, -0.029949288815259933, -0.2891298234462738, 0.07151297479867935, -0.2260686159133911, 0.15395495295524597, -0.12590450048446655, -0.11277742683887482, -0.06711408495903015, -0.0986817330121994, 0.06751950085163116, -0.1610233336687088, 0.2843054234981537, 0.2986336648464203, -0.018285198137164116, -0.006026809103786945, 0.24431760609149933, 0.006393445655703545, -0.1393321454524994, 0.09893709421157837, 0.2636306881904602, -0.07427668571472168, -0.012083743698894978, -0.09591387957334518, -0.07736870646476746, -0.0032635205425322056, -0.15105749666690826, -0.05838136747479439, 0.20018064975738525, 0.2568654716014862, 0.07286880910396576, 0.1661565601825714, -0.021771850064396858, 0.1804090142250061, -0.06082150712609291, 0.027963412925601006, -0.02359946072101593, -0.1814698874950409, 0.25495445728302, -0.2124161720275879, 0.1897377073764801, -0.09817016869783401, -0.019215041771531105, -0.07395628094673157, -0.05710987374186516, 0.2584446370601654, 0.367225706577301, 0.18787460029125214, 0.1415078490972519, -0.005520828068256378, -0.09034457057714462, -0.12336085736751556, 0.052058104425668716, -0.14130735397338867, 0.298727422952652, -0.15233536064624786, -0.23718392848968506, 0.26784732937812805, -0.19318456947803497, -0.04516242444515228, 0.2644301652908325, 0.05568961426615715, -0.03523525223135948, 0.27675503492355347, 0.12019380927085876, -0.27059900760650635, 0.20631015300750732, 0.18537604808807373, -0.06794869899749756, 0.21676170825958252, -0.13554245233535767, 0.06809080392122269, 0.07800775021314621, -0.22019445896148682, -0.30388107895851135, -0.16579119861125946, -0.12316783517599106, 0.17982523143291473, -0.07875176519155502, -0.11581942439079285, 0.15886418521404266, -0.3319874107837677, -0.0478271022439003, -0.1576463282108307, -0.24429656565189362, -0.09331928193569183, -0.005341588519513607, 0.21230448782444, -0.05074578523635864, 0.0746641457080841, -0.1023314893245697, 0.23162677884101868, -0.019544053822755814, -0.13993503153324127, -0.13184551894664764, 0.24674846231937408, -0.03812384977936745, -0.13857483863830566, 0.21595370769500732, -0.11060600727796555, 0.3515995144844055, -0.031225254759192467, -0.22763481736183167, 0.1880326122045517, -0.2977817952632904, 0.12950418889522552, -0.049539919942617416, -0.10246727615594864, 0.006869487464427948, 0.12592129409313202, -0.1282881200313568, -0.1221788078546524, 0.08372072130441666, -0.15285220742225647, 0.12740910053253174, -0.1275475025177002, 0.037707265466451645, -0.21257056295871735, -0.32742029428482056, 0.13759049773216248, -0.10057402402162552, 0.23571878671646118, 0.021952206268906593, -0.08502378314733505, 0.2825968265533447, -0.03429555147886276, 0.10896150022745132, 0.04810120165348053, 0.1948416531085968, -0.0095576923340559, 0.16671638190746307, 0.1856602132320404, -0.038938961923122406, 0.1834336817264557, 0.09935669600963593, -0.2764511704444885, -0.35736697912216187, -0.11675851792097092, 0.05534420534968376, -0.1428060382604599, -0.09333295375108719, -0.26311615109443665, 0.14887100458145142, 0.1434972882270813, 0.21621182560920715, -0.11836738884449005, 0.08507202565670013, -0.014348872005939484, -0.17116117477416992, -0.2291925698518753, -0.2701443135738373, 0.1294044405221939, -0.1843247264623642, -0.10634433478116989, 0.037081241607666016, 0.19276323914527893, 0.2653305232524872, 0.18729400634765625, 0.11093210428953171, 0.11754375696182251, -0.26196110248565674, 0.06336483359336853, -0.13531753420829773, 0.13752222061157227, -0.016976160928606987, -0.040569305419921875, -0.18893994390964508, 0.2084328532218933, 0.13752102851867676, -0.014175660908222198, -0.12230591475963593, -0.04292507842183113, 0.207665354013443, 0.07497167587280273, 0.18161706626415253, -0.19568932056427002, -0.03834114596247673, 0.16419050097465515, -0.17403273284435272, -0.2017470896244049, 0.024300891906023026, -0.0854211151599884, 0.12512552738189697, 0.09755153208971024, 0.14323043823242188, -0.18131734430789948, -0.056474678218364716, -0.235020712018013, 0.020364070311188698, -0.2376428246498108, -0.02688560262322426, 0.154680997133255, -0.16727575659751892, 0.2528856098651886, -0.21719294786453247, 0.09687155485153198, -0.07211894541978836, -0.1222987249493599, 0.05673430114984512, -0.15462005138397217, 0.19394099712371826, 0.07441877573728561, -0.02445458248257637, -0.2173471301794052, 0.028698934242129326, -0.172332763671875, 0.04971175640821457, -0.1434907466173172, -0.20929978787899017, 0.015570467337965965, 0.22876283526420593, -0.216781347990036, 0.11110836267471313, -0.19910697638988495, -0.1926604062318802, 0.1513444483280182, -0.2120971977710724, 0.30172860622406006, 0.01729077845811844, -0.027173735201358795, -0.022125206887722015, -0.02199724316596985, -0.03856108337640762, -0.13980154693126678, 0.08296821266412735, -0.011641111224889755, 0.35172969102859497, -0.0665777325630188, -0.18774288892745972, -0.24744077026844025, -0.0387236587703228, -0.19855870306491852, 0.1772712916135788, 0.26337993144989014, 0.029527731239795685, -0.048685576766729355, -0.10929274559020996, 0.05622278153896332, -0.045508973300457, 0.06858030706644058, 0.1380821168422699, -0.028710519894957542, -0.05716415494680405, 0.3380398154258728, 0.050068825483322144, 0.04618723317980766, 0.2632608413696289, -0.10741297900676727, 0.009418784640729427, -0.12262769788503647, -0.04815502092242241, -0.01825796626508236, -0.11785496026277542, -0.33667421340942383, -0.0007289712666533887, -0.20157887041568756, 0.23445704579353333, 0.26558464765548706, 0.019782429561018944, 0.20516568422317505, 0.05069717764854431, 0.10469688475131989, 0.013875859789550304, 0.33060920238494873, -0.023231033235788345, 0.11221665143966675, -0.21697381138801575, -0.01803664304316044, 0.10916052758693695, 0.03409860283136368, 0.0909828171133995, -0.07837381213903427, 0.173249751329422, 0.21034051477909088, 0.02330302633345127, 0.09759030491113663, 0.17716914415359497, -0.008352077566087246, 0.07561799138784409, 0.07196764647960663, 0.010065926238894463, 0.11165031790733337, -0.006650575436651707, -0.1315249800682068, 0.03602749854326248, 0.15027779340744019, 0.3253013789653778, 0.147020161151886, -0.1978289633989334, -0.1861821562051773, 0.26338741183280945, -0.02018905058503151, 0.22951477766036987, 0.17654038965702057, 0.010587276890873909, -0.2128046452999115, 0.24294497072696686, 0.22423428297042847, 0.01254296861588955, 0.17107142508029938, 0.0013544779503718019, -0.054926592856645584, 0.09735412895679474, -0.19383440911769867, 0.016753727570176125, -0.02776913531124592, 0.05826607346534729, 0.22311612963676453, 0.08892107754945755, -0.18668513000011444, -0.20633535087108612, 0.04260870814323425, 0.2796582877635956, 0.06770298629999161, 0.13014942407608032, 0.05663642659783363, -0.21313731372356415, 0.12346377223730087, -0.05023602768778801, 0.14780332148075104, 0.22287312150001526, -0.05731223523616791, -0.11518830806016922, 0.02249465137720108, -0.20052675902843475, 0.07624981552362442, 0.07505806535482407, -0.1612878441810608, 0.22556717693805695, -0.02635013684630394, 0.13464075326919556, -0.17680948972702026, -0.1333293467760086, -0.14403222501277924, 0.40810292959213257, 0.06933630257844925, 0.0064759766682982445, -0.05689854919910431, -0.12540026009082794, -0.13216514885425568, 0.12954246997833252, -0.19172905385494232, 0.12699298560619354, -0.19453465938568115, -0.07647459954023361, -0.12165547907352448, -0.17508623003959656, 0.2750896215438843, -0.11823320388793945, 0.17738983035087585, -0.2275361865758896, -0.030518531799316406, 0.09394294023513794, -0.13600105047225952, -0.08743681013584137, -0.037814464420080185, -0.06645002961158752, 0.2048829346895218, 0.04830015078186989, -0.12216097116470337, -0.03533024340867996, 0.14904135465621948, -0.041501324623823166, -0.011288494803011417, -0.08760084211826324, -0.11321313679218292, -0.23861415684223175, -0.133053258061409, -0.10212721675634384, 0.20184065401554108, 0.08192875236272812, -0.1833937168121338, 0.24365751445293427, -0.08011086285114288, 0.016885630786418915, 0.049918901175260544, -0.03619411215186119, -0.024483323097229004, -0.0021987364161759615, 0.2954636812210083, -0.08220841735601425, -0.21577832102775574, -0.046346671879291534, 0.09188742935657501, 0.06910017877817154, -0.0052895997650921345, -0.1565459668636322, 0.08760352432727814, -0.16417717933654785, 0.22083309292793274, 0.2912587523460388, -0.1302296221256256, 0.09946604073047638, 0.06481337547302246, -0.23303040862083435, -0.08894681930541992, 0.1014811247587204, 0.08434971421957016, -0.09921865910291672, 0.11336291581392288, -0.03721032291650772, 0.04294043406844139, 0.06548720598220825, 0.15956531465053558, 0.20921121537685394, 0.18192127346992493, -0.29473090171813965, -0.2222205549478531, 0.08595772087574005, 0.19190692901611328, -0.13466985523700714, 0.14874419569969177, -0.11517460644245148, 0.1489468216896057, 0.09973178058862686, 0.18646614253520966, 0.11118650436401367, 0.13783244788646698, 0.17252075672149658, 0.15404589474201202, 0.14863085746765137, 0.21491293609142303, 0.17600226402282715, -0.2605050802230835, -0.1295958310365677, 0.20401841402053833, 0.21170905232429504, 0.10812842845916748, -0.05825457721948624, 0.00163683679420501, -0.003281158860772848, -0.01940106227993965, -0.2401895672082901, 0.1924000382423401, -0.17909695208072662, -0.01581447385251522, -0.06448601931333542, -0.17812390625476837, -0.114336758852005, 0.20624041557312012, 0.19603000581264496, 0.019021116197109222, 0.028547171503305435, -0.2728564739227295, -0.022545533254742622, 0.050803571939468384, 0.26113295555114746, -0.2509928345680237, -0.25766870379447937, -0.2454756796360016, -0.20659275352954865, 0.09169507771730423, 0.2777291536331177, -0.27192312479019165, 0.027602212503552437, 0.02785363979637623, 0.0067084054462611675, 0.20328542590141296, 0.08859210461378098, 0.035724904388189316, 0.1020587682723999, 0.015196159482002258, 0.23827064037322998, -0.1614106297492981, -0.05705960467457771, -0.16991378366947174, 0.10963580012321472, -0.034133173525333405, 0.15456229448318481, 0.057394348084926605, 0.04103153571486473, 0.1448286920785904, 0.322128564119339, -0.05798197165131569, 0.11834277212619781, 0.01637496054172516, -0.09328671544790268, -0.11267898231744766, -0.2005458027124405, -0.02520892396569252, -0.18981720507144928, -0.06098662316799164, -0.258310467004776, -0.04349642992019653, -0.09390342235565186, -0.2042534053325653, 0.07088440656661987, 0.07977630198001862, -0.09421875327825546, -0.026102932170033455, -0.15191438794136047, -0.1640024483203888, -0.26424074172973633, 0.301392525434494, -0.14794854819774628, 0.02446834370493889, -0.056455984711647034, -0.02483801357448101, -0.03138507530093193, 0.24410247802734375, 0.2976630926132202, 0.14248232543468475, -0.19720232486724854, -0.06046723946928978, -0.10863511264324188, 0.050307080149650574, 0.17342297732830048, 0.18849633634090424, 0.021515436470508575, -0.009440625086426735, 0.1048317551612854, -0.06998146325349808, 0.16824516654014587, 0.17603029310703278, 0.15552541613578796, 0.09649685770273209, 0.2538393437862396, 0.034439291805028915, -0.07203474640846252, -0.21969197690486908, 0.21822701394557953, 0.3494583070278168, 0.004751863423734903, -0.08755417913198471, -0.1216202899813652, -0.08202655613422394, -0.07976271957159042, -0.04711519181728363, -0.07374584674835205, 0.028758201748132706, -0.23839311301708221, 0.07681422680616379, 0.18933019042015076, -0.06362181901931763, -0.025452811270952225, 0.22958864271640778, 0.179923415184021, 0.23132281005382538, -0.01860424317419529, -0.258274108171463, -0.17448019981384277, 0.017914796248078346, 0.2017451673746109, -0.10466495901346207, 0.03045598603785038, -0.16922280192375183, 0.18618296086788177, -0.14203546941280365, 0.1774863600730896, -0.1142362505197525, 0.2929629981517792, -0.06819920986890793, 0.04612743854522705, -0.0864451602101326, -0.15580451488494873, 0.025471767410635948, -0.13186298310756683, -0.1216844841837883, 0.18684189021587372, 0.03457052633166313, -0.07139703631401062, 0.09686591476202011, 0.14346666634082794, -0.29417333006858826, 0.00685873394832015, -0.22093437612056732, -0.26026323437690735, -0.15408259630203247, -0.008934656158089638, -0.25306248664855957, -0.09614192694425583, -0.12468761205673218, 0.13415804505348206, 0.011291556060314178, 0.06609921902418137, -0.14749553799629211, -0.03413877263665199, -0.2947061359882355, 0.16130439937114716, -0.19170807301998138, -0.111912801861763, 0.0033940966241061687, 0.07434169948101044, -0.10823143273591995, -0.1659892350435257, -0.20272481441497803, -0.09256632626056671, 0.1511945277452469, 0.06824978440999985, -0.1184636577963829, -0.16693846881389618, -0.02746567316353321, 0.22877976298332214, 0.0417240634560585, 0.05072162300348282, 0.1816902607679367, -0.09819851070642471, -0.030308235436677933, 0.2687505781650543, 0.015842244029045105, -0.3599967062473297, 0.14394409954547882, -0.01376378070563078, -0.26897764205932617, -0.17276613414287567, -0.10018816590309143, 0.1702830046415329, 0.11861637234687805, 0.04058315232396126, -0.013769127428531647, -0.119347482919693, -0.022488508373498917, -0.14073358476161957, -0.007186358328908682, -0.09172485023736954, 0.16928249597549438, -0.22564589977264404, -0.091680146753788, 0.17013734579086304, 0.0018932309467345476, 0.2890912890434265, -0.12298280745744705, -0.04273926466703415, 0.23547489941120148, -0.09618161618709564, -0.13975995779037476, -0.21983519196510315, -0.021568400785326958, -0.00859745778143406, 0.10747024416923523, -0.145703986287117, -0.17386749386787415, -0.025653673335909843, -0.11474486440420151, -0.11486868560314178, 0.24015727639198303, -0.20974746346473694, -0.13349579274654388, -0.07940784841775894, 0.012895769439637661, 0.17915762960910797, -0.07300125062465668, -0.22283996641635895, -0.037796780467033386, 0.15641789138317108, -0.09552789479494095, -0.08627137541770935, 
};

float15 h2_weight[HIDDEN_LAYER_1_NODES * HIDDEN_LAYER_2_NODES] = {
-0.28724244236946106, -0.18852606415748596, -0.11339196562767029, -0.0873899981379509, -0.03509635105729103, -0.17353478074073792, 0.26361963152885437, -0.13461945950984955, 0.021263116970658302, 0.1433430165052414, -0.1499747335910797, 0.1872701495885849, -0.08132387697696686, -0.06405216455459595, -0.08733221143484116, 0.2741747200489044, -0.03936123847961426, 0.04329796880483627, 0.0763668343424797, 0.15613536536693573, -0.1143149882555008, 0.15532487630844116, -0.23965783417224884, -0.0666012242436409, 0.13297757506370544, 0.19040876626968384, -0.14992105960845947, 0.07689275592565536, -0.08715470880270004, 0.19232715666294098, -0.13061903417110443, -0.1874397099018097, 0.05848195031285286, 0.22489291429519653, 0.17679326236248016, 0.20301859080791473, 0.18911537528038025, -0.03455936908721924, 0.0764412134885788, -0.08320964872837067, -0.15651212632656097, 0.2670571208000183, -0.07006283849477768, -0.15758129954338074, -0.1525699645280838, 0.19769616425037384, -0.14306125044822693, -0.033009130507707596, 0.0031368574127554893, 0.1362866759300232, -0.15715572237968445, -0.009716566652059555, 0.21015143394470215, 0.05804863199591637, -0.06335803866386414, 0.06225595995783806, -0.21140576899051666, 0.0719807893037796, -0.2586230933666229, 0.13515733182430267, 0.3161652684211731, -0.1651921421289444, 0.09043887257575989, -0.16138425469398499, -0.08586589992046356, -0.07479779422283173, 0.03299064561724663, -0.24512341618537903, 0.046487368643283844, -0.04289643093943596, -0.0665682926774025, 0.07201717048883438, -0.09210646897554398, -0.010798979550600052, -0.19196517765522003, 0.003437112784013152, -0.1360137164592743, -0.13882380723953247, 0.1992947906255722, 0.1168830394744873, -0.11315654218196869, 0.07626370340585709, -0.10379822552204132, 0.17284390330314636, -0.12948600947856903, -0.096678726375103, -0.10235598683357239, 0.04594447463750839, -0.04144265502691269, 0.15418043732643127, -0.0699247196316719, 0.031209906563162804, 0.04266132041811943, -0.12426342815160751, -0.14030979573726654, -0.04837362468242645, 0.1767849177122116, 0.09150412678718567, -0.015670135617256165, 0.10843214392662048, -0.04551209881901741, -0.13836203515529633, 0.16793712973594666, -0.1900937557220459, -0.22098369896411896, -0.033992405980825424, -0.2260369509458542, -0.2373766303062439, -0.11059641093015671, -0.13784882426261902, -0.14072684943675995, -0.10746873915195465, 0.14574071764945984, 0.09969773143529892, 0.011589359492063522, 0.1507047861814499, -0.01616668701171875, 0.012954270467162132, 0.20813894271850586, -0.17424629628658295, 0.21921508014202118, -0.09081747382879257, 0.2055412083864212, 7.616348739247769e-05, -0.12613345682621002, 0.12376133352518082, 0.12813587486743927, -0.0720403715968132, 0.31492459774017334, -0.11236049979925156, 0.17262986302375793, 0.2272539585828781, -0.1891246885061264, 0.05886443704366684, -0.14414139091968536, -0.032184354960918427, -0.054496731609106064, 0.1923786699771881, 0.17588810622692108, 0.18867570161819458, -0.03708852082490921, -0.04952627420425415, -0.11915788799524307, -0.10381757467985153, -0.2355666309595108, 0.0072728837840259075, -0.11770947277545929, 0.08655990660190582, -0.17977270483970642, -0.10224561393260956, 0.23526589572429657, -0.22927357256412506, 0.26949432492256165, -0.2354751080274582, 0.015414884313941002, -0.012985230423510075, 0.11601496487855911, -0.14000430703163147, 0.20524446666240692, -0.11186344176530838, 0.029490960761904716, -0.020766833797097206, -0.12584364414215088, 0.13735631108283997, -0.008413422852754593, 0.16851218044757843, -0.2747514843940735, -0.021828964352607727, -0.07007238268852234, 0.1526203453540802, -0.16193009912967682, -0.17777390778064728, -0.22716642916202545, 0.08611718565225601, -0.039199620485305786, 0.15239812433719635, -0.34682950377464294, -0.07929195463657379, -0.21904994547367096, -0.23681321740150452, -0.09345875680446625, -0.18621177971363068, 0.10954900830984116, 0.1179431602358818, 0.08088652789592743, -0.21788471937179565, -0.17562055587768555, -0.14913736283779144, 0.12398983538150787, 0.17649872601032257, -0.19790704548358917, -0.1579122692346573, 0.10860887169837952, 0.2627703845500946, -0.11673006415367126, 0.06628702580928802, -0.29264819622039795, 0.3050045371055603, 0.06579369306564331, -0.09074322134256363, 0.16577410697937012, 0.021395912393927574, 0.08396020531654358, 0.08486469835042953, -0.17275206744670868, 0.06826665252447128, 0.08188407123088837, 0.13797062635421753, -0.029237380251288414, -0.24510468542575836, 0.02134430967271328, 0.029933203011751175, -0.1601632535457611, 0.14013057947158813, 0.13932494819164276, 0.16747017204761505, -0.1917220652103424, -0.3260324001312256, -0.22840361297130585, 0.12020648270845413, 0.09694689512252808, -0.1590416133403778, -0.04738886281847954, -0.034979693591594696, -0.00467646773904562, -0.2274508774280548, -0.08968997746706009, 0.07041170448064804, -0.19940373301506042, -0.131046324968338, -0.14046086370944977, -0.06842038780450821, -0.031704314053058624, -0.05745967477560043, 0.06707730144262314, -0.1308428943157196, -0.21820150315761566, 0.21553504467010498, -0.13335870206356049, 0.026108572259545326, 0.08597471565008163, -0.030923595651984215, 0.10587915033102036, -0.14679501950740814, 0.06661231815814972, -0.08596603572368622, -0.03319816663861275, 0.2119714766740799, 0.1608254611492157, -0.22217604517936707, -0.0535520575940609, 0.009989652782678604, 0.05252624675631523, 0.14252455532550812, -0.031790800392627716, -0.13945120573043823, 0.15924450755119324, 0.12264606356620789, 0.013729650527238846, 0.2308095246553421, -0.21836555004119873, 0.012682316824793816, 0.02464018017053604, -0.16875296831130981, 0.30180463194847107, -0.08146876841783524, -0.03931444138288498, -0.19967800378799438, -0.1665005385875702, 0.1533401906490326, 0.17398415505886078, 0.0788942277431488, -0.1362430900335312, -0.0631093978881836, 0.16982720792293549, 0.09217172861099243, 0.17739664018154144, -0.09134911745786667, 0.3163294792175293, -0.01438197959214449, 0.17821264266967773, 0.14650858938694, -0.17710593342781067, 0.047979939728975296, 0.22465729713439941, -0.20227696001529694, 0.2343713790178299, 0.2322588711977005, 0.1846988946199417, -0.0371478796005249, 0.1821737140417099, 0.14490406215190887, 0.17560426890850067, -0.14429466426372528, 0.16637614369392395, -0.16760733723640442, 0.2307729423046112, 0.17842599749565125, -0.08596217632293701, 0.1827167421579361, 0.08208706229925156, 0.14740607142448425, -0.1291472166776657, 0.17483794689178467, 0.26955026388168335, -0.019072620198130608, -0.1811494380235672, 0.21689696609973907, -0.29059532284736633, -0.20790237188339233, 0.08178939670324326, -0.19015026092529297, -0.27208396792411804, 0.17058992385864258, -0.224578857421875, 0.1286400556564331, 0.09523045271635056, -0.13674421608448029, -0.14050304889678955, 0.007742204703390598, -0.024673858657479286, 0.05404503270983696, 0.224131777882576, -0.14419902861118317, -0.23363392055034637, 0.17858798801898956, -0.007812767289578915, -0.13037537038326263, 0.25637927651405334, -0.012756429612636566, 0.21938684582710266, -0.1247963234782219, 0.051870305091142654, -0.1104075238108635, -0.056443773210048676, -0.1305616945028305, -0.11320899426937103, -0.08577859401702881, 0.09702127426862717, -0.15675993263721466, 0.09445501118898392, -0.18423515558242798, 0.28189072012901306, 0.1499616801738739, 0.058488354086875916, -0.08236580342054367, 0.16397832334041595, 0.12207150459289551, 0.20563916862010956, 0.057051025331020355, -0.14749997854232788, 0.3255757689476013, 0.005053851753473282, 0.14313314855098724, -0.13579246401786804, 0.10944010317325592, 0.09632306545972824, 0.03604815527796745, -0.06743616610765457, -0.15339693427085876, 0.23081079125404358, -0.25263363122940063, -0.1506306529045105, 0.15065133571624756, 0.08196248859167099, 0.16140419244766235, 0.26148220896720886, -0.059251006692647934, -0.06186886876821518, 0.016379551962018013, -0.031050480902194977, -0.03623829782009125, -0.29719027876853943, 0.09897489100694656, 0.12593525648117065, -0.030942237004637718, -0.045274876058101654, 0.039514679461717606, -0.018500352278351784, -0.22763167321681976, -0.08053133636713028, 0.026211410760879517, -0.2217470407485962, -0.2340327501296997, -0.07323193550109863, 0.1501336395740509, 0.022417165338993073, 0.09081503003835678, -0.24102886021137238, 0.05702178552746773, 0.13543319702148438, 0.2081659734249115, 0.09964723885059357, -0.19873462617397308, -0.025766825303435326, -0.006253889761865139, -0.1216454729437828, 0.15403549373149872, -0.14207826554775238, -0.14689244329929352, -0.21333052217960358, -0.01621514931321144, 0.15523391962051392, -0.27909570932388306, -0.049782074987888336, -0.14377182722091675, 0.11225810647010803, 0.09681642055511475, 0.021360652521252632, -0.27076131105422974, 0.0952911376953125, 0.0986216813325882, -0.23639574646949768, 0.23198425769805908, -0.23283344507217407, 0.2992529273033142, -0.022266708314418793, -0.1048160269856453, 0.22459381818771362, -0.09756796061992645, 0.1258784383535385, 0.09658490866422653, -0.16542330384254456, -0.1891167163848877, 0.15199895203113556, 0.1384606808423996, -0.085695780813694, -0.2309805005788803, 0.06975889205932617, 0.18757115304470062, -0.04925534874200821, 0.24601584672927856, 0.07980602979660034, 0.3135618567466736, -0.24492888152599335, -0.1380498856306076, -0.16694481670856476, 0.09408900141716003, -0.0750495195388794, -0.03512449935078621, -0.09842602908611298, 0.15891137719154358, 0.13780955970287323, 0.0171199981123209, -0.11729077994823456, 0.00214546755887568, 0.038336727768182755, 0.11467915773391724, 0.058675143867731094, 0.047463785856962204, 0.052723225206136703, -0.016503265127539635, 0.19695927202701569, -0.2552309036254883, -0.07871585339307785, -0.018268775194883347, 0.15445180237293243, 0.19815385341644287, 0.17414164543151855, 0.02358461543917656, -0.1773899346590042, 0.08279825747013092, -0.0825870931148529, 0.02240522764623165, 0.08333564549684525, 0.2082633525133133, -0.12018126249313354, 0.09610918909311295, 0.05638400465250015, 0.12561951577663422, 0.14506396651268005, -0.07029860466718674, 0.03264034911990166, -0.009152346290647984, -0.0861225500702858, -0.1399039924144745, -0.12342484295368195, 0.15517306327819824, 0.029951762408018112, 0.22999900579452515, 0.20710869133472443, 0.041058849543333054, 0.2776814103126526, -0.17809879779815674, -0.11739463359117508, -0.06704544275999069, -0.03446739539504051, -0.09265772253274918, -0.05758080631494522, -0.15182089805603027, 0.09224135428667068, 0.042149804532527924, -0.10501211881637573, -0.041476160287857056, 0.1673131287097931, -0.21285955607891083, 0.26944223046302795, -0.11345839500427246, 0.19154007732868195, 0.1356184333562851, -0.10503678768873215, -0.02201269194483757, -0.025854870676994324, -0.27773818373680115, 0.21972496807575226, 0.0005392897874116898, 0.19040589034557343, -0.2008567601442337, 0.05007993057370186, 0.2017987072467804, 0.15518756210803986, 0.06411469727754593, -0.19673964381217957, 0.05251207947731018, -0.15064381062984467, 0.22304505109786987, -0.12223240733146667, -0.19180023670196533, -0.018530087545514107, -0.18264345824718475, 0.24453327059745789, -0.21849648654460907, 0.17278820276260376, -0.04678991809487343, -0.20606257021427155, 0.0468573272228241, 0.13333137333393097, -0.21839794516563416, 0.13784636557102203, 0.1847258061170578, 0.09155116230249405, -0.18076644837856293, 0.04000889137387276, 0.01850106008350849, 0.20034052431583405, 0.2063910812139511, -0.08460003137588501, -0.14036591351032257, -0.2290327399969101, -0.09388303756713867, 0.07207266241312027, -0.08757922798395157, 0.09161999821662903, 0.2790156304836273, 0.20350807905197144, -0.0994374081492424, 0.050776805728673935, 0.13479535281658173, -0.07044199854135513, 0.10671734064817429, -0.053444355726242065, 0.11029650270938873, 0.12129324674606323, 0.13370321691036224, -0.020140772685408592, -0.21179161965847015, -0.16878128051757812, -0.19340530037879944, -0.17887669801712036, 0.053509462624788284, 0.1422269493341446, -0.07545393705368042, -0.09327230602502823, -0.01806667260825634, 0.08066029846668243, -0.0726914331316948, -0.0953454002737999, -0.17751169204711914, -0.06405895948410034, -0.2232394963502884, 0.1102675348520279, -0.1443958729505539, -0.059464868158102036, 0.04047326743602753, 0.13424696028232574, 0.07887187600135803, -0.14010214805603027, 0.10956694185733795, 0.0357973575592041, -0.1735379695892334, -0.00216631474904716, -0.07951506227254868, -0.22354626655578613, 0.18728190660476685, -0.03926309943199158, -0.25074952840805054, -0.15946561098098755, -0.021269068121910095, 0.08845677226781845, 0.06808418780565262, 0.030070004984736443, -0.16481737792491913, -0.22139650583267212, -0.06429845839738846, -0.13129323720932007, 0.07136806100606918, -0.008972934447228909, -0.025679171085357666, 0.1915644109249115, -0.004414700902998447, -0.2832370400428772, -0.11120893806219101, 0.07006095349788666, -0.2778433859348297, -0.24190278351306915, 0.1199721172451973, 0.22737839818000793, 0.126707062125206, 0.05181441828608513, -0.24580998718738556, 0.0727982446551323, -0.23714950680732727, -0.1503106951713562, -0.14052368700504303, 0.11268032342195511, -0.2610331177711487, 0.08687206357717514, 0.09516426175832748, 0.1648334562778473, 0.017709242179989815, -0.169609934091568, 0.24015399813652039, -0.2672991454601288, 0.028774231672286987, -0.014126162976026535, -0.12228546291589737, 0.2985246181488037, -0.04766221344470978, 0.11327379941940308, -0.07738453149795532, 0.034063078463077545, 0.1107647493481636, -0.21277344226837158, -0.031380828469991684, 0.02903185598552227, -0.01715804450213909, -0.21497556567192078, -0.00974405836313963, 0.067058265209198, 0.12631522119045258, -0.046881381422281265, 0.14834867417812347, 0.029728224501013756, -0.2317589670419693, 0.31591910123825073, -0.2068459540605545, 0.09835299104452133, 0.12555068731307983, 0.13456052541732788, -0.11221133172512054, -0.21254807710647583, 0.1742928922176361, -0.05413703992962837, 0.1973007470369339, -0.2678026556968689, 0.04750572144985199, -0.19312840700149536, -0.14045347273349762, -0.2879611849784851, 0.05488443002104759, 0.04632638022303581, 0.03585570305585861, 0.12002502381801605, 0.05534123629331589, -0.24302873015403748, 0.13615632057189941, 0.11120307445526123, -0.05909690633416176, 0.0313548780977726, 0.08124043047428131, 0.1968533843755722, 0.13163359463214874, 0.07700459659099579, 0.08442188054323196, 0.029531631618738174, 0.0796152651309967, 0.0749058723449707, 0.16753889620304108, 0.17983628809452057, -0.004602497909218073, 0.032425884157419205, -0.22034336626529694, -0.16593484580516815, -0.11499979346990585, -0.13468565046787262, 0.13618603348731995, 0.04741053655743599, 0.20259590446949005, -0.18506266176700592, -0.02100316807627678, -0.07089371979236603, -0.15364566445350647, 0.07177820056676865, -0.023341871798038483, -0.0029079902451485395, 0.07002668082714081, 0.17172862589359283, 0.09768613427877426, 0.11019401252269745, -0.17831434309482574, 0.22206678986549377, -0.015258453786373138, 0.05262409895658493, 0.29111674427986145, 0.02783866971731186, 0.09891197830438614, -0.23094435036182404, -0.11749223619699478, 0.14806674420833588, 0.06435615569353104, 0.0073728966526687145, 0.21357586979866028, -0.08398684114217758, -0.13422495126724243, 0.15719380974769592, 0.015009002760052681, -0.0009169966797344387, 0.07951772212982178, -0.2033648043870926, 0.21593767404556274, 0.05888074263930321, -0.0975060909986496, 0.07047701627016068, -0.15507692098617554, -0.06772730499505997, 0.06587173044681549, 0.09189491719007492, 0.08673892170190811, -0.24611534178256989, 0.062256820499897, 0.19527509808540344, 0.09596765786409378, -0.171172097325325, 0.05345845967531204, -0.16033011674880981, 0.24301348626613617, -0.23013648390769958, 0.026133159175515175, -0.10182526707649231, 0.2198302149772644, -0.07211922854185104, 0.04708673059940338, 0.03139283135533333, 0.10434210300445557, -0.10261464864015579, 0.02023065835237503, 0.2311260849237442, 0.15710821747779846, 0.021144140511751175, -0.13490936160087585, 0.0060135480016469955, -0.16061392426490784, -0.0020036327186971903, 0.03508239611983299, -0.0036096512340009212, 0.12149658054113388, -0.21669133007526398, -0.21940837800502777, -0.048149652779102325, 0.24267399311065674, 0.02059955708682537, 0.05811955779790878, -0.11098939925432205, -0.1645032912492752, 0.028201604261994362, -0.10990528762340546, -0.17522181570529938, 0.06263673305511475, -0.0026539855170994997, 0.2156851887702942, 0.010203284211456776, 0.09428533911705017, 0.1067470833659172, 0.11423822492361069, 0.2851513922214508, -0.20103849470615387, 0.06847657263278961, 0.20442818105220795, 0.10199256241321564, 0.15316301584243774, 0.06392673403024673, -0.10205858945846558, -0.1973244845867157, 0.06972454488277435, -0.12365975230932236, 0.1615734100341797, 0.1676720231771469, -0.2245636135339737, 0.263722687959671, -0.05537261813879013, 0.08285417407751083, -0.25576573610305786, 0.16852755844593048, 0.2969246804714203, -0.013801954686641693, 0.10510139912366867, -0.2033986896276474, 0.0014088127063587308, 0.004989468492567539, -0.12266673892736435, -0.0825015977025032, -0.04696330055594444, -0.002668890170753002, 0.06901141256093979, 0.24461717903614044, 0.01787591725587845, 0.12943974137306213, -0.07564982026815414, -0.15993574261665344, 0.1380121111869812, -0.04932965710759163, 0.024901630356907845, -0.0164229366928339, -0.2117486447095871, -0.1940014660358429, -0.14398322999477386, -0.19612513482570648, 0.24968181550502777, -0.04036809131503105, -0.18467238545417786, 0.21354128420352936, -0.034960027784109116, -0.09975076466798782, -0.15150566399097443, -0.1249525174498558, 0.1810813546180725, 0.02871660515666008, -0.09008315950632095, -0.18103620409965515, -0.2069578766822815, 0.08800988644361496, -0.19247089326381683, 0.1372411549091339, -0.037713970988988876, 0.12661412358283997, -0.08482930064201355, 0.1808614283800125, -0.1948784440755844, -0.2616646885871887, 0.22229236364364624, 0.04183490201830864, -0.2673472762107849, -0.14665961265563965, -0.10246814787387848, -0.19542549550533295, -0.12986984848976135, -0.15293551981449127, -0.1566043198108673, -0.14134018123149872, -0.033405572175979614, -0.2004767656326294, 0.09262534976005554, 0.03126849979162216, -0.02682311087846756, 0.12893252074718475, -0.030767973512411118, -0.09634657204151154, 0.038370873779058456, 0.18567346036434174, -0.07385540753602982, -0.0430535227060318, -0.1214786022901535, 0.1977844387292862, -0.07232628017663956, 0.22068192064762115, -0.22351253032684326, 0.1497686356306076, -0.06690000742673874, 0.010605321265757084, 0.11758571118116379, 0.14197778701782227, -0.06781961768865585, -0.20228327810764313, -0.13345082104206085, -0.22836758196353912, -0.006160203367471695, -0.16438286006450653, -0.09077785164117813, 0.12281221151351929, 0.06538816541433334, -0.16001421213150024, -0.03302103653550148, 0.23389774560928345, -0.10084773600101471, 0.0966421514749527, -0.23679251968860626, -0.15600603818893433, -0.19055800139904022, 0.25549808144569397, -0.2311764806509018, -0.1264747977256775, 0.11438650637865067, -0.1400526911020279, 0.17369969189167023, -0.027268651872873306, 0.22505107522010803, 0.317781925201416, -0.09568709880113602, -0.15352074801921844, -0.10504569113254547, 0.253519743680954, 0.12325789034366608, -0.2538386285305023, 0.0866878405213356, 0.20522865653038025, 0.15486739575862885, -0.09050691872835159, 0.07822757959365845, 0.22141782939434052, -0.050175152719020844, 0.011833212338387966, -0.15518806874752045, 0.0738699659705162, -0.018299587070941925, -0.19270963966846466, 0.13375189900398254, 0.08134961128234863, -0.07433877140283585, -0.21626244485378265, -0.07656348496675491, -0.18382327258586884, 0.05157911032438278, 0.1693045049905777, 0.10587017238140106, -0.18932393193244934, -0.12456493079662323, -0.11084895581007004, 0.08316531032323837, 0.12366945296525955, -0.13528579473495483, 0.040679655969142914, 0.08372154831886292, 0.3284340798854828, 0.08674463629722595, 0.21796250343322754, -0.2010042369365692, -0.20674510300159454, 0.17476719617843628, 0.14640672504901886, 0.036410607397556305, 0.12975940108299255, 0.002516380278393626, -0.06590264290571213, -0.08062941581010818, -0.08400827646255493, -0.19454924762248993, 0.017603091895580292, 0.014080404303967953, 0.35275644063949585, -0.07357003539800644, 0.09788429737091064, 0.16010892391204834, 0.23732925951480865, 0.035953644663095474, 0.05944553390145302, -0.14342103898525238, 0.15212196111679077, -0.05555390566587448, -0.14042502641677856, 0.10346333682537079, 0.11468739062547684, -0.03754846006631851, 0.22871637344360352, 0.23262076079845428, -0.030576974153518677, -0.24479494988918304, 0.16063186526298523, 0.1186525747179985, -0.10181161016225815, 0.06919193267822266, 0.07113680988550186, 0.20607008039951324, -0.1352616250514984, 0.15132950246334076, 0.14559976756572723, 0.1889159232378006, 0.21345791220664978, 0.03140626102685928, -0.09918177872896194, -0.015694208443164825, 0.31530240178108215, -0.02827376127243042, 0.08358105272054672, 0.07577924430370331, -0.13381905853748322, 0.2937915325164795, 0.27298152446746826, -0.05369121953845024, -0.11769384145736694, -0.20951534807682037, -0.12206956744194031, -0.10746952146291733, -0.21420972049236298, 0.1511896252632141, -0.053312040865421295, 0.0059599136002361774, 0.15925368666648865, 0.24259376525878906, 0.10706933587789536, 0.12295040488243103, -0.1406594216823578, 0.06203331798315048, 0.14869725704193115, 0.08513204008340836, 0.2516515552997589, -0.022328369319438934, 0.08873715996742249, 0.04972238838672638, -0.15778596699237823, 0.2038579285144806, -0.043977830559015274, -0.1952674686908722, -0.07594794034957886, -0.10297496616840363, -0.028125828132033348, 0.13081760704517365, -0.1466629058122635, 0.28067219257354736, 0.031466882675886154, 0.08654389530420303, 0.2025010883808136, -0.11084091663360596, 0.07070145756006241, 0.0492522194981575, 0.0886562317609787, 0.09192316234111786, -0.1572161763906479, -0.25611749291419983, -0.11901966482400894, 0.01289782952517271, 0.05520220473408699, -0.20207540690898895, -0.2075452208518982, -0.15030255913734436, -0.1474650502204895, -0.13008932769298553, -0.08978702872991562, -0.11672328412532806, -0.081344373524189, -0.09953275322914124, -0.16837695240974426, 0.13835306465625763, -0.1615382432937622, 0.012959597632288933, -0.26553967595100403, 0.2260880172252655, -0.1580440104007721, -0.26184290647506714, 0.2198982983827591, -0.10394158214330673, 