#include <math.h>
#include "hls_stream.h"
#include "ap_int.h"
#include "ap_fixed.h"
using namespace std;

#define INPUT_NODES 45
//layers
#define INPUT_LAYER_NODES 45
#define HIDDEN_LAYER_1_NODES 64
#define HIDDEN_LAYER_2_NODES 48
#define HIDDEN_LAYER_3_NODES 32
#define HIDDEN_LAYER_4_NODES 16
#define OUTPUT_LAYER_NODES 5

typedef ap_fixed<15, 4> float15;

float15 input_layer_weight[INPUT_NODES * INPUT_LAYER_NODES] = {
-0.24980764091014862, -0.0910211056470871, 0.24066489934921265, 0.10257413238286972, 0.11084508895874023, -0.08767172694206238, 0.12761200964450836, -0.1854807436466217, 0.0433887355029583, 0.2222277969121933, 0.2405860424041748, 0.23885567486286163, 0.051533784717321396, -0.11465922743082047, -0.03941654786467552, -0.07524911314249039, -0.0762297585606575, -0.29868215322494507, -0.23115375638008118, 0.008641444146633148, -0.2667579650878906, 0.15909084677696228, -0.043876368552446365, -0.01888885349035263, -0.0023286323994398117, -0.19871899485588074, -0.2390313297510147, -0.09705569595098495, 0.21047499775886536, -0.19116507470607758, -0.20761588215827942, -0.3294592499732971, -0.02305985800921917, -0.18935532867908478, 0.22973749041557312, 0.08058658242225647, -0.33556562662124634, 0.244210883975029, 0.07387006282806396, 0.03272702544927597, 0.24547962844371796, 0.13210879266262054, -0.18380407989025116, 0.16671131551265717, 0.2801317274570465, -0.18209896981716156, 0.19425176084041595, -0.13314560055732727, 0.20265787839889526, -0.18421664834022522, 0.15497085452079773, 0.2601735591888428, -0.05245543643832207, -0.2503357529640198, -0.13095082342624664, -0.17800657451152802, 0.31813496351242065, 0.21536989510059357, -0.20607776939868927, -0.15907695889472961, 0.05117074027657509, -0.3298659324645996, 0.1360866278409958, 0.2299787849187851, -0.05168163776397705, 0.2330286055803299, -0.32054248452186584, -0.14416205883026123, -0.23763060569763184, -0.15710940957069397, -0.11514677852392197, 0.06600399315357208, 0.04796575754880905, -0.3327663838863373, -0.048579804599285126, 0.056390296667814255, 0.12593494355678558, 0.164043128490448, 0.05026528239250183, -0.043927889317274094, -0.1760282814502716, -0.2989951968193054, -0.2273162454366684, 0.027497608214616776, 0.2246108204126358, -0.16741834580898285, -0.08696956187486649, -0.04092347249388695, 0.20324841141700745, 0.08879175782203674, -0.19349750876426697, -0.07858090847730637, 0.19114574790000916, 0.1327991783618927, -0.3630390763282776, -0.14324015378952026, -0.06230061128735542, -0.1273798793554306, 0.10652071237564087, 0.31223252415657043, -0.02871551178395748, 0.06679439544677734, 0.06739524751901627, -0.2591755986213684, -0.22701586782932281, -0.1296299397945404, 0.2990035116672516, 0.13464944064617157, -0.11300890147686005, 0.08313482999801636, 0.0569339357316494, -0.045503124594688416, -0.18651250004768372, -0.23277081549167633, -0.2267528474330902, 0.1331198662519455, 0.13253431022167206, 0.03294837474822998, 0.1404017210006714, -0.0726519376039505, -0.3209792673587799, -0.18067903816699982, -0.009202147834002972, 0.08276522904634476, -0.17230059206485748, -0.006741014309227467, 0.2266683429479599, -0.09626086056232452, -0.28112658858299255, 0.15423808991909027, -0.17323359847068787, 0.08281064033508301, 0.1389637440443039, 0.013119220733642578, 0.047083910554647446, 0.12098378688097, 0.1694386750459671, -0.09570587426424026, -0.20830292999744415, 0.14073875546455383, -0.06635453552007675, 0.20372773706912994, -0.13283097743988037, -0.05986170098185539, 0.1361890733242035, 0.17151819169521332, -0.10053849220275879, 0.2789968252182007, -0.10588755458593369, -0.2776757478713989, -0.13692395389080048, -0.022587712854146957, -0.15633006393909454, -0.11531703919172287, 0.2636563181877136, 0.015022162348031998, 0.18311165273189545, -0.03340578079223633, 0.014601708389818668, -0.13398237526416779, 0.21010202169418335, -0.17745275795459747, 0.1109711304306984, -0.022368257865309715, 0.1405586302280426, -0.007079079281538725, 0.10310959070920944, -0.29005420207977295, -0.03260624408721924, -0.2812001407146454, -0.014379812404513359, 0.024779045954346657, -0.2093145102262497, 0.3388555645942688, -0.23562462627887726, -0.0342426560819149, -0.1335197389125824, -0.19685028493404388, -0.025434985756874084, 0.17883414030075073, -0.0015143390046432614, 0.005611206870526075, -0.13856349885463715, 0.1153232604265213, 0.24796180427074432, 0.19771669805049896, 0.09247159957885742, 0.21760746836662292, 0.22968117892742157, 0.10732540488243103, 0.10146775096654892, -0.26537227630615234, -0.17057976126670837, -0.0660228431224823, -0.2116621881723404, -0.2513956129550934, 0.07787730544805527, 0.040320560336112976, -0.26745593547821045, 0.08207365870475769, 0.04843282327055931, 0.037826355546712875, -0.2401133030653, 0.06091757118701935, -0.09902367740869522, 0.13587650656700134, -0.39583566784858704, 0.19418653845787048, -0.20571283996105194, -0.024184707552194595, 0.22262953221797943, -0.1566556990146637, -0.17462311685085297, 0.12165053188800812, 0.11765516549348831, -0.16225244104862213, 0.055486809462308884, -0.04000694304704666, 0.13744688034057617, -0.2217528074979782, -0.2965279221534729, -0.2910695970058441, -0.18316614627838135, 0.09017088264226913, 0.11628242582082748, -0.0759955570101738, -0.16020293533802032, -0.17020997405052185, -0.09285586327314377, -0.0909174457192421, 0.131020188331604, -0.09283479303121567, 0.17254747450351715, -0.24715666472911835, 0.17862558364868164, 0.2510906159877777, -0.012541113421320915, 0.33874088525772095, 0.030252963304519653, -0.05708181858062744, -0.1281103640794754, 0.003842994337901473, 0.13916464149951935, -0.10989350080490112, 0.17221404612064362, 0.1263033002614975, -0.15234175324440002, -0.030408205464482307, 0.2585175931453705, -0.044983137398958206, -0.060135141015052795, -0.16085058450698853, -0.038184717297554016, 0.1352253258228302, -0.1924193799495697, -0.18913674354553223, 0.02054467424750328, -0.12079279869794846, -0.03825177997350693, 0.001933154184371233, 0.2815381586551666, -0.030202193185687065, -0.149229034781456, 0.030145538970828056, 0.04911177232861519, 0.14880144596099854, -0.02635393850505352, 0.07674885541200638, 0.1484876275062561, 0.12474305927753448, 0.21962016820907593, -0.10527283698320389, -0.12647263705730438, 0.11983288079500198, -0.11574386805295944, -0.217352494597435, -0.21153376996517181, -0.07212045043706894, 0.11975455284118652, 0.044993046671152115, -0.02456551603972912, 0.21372446417808533, 0.07524135708808899, -0.21674886345863342, -0.05731266364455223, 0.36453261971473694, 0.28722870349884033, -0.08611344546079636, -0.2990686297416687, -0.04894547536969185, 0.16787272691726685, -0.003283725818619132, -0.11887693405151367, -0.041307657957077026, 0.139115571975708, -0.06561774760484695, 0.3943069875240326, -0.39022764563560486, -0.0072188531048595905, -0.1992528885602951, -0.20488518476486206, 0.18659786880016327, -0.301700621843338, 0.14213861525058746, -0.18586808443069458, 0.13418133556842804, -0.07257958501577377, 0.1495320051908493, 0.22151224315166473, -0.14668597280979156, 0.023755066096782684, 0.0042437235824763775, -0.2503320276737213, -0.22623707354068756, 0.10601416975259781, 0.048307061195373535, 0.10482007265090942, 0.11084640026092529, 0.2271290123462677, -0.20616096258163452, -0.3168303370475769, -0.023059358820319176, 0.14352579414844513, -0.14499635994434357, -0.3057224154472351, 0.006300705950707197, 0.12977708876132965, -0.27805256843566895, -0.21659283339977264, -0.031839512288570404, 0.2742609977722168, -0.08695466816425323, -0.25025466084480286, -0.16677935421466827, -0.04616208374500275, 0.046014610677957535, 0.14216183125972748, -0.032861966639757156, 0.2506137192249298, 0.3564470112323761, 0.09308190643787384, 0.18950532376766205, -0.2938136160373688, 0.2689152956008911, 0.08019780367612839, 0.10290373861789703, 0.18496766686439514, 0.11997666954994202, 0.2372555285692215, -0.0017247513169422746, 0.10517948865890503, 0.16495391726493835, 0.14743083715438843, -0.15345826745033264, -0.19157777726650238, -0.24322645366191864, 0.27874189615249634, -0.16838297247886658, 0.22198347747325897, -0.11936411261558533, 0.05951724573969841, -0.16250009834766388, 0.20430313050746918, -0.25842761993408203, -0.25681108236312866, 0.11473028361797333, -0.12964275479316711, 0.07412455976009369, 0.0951806828379631, -0.09165255725383759, 0.1811371147632599, -0.13238079845905304, -0.14769740402698517, -0.07070385664701462, 0.1440323293209076, 0.14627885818481445, 0.20444044470787048, 0.21413390338420868, -0.16047045588493347, -0.18922469019889832, 0.05211268737912178, 0.11972174793481827, -0.21388842165470123, -0.2266082465648651, -0.2722879946231842, 0.12204194813966751, 0.20034027099609375, 0.13123677670955658, 0.10160090774297714, -0.20282289385795593, -0.4670826196670532, 0.13696232438087463, -0.031232664361596107, -0.2290858030319214, -0.10142442584037781, -0.10001154989004135, 0.10036110132932663, -0.10022486746311188, 0.03321879357099533, 0.04957595467567444, 0.08989310264587402, -0.08854063600301743, -0.0682252049446106, -0.2572343051433563, 0.06430313736200333, 0.19473889470100403, 0.2836759686470032, 0.07681337743997574, -0.06525109708309174, 0.08895853906869888, 0.21685343980789185, -0.02785675600171089, 0.1684790998697281, 0.28549137711524963, -0.11560500413179398, -0.008711613714694977, 0.1876736730337143, -0.12920910120010376, -0.08292339742183685, 0.034856636077165604, -0.11394057422876358, 0.3122515380382538, 0.034441497176885605, 0.23652935028076172, 0.22618712484836578, 0.3385249972343445, 0.143809974193573, 0.07808707654476166, 0.054260414093732834, -0.036026254296302795, 0.05356312170624733, -0.16459934413433075, -0.0024080248549580574, 0.009578067809343338, -0.13951854407787323, 0.11145801842212677, -0.10928349941968918, 0.24000109732151031, -0.023858005180954933, 0.09785871207714081, 0.10398126393556595, 0.0588831827044487, 0.021949075162410736, -0.05430834740400314, 0.2770964503288269, -0.32398363947868347, -0.017617272213101387, -0.06680253148078918, -0.11187002062797546, 0.21880215406417847, 0.20873339474201202, 0.2203225940465927, -0.10350675880908966, -0.1376989781856537, 0.21232493221759796, -0.31789395213127136, -0.013628426007926464, 0.22787269949913025, -0.145657017827034, -0.347436785697937, 0.12086718529462814, -0.2837974429130554, -0.08772420138120651, 0.15935464203357697, 0.01738891191780567, 0.1583206206560135, 0.27029770612716675, -0.02279856614768505, -0.2543003559112549, -0.07092634588479996, -0.04719589278101921, -0.20153027772903442, 0.014255288988351822, -0.048743266612291336, 0.03651776537299156, 0.07782340049743652, -0.061910878866910934, -0.07698126137256622, 0.1438620537519455, 0.19122520089149475, 0.256572961807251, -0.15393736958503723, -0.2201916128396988, -0.16384531557559967, -0.2083415538072586, -0.16315817832946777, -0.017056742683053017, -0.12764890491962433, -0.08152220398187637, 0.1942019760608673, 0.10417760908603668, 0.2505944073200226, -0.15495382249355316, 0.21865902841091156, -0.14356964826583862, -0.2573547959327698, 0.1428542137145996, -0.21458332240581512, 0.20653896033763885, -0.13112902641296387, 0.11498929560184479, -0.21309100091457367, 0.1356135606765747, -0.20170526206493378, 0.15631206333637238, -0.13519711792469025, 0.2405737340450287, 0.24318955838680267, 0.00589055847376585, 0.08053167909383774, -0.3879026770591736, -0.17959654331207275, -0.07417406141757965, 0.18149152398109436, 0.008994934149086475, -0.300294429063797, 0.1473194807767868, 0.11242899298667908, -0.0013939017662778497, -0.15353089570999146, 0.004831444006413221, -0.4721218943595886, 0.07613879442214966, -0.18392331898212433, -0.20626799762248993, 0.24345847964286804, -0.14726722240447998, -0.014836657792329788, 0.019435029476881027, -0.1759880781173706, -0.07237178087234497, -0.02601459063589573, 0.12882600724697113, -0.00034789828350767493, -0.29029932618141174, 0.15607181191444397, 0.053403835743665695, -0.024517731741070747, -0.02358955144882202, 0.15771976113319397, -0.09416547417640686, -0.028512397781014442, -0.05595848336815834, -0.21852010488510132, 0.19611966609954834, 0.13827000558376312, 0.14274173974990845, -0.10126791894435883, -0.17612294852733612, 0.15762192010879517, -0.14565686881542206, 0.2600075304508209, -0.20689904689788818, 0.10364579409360886, 0.06354150176048279, 0.07285316288471222, -0.17338214814662933, 0.0995059534907341, 0.1813371479511261, 0.11960819363594055, -0.0961451455950737, -0.12745840847492218, -0.14215721189975739, 0.0200741458684206, -0.05486685410141945, 0.1359524428844452, -0.022892359644174576, -0.18982312083244324, -0.053686127066612244, 0.1824256032705307, -0.11284816265106201, 0.07657273858785629, 0.1985667645931244, -0.17547523975372314, -0.15692730247974396, -0.028904998674988747, -0.38416555523872375, -0.17856045067310333, -0.25847190618515015, -0.15737266838550568, -0.03195016831159592, -0.2869367301464081, 0.24322672188282013, -0.27294084429740906, -0.16660524904727936, -0.18029819428920746, 0.0909622386097908, -0.01736392453312874, -0.2096308171749115, -0.10856117308139801, 0.020990412682294846, 0.13804347813129425, -0.05810057744383812, 0.13357681035995483, -0.34391647577285767, -0.12203080207109451, -0.360606849193573, -0.15647710859775543, 0.06073760986328125, 0.2655954658985138, 0.18614068627357483, 0.19470049440860748, 0.005077543668448925, -0.017031196504831314, -0.28736019134521484, -0.152911975979805, -0.1251007616519928, -0.28233516216278076, -0.1873611956834793, 0.01322479173541069, -0.0054542869329452515, 0.5009397268295288, -0.29980146884918213, 0.05077504739165306, 0.006125106010586023, 0.22492879629135132, 0.10187876969575882, -0.1310136318206787, -0.19057337939739227, -0.09749600291252136, -0.038363534957170486, -0.19626039266586304, 0.18774886429309845, 0.29591503739356995, 0.11826860159635544, 0.014290095306932926, -0.023181239143013954, 0.023052360862493515, 0.028040265664458275, -0.1861863136291504, -0.14450068771839142, -0.132472425699234, 0.1335061937570572, 0.08702171593904495, -0.23561888933181763, -0.2131221890449524, 0.050089433789253235, 0.15976586937904358, -0.2553825080394745, 0.3601548969745636, 0.10749637335538864, 0.20912732183933258, 0.31640511751174927, -0.13857030868530273, 0.008856335654854774, 0.09736968576908112, 0.2822779417037964, 0.26975706219673157, -0.07735329121351242, 0.13867896795272827, 0.04008105397224426, 0.042320504784584045, 0.07672125846147537, -0.08938075602054596, -0.00011784978414652869, 0.087203748524189, -0.04301481321454048, 0.03199757635593414, 0.24000053107738495, 0.14812566339969635, -0.04992760345339775, 0.10040287673473358, -0.2806647717952728, -0.07504575699567795, -0.2416294664144516, 0.11633092910051346, -0.025578424334526062, -0.2473965287208557, 0.10560345649719238, 0.010009301826357841, 0.08568952232599258, -0.09442953020334244, -0.10217563807964325, -0.08425737917423248, 0.14452648162841797, -0.08542822301387787, -0.04225200042128563, 0.16589094698429108, 0.2229100912809372, -0.27747249603271484, -0.17789067327976227, -0.07701624184846878, -0.15289756655693054, -0.06314108520746231, 0.2640504539012909, -0.15856122970581055, 0.31031250953674316, -0.11124886572360992, 0.2308034747838974, -0.1788327991962433, -0.1763266623020172, -0.1547505110502243, -0.20986150205135345, 0.18761827051639557, 0.08946587890386581, -0.055954575538635254, -0.13903062045574188, 0.09422393143177032, 0.03353122994303703, 0.191913902759552, -0.1421697437763214, 0.07007671892642975, 0.10630513727664948, -0.1515769362449646, -0.08149169385433197, 0.11930824816226959, 0.09528955072164536, -0.05621190741658211, -0.06160274147987366, 0.1956087201833725, -0.2052309364080429, -0.19257618486881256, 0.08622600883245468, -0.19209639728069305, -0.13801433145999908, -0.07423055917024612, -0.23626446723937988, -0.08015812933444977, -0.2331494688987732, 0.2178562879562378, 0.07814139127731323, 0.23621611297130585, -0.03478710353374481, 0.10225845873355865, 0.09711170941591263, 0.062347833067178726, -0.07682482153177261, 0.23252014815807343, 0.18069767951965332, -0.15826073288917542, -0.20752650499343872, -0.17956781387329102, -0.21492339670658112, -0.1974191665649414, 0.01872778870165348, -0.19557476043701172, -0.1233682632446289, -0.011175659485161304, 0.18652521073818207, 0.25376173853874207, -0.1210138276219368, -0.23984403908252716, -0.0811062827706337, -0.05347273498773575, -0.003879192052409053, 0.2177422046661377, -0.313255250453949, -0.1540914922952652, 0.1599426120519638, 0.02203592285513878, 0.03317331522703171, -0.2870936393737793, -0.08548874408006668, 0.2549394369125366, -0.24118147790431976, -0.09786978363990784, 0.01097998395562172, -0.13975773751735687, 0.24865023791790009, -0.20613083243370056, 0.17458105087280273, -0.04012608900666237, 0.20607919991016388, 0.23173217475414276, -0.09890008717775345, 0.14203618466854095, -0.01901559717953205, -0.11495936661958694, -0.04256819188594818, -0.17378029227256775, -0.05456599220633507, 0.09085020422935486, -0.2013753354549408, -0.17579448223114014, 0.0726858377456665, 0.2225940078496933, 0.3424546718597412, 0.10547974705696106, -0.1775156557559967, -0.04237721115350723, -0.11788475513458252, -0.15383672714233398, -0.09700954705476761, -0.20710839331150055, 0.10135099291801453, -0.2004171907901764, 0.013628736138343811, -0.11599308997392654, -0.18420231342315674, 0.12466498464345932, 0.04613593593239784, -0.1674601286649704, -0.20525549352169037, 0.22656646370887756, 0.22111013531684875, 0.2119242548942566, 0.4044092893600464, -0.0934717059135437, -0.22417543828487396, -0.13588306307792664, 0.08792688697576523, 0.22809210419654846, -0.16815641522407532, 0.2817002832889557, -0.08393778651952744, 0.22633416950702667, 0.02663250081241131, -0.16673967242240906, 0.022153500467538834, 0.1769997924566269, -0.16651079058647156, -0.03917406126856804, -0.2156117707490921, -0.2955857217311859, -0.10825637727975845, 0.09799045324325562, 0.15595772862434387, -0.02215728536248207, 0.22622352838516235, -0.34841465950012207, 0.136182501912117, -0.23643992841243744, 0.03876256197690964, 0.023163393139839172, -0.0007276128744706511, 0.1414743959903717, 0.35791924595832825, -0.08630400896072388, 0.07632230967283249, -0.14918752014636993, -0.05389866605401039, -0.17440682649612427, 0.27064573764801025, 0.09296418726444244, 0.26950716972351074, -0.16313882172107697, 0.2654587924480438, -0.04113220423460007, 0.21405522525310516, 0.14026083052158356, -0.0008225587662309408, -0.0600094348192215, 0.22475269436836243, -0.16117697954177856, -0.02874278463423252, 0.3111286759376526, -0.12424321472644806, -0.06718239188194275, -0.19320756196975708, -0.14981378614902496, 0.02111123315989971, -0.024504823610186577, 0.09360343962907791, -0.2051241248846054, -0.060193147510290146, -0.048727165907621384, -0.1958010196685791, 0.08548468351364136, -0.24317269027233124, -0.1218249648809433, -0.00465744873508811, -0.0857188031077385, 0.0014861656818538904, 0.0384456142783165, -0.19860351085662842, 0.13018682599067688, -0.05219189450144768, -0.19530034065246582, 0.07838442921638489, -0.2293369024991989, 0.3361920714378357, 0.10561977326869965, -0.11008094996213913, -0.09911473095417023, -0.2923707067966461, -0.027470868080854416, 0.07977133244276047, 0.02847086265683174, -0.1593327522277832, -0.02157466486096382, 0.20902001857757568, 0.023210028186440468, 0.14180925488471985, -0.29788291454315186, -0.04219361022114754, -0.1872820258140564, 0.1512281894683838, 0.3017120659351349, 0.22128358483314514, 0.09968318045139313, 0.24118630588054657, 0.1718248873949051, 0.24957440793514252, 0.10671970248222351, 0.04314412921667099, -0.11991331726312637, -0.25044113397598267, -0.2984980046749115, -0.207888662815094, -0.23043975234031677, 0.013011718168854713, 0.014408578164875507, -0.13956275582313538, 0.1611996442079544, -0.017567504197359085, -0.06852157413959503, 0.32592982053756714, 0.11698948591947556, 0.0440308153629303, 0.10550667345523834, 0.10007476061582565, 0.2669471502304077, 0.20943716168403625, 0.03359125927090645, 0.02576385997235775, -0.08349697291851044, 0.10677579790353775, -0.024241309612989426, 0.20784342288970947, -0.046252988278865814, -0.07758019864559174, -0.2857934236526489, -0.11814979463815689, -0.30902600288391113, -0.19729317724704742, -0.2519664764404297, 0.07148846238851547, -0.200515478849411, -0.051436129957437515, -0.040170375257730484, -0.14581862092018127, -0.11252409964799881, -0.036855243146419525, 0.22210858762264252, 0.02929738722741604, -0.058534808456897736, -0.14379189908504486, -0.29787808656692505, 0.1451721340417862, -0.007010968402028084, -0.17514768242835999, 0.2369142770767212, -0.22650693356990814, -0.11369007080793381, -0.2573627829551697, 0.0525539256632328, 0.0475776232779026, -0.04639878123998642, -0.06999466568231583, -0.3178304135799408, 0.0142672099173069, 0.02649069018661976, -0.2826504409313202, -0.22292110323905945, 0.026013854891061783, 0.09378009289503098, -0.259059876203537, 0.22005151212215424, -0.10996392369270325, 0.11395824700593948, 0.2500235438346863, -0.16180215775966644, 0.020693819969892502, -0.2498818039894104, -0.15657854080200195, 0.0006956115830689669, -0.18421012163162231, 0.1276218444108963, -0.0664452463388443, 0.3283631205558777, -0.03162812441587448, 0.3036833107471466, -0.40655139088630676, 0.2661949694156647, 0.055837176740169525, -0.18346060812473297, 0.28415581583976746, -0.1795225739479065, -0.22997798025608063, -0.03324536979198456, -0.17145739495754242, 0.07420998811721802, -0.09928477555513382, 0.2553335726261139, 0.12293116003274918, -0.22011907398700714, -0.25914299488067627, -0.2058318555355072, -0.1926489919424057, 0.02237560600042343, -0.009034931659698486, 0.26057928800582886, 0.23177488148212433, -0.15833815932273865, -0.261800616979599, 0.09020843356847763, -0.034432101994752884, 0.08301809430122375, 0.046253517270088196, -0.4236482083797455, 0.0008727479143999517, -0.1965760439634323, -0.1789923906326294, 0.23855508863925934, -0.06471504271030426, -0.18569406867027283, 0.14061430096626282, -0.16881543397903442, 0.2553943991661072, 0.20645703375339508, 0.13150624930858612, 0.20968426764011383, -0.22009778022766113, 0.1969851702451706, -0.048922374844551086, -0.19874167442321777, -0.3179302215576172, 0.046508707106113434, 0.11145278066396713, -0.18608827888965607, 0.14406102895736694, 0.25280511379241943, 0.14890846610069275, 0.09723705053329468, 0.09485739469528198, -0.21162386238574982, 0.1631757915019989, 0.033468957990407944, -0.0677637979388237, -0.017178921028971672, -0.21776987612247467, 0.07246452569961548, 0.2786685824394226, 0.17383599281311035, -0.18858829140663147, 0.05024443566799164, -0.17651967704296112, 0.029343368485569954, -0.20832793414592743, 0.19006681442260742, 0.012560853734612465, -0.19479796290397644, 0.07631893455982208, 0.05907250940799713, 0.08653512597084045, -0.16642817854881287, 0.24596397578716278, -0.15433301031589508, 0.15036796033382416, -0.1488925814628601, -0.251893550157547, -0.21733152866363525, 0.06848021596670151, 0.1689000427722931, 0.05366402119398117, -0.08571035414934158, 0.120209239423275, 0.10366704314947128, 0.14338530600070953, 0.1680009961128235, 0.17075827717781067, 0.27581071853637695, 0.2161499708890915, -0.028684724122285843, 0.3468879163265228, -0.09183019399642944, 0.24663273990154266, 0.18942579627037048, 0.11558812856674194, -0.010115142911672592, 0.15171341598033905, 0.11181751638650894, 0.23034684360027313, 0.30038440227508545, -0.31781935691833496, 0.10884662717580795, -0.2547629773616791, 0.1524338573217392, -0.10961320251226425, -0.23702774941921234, 0.09098919481039047, -0.234682098031044, 0.21116533875465393, 0.005494150798767805, -0.2273092269897461, 0.2683868408203125, -0.04771615192294121, -0.1478203982114792, -0.1330067217350006, -0.46856582164764404, -0.23437531292438507, 0.0380367785692215, -0.27007177472114563, -0.08624335378408432, -0.1006937325000763, 0.004140391480177641, 0.06951218843460083, -0.16418732702732086, 0.07386086881160736, -0.25842803716659546, -0.2034582942724228, -0.21094460785388947, -0.015841159969568253, -0.12948866188526154, 0.02972082979977131, 0.10474682599306107, -0.30141493678092957, -0.04257217422127724, -0.1520412564277649, 0.06221649423241615, 0.285102903842926, -0.06730639189481735, 0.16140463948249817, 0.2368336170911789, 0.2468075305223465, 0.15852592885494232, 0.3150593042373657, 0.002120369579643011, 0.1546541452407837, -0.17565733194351196, -0.33497923612594604, 0.06897562742233276, -0.16906119883060455, -0.2644497752189636, -0.20420588552951813, -0.2557353079319, -0.2348782867193222, 0.16243775188922882, -0.05497928708791733, -0.012381463311612606, 0.10913440585136414, -0.1131637692451477, -0.11486095190048218, 0.16280651092529297, -0.04573332518339157, 0.2584640681743622, -0.11165706068277359, -0.19969134032726288, 0.08863893151283264, 0.04702390730381012, 0.45052212476730347, -0.028778942301869392, -0.02740718051791191, 0.17586898803710938, -0.04132017120718956, -0.10160823911428452, 0.13405725359916687, -0.0944671705365181, 0.05190083384513855, 0.20376837253570557, 0.10535751283168793, -0.18124133348464966, 0.25228479504585266, 0.12312003970146179, 0.07820914685726166, 0.053473301231861115, 0.013742247596383095, 0.2746366262435913, 0.11299455165863037, 0.15771262347698212, -0.18076984584331512, 0.14202392101287842, -0.07167979329824448, -0.27466437220573425, 0.1804596334695816, -0.08764968067407608, -0.17192257940769196, -0.2478584200143814, 0.12544041872024536, -0.37829363346099854, 0.25695812702178955, 0.292641282081604, 0.016524890437722206, -0.07149440795183182, 0.07570212334394455, -0.021296504884958267, 0.1861930787563324, 0.23170888423919678, 0.11583801358938217, -0.1616775095462799, 0.07574636489152908, 0.08383262157440186, -0.11473686993122101, -0.1671713888645172, 0.057913728058338165, 0.005184962414205074, -0.027740685269236565, -0.32932335138320923, -0.2523377537727356, 0.21448403596878052, 0.27401843667030334, -0.0880364254117012, -0.06352110207080841, 0.1952870488166809, 0.16321833431720734, -0.25192970037460327, -0.1889321655035019, -0.24292300641536713, -0.3068172335624695, -0.31043562293052673, 0.13606519997119904, -0.15017856657505035, -0.21723628044128418, 0.046685975044965744, -0.09979832917451859, 0.10724903643131256, -0.24551723897457123, 0.10601233690977097, 0.13055001199245453, 0.07504428178071976, 0.025078125298023224, 0.05634112283587456, -0.04018739238381386, -0.05448447912931442, 0.315834105014801, -0.23310963809490204, -0.18885667622089386, 0.23264607787132263, 0.013454556465148926, 0.09376439452171326, 0.25478020310401917, -0.005009277258068323, 0.11871945112943649, 0.20797090232372284, 0.329765647649765, 0.007933687418699265, 0.2338745892047882, -0.17792248725891113, 0.11607029289007187, 0.1403360664844513, 0.27849113941192627, 0.37283632159233093, -0.0006979042082093656, 0.13179069757461548, -0.2558944821357727, -0.05626984313130379, -0.24881571531295776, 0.30319488048553467, 0.11422603577375412, 0.0812702476978302, 0.04847506806254387, -0.26585492491722107, 0.08048289269208908, -0.12330242991447449, -0.16236841678619385, -0.126597061753273, -0.1791383922100067, 0.1878751665353775, -0.12036118656396866, 0.052917081862688065, -0.2919710874557495, -0.42137253284454346, -3.429578646318987e-05, -0.2698255479335785, -0.27628564834594727, -0.12282080203294754, 0.14343218505382538, 0.08702240139245987, -0.026951920241117477, -0.006501485127955675, -0.005651325453072786, 0.11014457792043686, -0.14693404734134674, 0.1177133321762085, 0.16523578763008118, -0.059743743389844894, 0.1926768720149994, 0.0740630179643631, 0.17440100014209747, -0.13263224065303802, -0.06451701372861862, 0.06322237849235535, -0.022628553211688995, -0.14925861358642578, -0.19202709197998047, -0.4206576645374298, -0.3836863040924072, 0.03560378775000572, 0.053852543234825134, -0.10463860630989075, 0.11754913628101349, -0.10307272523641586, 0.18986640870571136, -0.009499846026301384, -0.011255999095737934, -0.12788930535316467, -0.2199345976114273, 0.17171847820281982, -0.15664905309677124, -0.47332003712654114, 0.18686960637569427, -0.004694682080298662, 0.04041513428092003, 0.2282288372516632, 0.05493150278925896, -0.14322501420974731, -0.17413130402565002, 0.02481876313686371, 0.2754618525505066, -0.015235933475196362, -0.0926881730556488, -0.003647529287263751, -0.0721796378493309, -0.08007464557886124, 0.18106257915496826, -0.13863696157932281, 0.037476107478141785, 0.26495322585105896, -0.14189979434013367, 0.2785913348197937, 0.0769633874297142, -0.21232980489730835, 0.11045508831739426, 0.06502178311347961, 0.048237502574920654, 0.21859689056873322, 0.26866525411605835, 0.05129814147949219, -0.040597788989543915, -0.0674438551068306, -0.16800326108932495, -0.03649577498435974, -0.06467069685459137, -0.22068844735622406, 0.1433846354484558, -0.24147215485572815, -0.1470947116613388, -0.08852534741163254, 0.10954302549362183, 0.14077068865299225, 0.21118959784507751, -0.2854475677013397, 0.04080091789364815, 0.08054777979850769, -0.20613840222358704, 0.06926383823156357, -0.07334690541028976, -0.0024548140354454517, 0.11135229468345642, -0.22951601445674896, 0.06858251243829727, 0.1426720917224884, 0.07904808968305588, 0.045922573655843735, -0.2184227854013443, -0.18411320447921753, 0.0047310832887887955, 0.1272749900817871, 0.17395184934139252, -0.209670290350914, 0.07852517068386078, 0.21014612913131714, 0.14160814881324768, -0.14471076428890228, 0.3146904408931732, -0.17998459935188293, 0.29208725690841675, -0.14929276704788208, -0.05385182052850723, 0.053084149956703186, 0.14503437280654907, -0.12830980122089386, -0.11240623146295547, -0.0636085718870163, 0.03210083767771721, 0.03350355103611946, 0.3237157464027405, 0.2367810755968094, 0.12507818639278412, -0.13318170607089996, -0.10685177147388458, 0.1878497302532196, -0.014600057154893875, -0.17587639391422272, 0.058985717594623566, -0.035105813294649124, -0.08974025398492813, 0.06625001132488251, -0.07513673603534698, 0.1262224167585373, -0.05765262991189957, -0.11978185176849365, 0.06708715856075287, 0.1476707011461258, 0.1929142326116562, -0.004277222789824009, 0.1789523810148239, -0.010912303812801838, 0.10649655014276505, 0.24778665602207184, -0.03053274378180504, -0.02813546173274517, -0.10541407763957977, 0.18148860335350037, 0.02474077418446541, 0.13069021701812744, -0.22413837909698486, 0.37601062655448914, -0.1496778279542923, 0.3094693720340729, 0.10999170690774918, 0.27165988087654114, -0.021456973627209663, 0.2097514271736145, 0.10437670350074768, 0.23062638938426971, 0.30212172865867615, 0.16778241097927094, -0.20290952920913696, -0.1329154223203659, -0.31989729404449463, -0.1458720564842224, -0.26272493600845337, -0.23057003319263458, 0.03506604582071304, 0.14881308376789093, 0.15724895894527435, -0.1385882943868637, 0.13705596327781677, 0.0026027660351246595, -0.10057557374238968, 0.1356685757637024, -0.3000776767730713, -0.19935503602027893, 0.13258065283298492, -0.09364230930805206, 0.06113547831773758, 0.023406077176332474, -0.11225574463605881, -0.16390661895275116, 0.07854460924863815, -0.03675730898976326, -0.17302855849266052, -0.13544273376464844, 0.07187396287918091, 0.1391669511795044, -0.061770208179950714, -0.25878092646598816, -0.0712113156914711, 0.10302416235208511, 0.20403431355953217, 0.13327309489250183, -0.02858198992908001, -0.022952301427721977, -0.13665087521076202, 0.19244183599948883, 0.088271863758564, -0.23174336552619934, 0.25001978874206543, -0.2682619094848633, -0.14355739951133728, -0.129738450050354, 0.2099459320306778, -0.0894431546330452, -0.09574386477470398, -0.09550891071557999, 0.010527770966291428, -0.20624130964279175, 0.13175331056118011, 0.16039462387561798, 0.05721324682235718, 0.07614856958389282, -0.08849221467971802, 0.017690274864435196, 0.2193540632724762, 0.04838664084672928, 0.047679413110017776, 0.22241070866584778, 0.15571627020835876, 0.12915298342704773, -0.10745954513549805, -0.22028376162052155, 0.19430436193943024, 0.060193002223968506, -0.14735674858093262, 0.24880088865756989, -0.24732132256031036, -0.04499514028429985, -0.16142800450325012, 0.10688793659210205, -0.14966566860675812, 0.11271682381629944, 0.04587375372648239, 0.1870306134223938, 0.14210005104541779, 0.10385358333587646, 0.18675392866134644, 0.14103947579860687, -0.2885565459728241, -0.03839171677827835, 0.12483687698841095, 0.36654162406921387, 0.08180306106805801, 0.1719791144132614, 0.02834397554397583, 0.16980545222759247, -0.025509772822260857, 0.17293640971183777, 0.01923765242099762, -0.14691142737865448, 0.09166048467159271, 0.08029002696275711, -0.1455620974302292, 0.07991396635770798, 0.21394667029380798, -0.03388923779129982, -0.0947890654206276, -0.002352742711082101, -0.07240743190050125, 0.2095971256494522, 0.07380422204732895, -0.15719948709011078, -0.2002420276403427, 0.07017740607261658, 0.05080103129148483, -0.15534545481204987, 0.08233122527599335, -0.03131759539246559, -0.25794675946235657, 0.10201006382703781, 0.15789587795734406, 0.19724613428115845, -0.2479143738746643, -0.10048191249370575, 0.04441377893090248, 0.0024508736096322536, -0.19409146904945374, -0.24974970519542694, 0.1408836394548416, 0.03833945095539093, 0.10473770648241043, 0.13932134211063385, -0.14981356263160706, 0.2197333127260208, -0.0018464658642187715, 0.23504173755645752, -0.20807866752147675, -0.10089723020792007, -0.027616750448942184, 0.07748496532440186, 0.14793433248996735, 0.2955619692802429, 0.12475094944238663, -0.19873423874378204, 0.13399526476860046, -0.23096609115600586, -0.29566526412963867, 0.11435090750455856, 0.19381502270698547, -0.07894080877304077, -0.2374788224697113, 0.16155661642551422, 0.09474383294582367, 0.19262303411960602, 0.028119228780269623, 0.30797332525253296, 0.06493454426527023, 0.17869137227535248, -0.26649996638298035, -0.045091819018125534, 0.11874637007713318, 0.10371285676956177, -0.16196957230567932, 0.16862468421459198, -0.1175704076886177, 0.1889840066432953, -0.286272257566452, 0.175925150513649, -0.14615869522094727, -0.2725215256214142, -0.00367428339086473, -0.04871575906872749, -0.12768183648586273, -0.05455454811453819, 0.3493988513946533, -0.08430516719818115, -0.05656128376722336, 0.25462642312049866, -0.061513304710388184, -0.1616755872964859, -0.06374669075012207, 0.24022874236106873, -0.01908625289797783, -0.23885734379291534, 0.019032683223485947, 0.1728142499923706, -0.0071558342315256596, -0.2089008390903473, 0.1449902504682541, 0.2263443022966385, 0.000400880235247314, -0.14100778102874756, 0.2166990488767624, 0.18839971721172333, 0.07181892544031143, 0.16070139408111572, 0.1163993701338768, -0.1620074361562729, 0.15840522944927216, 0.1308351457118988, -0.20020142197608948, -0.0655374675989151, 0.10885784029960632, -0.12682032585144043, 0.09621437638998032, -0.08092551678419113, -0.052498430013656616, 0.0681038349866867, 0.01703702099621296, 0.25349944829940796, 0.29287612438201904, -0.021667541936039925, -0.2495928406715393, 0.16635268926620483, 0.0544588677585125, -0.2113991677761078, -0.10570718348026276, 0.21048195660114288, 0.012185475789010525, 0.21816901862621307, -0.0855315774679184, -0.10651248693466187, 0.16921602189540863, -0.23656480014324188, 0.2950460612773895, -0.19147633016109467, -0.028466690331697464, 0.1225368082523346, 0.09359735995531082, -0.20997975766658783, 0.10819800943136215, 0.11295567452907562, -0.24074497818946838, -0.16886553168296814, 0.1652849167585373, 0.18681128323078156, 0.06026209145784378, 0.06457649916410446, -0.23550018668174744, -0.12186204642057419, -0.23908530175685883, -0.09888985753059387, 0.1005648821592331, -0.052310459315776825, -0.0869341790676117, 0.012454438023269176, 0.0026995406951755285, -0.1010456457734108, -0.11454970389604568, 0.022865144535899162, -0.053225912153720856, 0.11078959703445435, 0.17705410718917847, 0.047274477779865265, -0.20113258063793182, 0.3235333561897278, -0.31168341636657715, -0.12100040912628174, 0.17951813340187073, -0.1979893147945404, -0.20098525285720825, 0.17737533152103424, -0.005525927059352398, 0.08261560648679733, -0.2815542221069336, -0.03547396510839462, -0.035959046334028244, 0.3115886151790619, 0.21807508170604706, 0.17075179517269135, 0.22475223243236542, 0.16120661795139313, -0.10922829061746597, 0.06994260102510452, 0.2600957155227661, -0.01783631555736065, 0.006763101555407047, 0.1588703691959381, 0.15233901143074036, -0.017250167205929756, -0.3809995651245117, -0.20616717636585236, -0.1530333012342453, -0.06617748737335205, -0.20732474327087402, -0.26598265767097473, 0.3021337389945984, 0.023641634732484818, -0.06553681939840317, -0.17444457113742828, -0.17015376687049866, -0.02467907778918743, -0.2522808611392975, -0.26133304834365845, -0.27285435795783997, 0.07404544949531555, 0.10368393361568451, -0.17130184173583984, 0.06327065825462341, -0.24080920219421387, 0.05654648691415787, -0.08994079381227493, 0.08009404689073563, -0.12677395343780518, 0.2062145322561264, -0.014766678214073181, -0.12167520076036453, -0.21178995072841644, -0.14962619543075562, 0.031079601496458054, -0.11502251029014587, -0.14671340584754944, 0.14004622399806976, -0.19756238162517548, 0.255771279335022, -0.07604117691516876, -0.20654641091823578, -0.09114719927310944, 0.013018133118748665, 0.039049092680215836, 0.09423838555812836, 0.27113035321235657, -0.2056010663509369, 0.1513073891401291, -0.05223837122321129, -0.1947948932647705, -0.19990381598472595, 0.20003826916217804, 0.00017563821165822446, 0.1485653668642044, -0.22860528528690338, 0.13183298707008362, 0.06010086461901665, 0.15196089446544647, -0.15351079404354095, -0.0881560668349266, -0.41102930903434753, 0.08917061984539032, -0.01980309560894966, 0.01102864183485508, -0.19456462562084198, -0.23697149753570557, 0.14499518275260925, 0.13984622061252594, -0.007353663444519043, -0.04044308513402939, 0.12091274559497833, 0.2150961458683014, -0.23375318944454193, -0.12675635516643524, -0.2623134255409241, -0.015054570510983467, -0.12280073016881943, -0.2111261785030365, -0.22212207317352295, -0.05362773686647415, -0.02557680383324623, -0.058113474398851395, -0.11165592819452286, 0.24323102831840515, -0.1322970688343048, 0.2657758593559265, -0.18582363426685333, 0.19206850230693817, 0.35208263993263245, -0.08047442883253098, -0.26505908370018005, -0.011442952789366245, -0.06613089144229889, -0.3075128197669983, -0.03451566398143768, 0.27956774830818176, 0.22400809824466705, -0.24108578264713287, 0.14336587488651276, 0.041693031787872314, -0.18024185299873352, 0.1549074947834015, -0.1270926296710968, 0.11470472812652588, -0.22833818197250366, 0.10133754462003708, -0.3865639865398407, -0.12239088863134384, -0.12439640611410141, 0.06731237471103668, 0.3857444226741791, -0.28689879179000854, 0.0656997337937355, 0.05180492624640465, 0.19707660377025604, -0.0175972618162632, -0.20344962179660797, 0.1108391210436821, -0.02093527838587761, -0.0019464291399344802, -0.13068924844264984, 0.05593569204211235, -0.249569833278656, 0.25104764103889465, 0.2467927783727646, -0.020122818648815155, 0.17768675088882446, 0.19777297973632812, 0.20642080903053284, -0.14404675364494324, 0.1323871612548828, -0.29422226548194885, -0.01307214330881834, -0.20316082239151, 0.04539712890982628, 0.061137855052948, 0.07817807793617249, 0.13124895095825195, 0.03131244704127312, -0.1055109053850174, 0.3980438709259033, 0.08987616747617722, 0.14105325937271118, 0.18481789529323578, -0.11069899052381516, -0.3334624469280243, -0.07393057644367218, -0.23304103314876556, -0.20671916007995605, 0.11232185363769531, 0.01668943651020527, 0.0512295737862587, 0.050970446318387985, -0.11448446661233902, -0.2987327575683594, -0.19904913008213043, -0.016525615006685257, -0.1718118041753769, 0.19621188938617706, 0.13054844737052917, 0.19297318160533905, -0.02801690436899662, -0.007030217908322811, 0.07137677818536758, -0.29488134384155273, 0.35531947016716003, -0.08885929733514786, -0.1187194287776947, 0.18547338247299194, 0.16143648326396942, 0.15567193925380707, -0.066127248108387, -0.055105313658714294, 0.028487255796790123, -0.2271876186132431, 0.21233156323432922, 0.13201689720153809, 0.2611178159713745, -0.053263165056705475, 0.06590072065591812, -0.22935758531093597, 0.1298816055059433, 0.15441960096359253, -0.030545873567461967, 0.5016170740127563, 0.11946047842502594, -0.22171981632709503, -0.1915011703968048, 0.09900515526533127, 0.08984187990427017, 0.22108225524425507, -0.34132683277130127, 0.18397372961044312, 0.14529450237751007, -0.058598071336746216, 0.473625123500824, 0.10223374515771866, -0.12415638566017151, 0.051802292466163635, -0.04537726193666458, 0.14595219492912292, 0.006728413514792919, -0.2769412100315094, -0.0644792914390564, 0.2596442699432373, -0.12841391563415527, 0.17963016033172607, -0.2604596018791199, -0.2197798490524292, -0.09271275997161865, 0.18868443369865417, -0.026298068463802338, 0.04263992980122566, 0.09902351349592209, -0.27320432662963867, -0.206029012799263, -0.06315881013870239, -0.06378310173749924, 0.2102680653333664, -0.14609050750732422, 0.24026517570018768, -0.12627586722373962, -0.08345513790845871, -0.2635982036590576, -0.5474741458892822, 0.0008102718275040388, -0.1006476953625679, -0.2084941565990448, 0.016728099435567856, -0.3124556839466095, -0.2527720332145691, 0.017182493582367897, -0.04800185561180115, 0.034577470272779465, -0.10322490334510803, 1.4811157598160207e-06, -0.21487906575202942, 0.13321931660175323, -0.15594854950904846, 0.17620347440242767, 0.1785350739955902, -0.1163456067442894, -0.1442774385213852, 0.2993308901786804, -0.06771799176931381, -0.02607707679271698, 0.1414102017879486, -0.005704817827790976, 0.1015581265091896, 0.04617594927549362, -0.010585261508822441, -0.06176736578345299, 0.335136741399765, -0.18598683178424835, 0.05199486389756203, 0.02884221449494362, 0.23636652529239655, 0.24054373800754547, 0.0904063954949379, 0.1559215933084488, -0.11610613018274307, 0.04554108530282974, 0.15640197694301605, -0.041569724678993225, 0.007378887850791216, 0.08061589300632477, -0.1689281016588211, -0.10260751098394394, -0.22766530513763428, 0.300984263420105, -0.2930758595466614, 0.16921080648899078, 0.06224013492465019, 0.1496049016714096, 0.13043031096458435, -0.13578301668167114, -0.12565447390079498, 0.26291030645370483, -0.19917286932468414, 0.001476953853853047, 0.037524737417697906, 0.276183545589447, 0.10166122764348984, -0.022652851417660713, -0.1858653426170349, -0.18744002282619476, 0.04425032436847687, -0.3401455879211426, 0.033846065402030945, -0.0030130220111459494, 0.01992551051080227, -0.20106223225593567, 0.04817274957895279, 0.024952378123998642, -0.19539904594421387, 0.3203412592411041, 0.11713112145662308, -0.16844645142555237, 0.10718618333339691, -0.2807024419307709, -0.04984720051288605, -0.24649053812026978, -0.07124513387680054, 0.05729607120156288, -0.19142699241638184, -0.16763001680374146, 0.18215152621269226, -0.20001502335071564, -0.11993158608675003, 0.15148717164993286, 0.15152877569198608, -0.02687094360589981, -0.2495339959859848, 0.0601128414273262, 0.25955453515052795, -0.18702132999897003, 0.1096942275762558, 0.20684276521205902, -0.09301187843084335, 0.06978245824575424, 0.05021629109978676, -0.19882313907146454, -0.024156875908374786, -0.15014736354351044, 0.23885834217071533, -0.2645542323589325, 0.17865747213363647, 0.09297792613506317, -0.09818670153617859, 0.009016040712594986, -0.3021323084831238, 0.2882826626300812, -0.2264305204153061, -0.07152990996837616, -0.07777191698551178, -0.09673146903514862, 0.20690526068210602, 0.0545336976647377, 0.034953709691762924, 0.17371556162834167, 0.308109313249588, 0.08481555432081223, 0.07449176907539368, 0.048942096531391144, 0.0918106809258461, -0.3685155510902405, -0.12182052433490753, -0.25157856941223145, -0.31830328702926636, 
};

float15 h1_weight[INPUT_LAYER_NODES * HIDDEN_LAYER_1_NODES] = {
0.19299514591693878, -0.17427632212638855, 0.18671099841594696, -0.09974372386932373, 0.24372221529483795, 0.00022195618657860905, 0.09672688692808151, 0.0058789183385670185, -0.06687655299901962, 0.1192752793431282, 0.18447600305080414, 0.11179604381322861, 0.2880147397518158, -0.1123279556632042, 0.000682097626850009, 0.015356666408479214, 0.10308870673179626, 0.12688323855400085, 0.09597603231668472, -0.2054315209388733, -0.07807903736829758, 0.06944660097360611, 0.0021569165401160717, 0.040587615221738815, -0.027862053364515305, -0.20359914004802704, 0.1862959861755371, -0.0051828231662511826, 0.11676162481307983, 0.11763929575681686, 0.21980829536914825, -0.06606471538543701, -0.17181578278541565, -0.052758559584617615, -0.26269543170928955, 0.13700129091739655, 0.00946405902504921, -0.12080803513526917, -0.19492769241333008, -0.12121352553367615, 0.2070719599723816, -0.2361515462398529, 0.16506575047969818, -0.25656095147132874, -0.052092891186475754, 0.18002042174339294, 0.08810587227344513, 0.3159453272819519, -0.0973358228802681, -0.28440624475479126, -0.18520450592041016, 0.09524969756603241, -0.09985599666833878, 0.22217188775539398, -0.07656068354845047, 0.2912166118621826, -0.28142285346984863, -0.09722714126110077, -0.17603038251399994, 0.14154821634292603, -0.1300918459892273, -0.041371870785951614, 0.07836002856492996, 0.12549299001693726, -0.041801292449235916, -0.19690512120723724, -0.15245449542999268, -0.34257772564888, 0.17094121873378754, -0.2852652966976166, 0.032949887216091156, 0.1234862208366394, -0.16630801558494568, -0.01977865770459175, -0.07097222656011581, -0.10923807322978973, 0.16671767830848694, -0.03935689479112625, -0.020831195637583733, 0.02435850352048874, 0.0020961270201951265, -0.10696489363908768, -9.36246506171301e-05, 0.20105338096618652, 0.12240472435951233, 0.10986562073230743, 0.34538397192955017, 0.058024048805236816, -0.08329438418149948, 0.05811291188001633, 0.15100659430027008, -0.11560817807912827, -0.07747059315443039, -0.037488553673028946, 0.0418526716530323, 0.006059904582798481, -0.1259119212627411, 0.08808697015047073, 0.007675227243453264, -0.11364723742008209, -0.13399305939674377, 0.1886831521987915, 0.1658831238746643, -0.16492925584316254, -0.11277066916227341, 0.1035551205277443, 0.29784542322158813, -0.025591012090444565, -0.1392637938261032, -0.13628718256950378, 0.10821431130170822, 0.15450341999530792, -0.14189808070659637, 0.04137734696269035, 0.08668650686740875, -0.22814278304576874, -0.18872402608394623, 0.07360655814409256, 0.2227151244878769, 0.057392820715904236, -0.05801184102892876, 0.11825450509786606, 0.0950542613863945, -0.21420761942863464, -0.013537310063838959, 0.208754301071167, -0.06816332787275314, 0.20241230726242065, 0.01853601075708866, -0.029278071597218513, 0.0599934384226799, 0.05101027339696884, 0.358155757188797, 0.15486378967761993, -0.09028761088848114, 0.4223543107509613, 0.14670975506305695, -0.3280535936355591, 0.2256069928407669, 0.14215987920761108, -0.08736368268728256, -0.06297663599252701, -0.22387492656707764, -0.21122603118419647, 0.26188305020332336, -0.03432653471827507, -0.13145005702972412, -0.04951566457748413, 0.022631151601672173, -0.047340359538793564, -0.00592042924836278, -0.28549763560295105, -0.10588620603084564, -0.12842942774295807, 0.10836783051490784, -0.12324942648410797, -0.08535019308328629, -0.17688292264938354, -0.023616284132003784, -0.008503756485879421, -0.040616586804389954, 0.026855552569031715, 0.3144543468952179, 0.01761641725897789, -0.03690715506672859, 0.25341087579727173, 0.0024193162098526955, -0.12527666985988617, -0.2005997598171234, -0.12000720202922821, 0.097403883934021, 0.317617267370224, 0.211410254240036, 0.22231711447238922, -0.10721487551927567, 0.07412970811128616, -0.16130366921424866, -0.3019523620605469, 0.10442420095205307, -0.001056452514603734, 0.1921764314174652, -0.10135217756032944, 0.18100938200950623, -0.10507391393184662, -0.008242054842412472, -0.14168891310691833, -0.03539687767624855, -0.04342960566282272, -0.0384957455098629, 0.01657641865313053, 0.1145881861448288, 0.052575211971998215, 0.21599677205085754, -0.18672846257686615, 0.07546919584274292, 0.2218792736530304, 0.0026641099248081446, 0.000169069244293496, 0.001285442733205855, -0.011038409546017647, -0.23414181172847748, 0.013212633319199085, 0.03626320883631706, 0.05363621935248375, -0.1605084240436554, 0.06431195139884949, 0.12710070610046387, 0.06447982788085938, -0.09990638494491577, -0.03040532022714615, -0.06674368679523468, 0.08530208468437195, 0.061133239418268204, 0.012120135128498077, 0.2572791576385498, 0.18556778132915497, -0.14857397973537445, 0.2572382688522339, 0.17861692607402802, 0.24762482941150665, -0.19611921906471252, 0.12258302420377731, -0.16687440872192383, 0.11638405919075012, -0.22414612770080566, -0.09136221557855606, -0.06742310523986816, -0.18277956545352936, -0.12472923845052719, 0.06971416622400284, -0.1698833554983139, 0.2530965507030487, 0.04833965003490448, 0.0854867473244667, 0.08415880054235458, -0.02220999263226986, -0.32345834374427795, -0.1442703902721405, 0.174857035279274, -0.3886074423789978, 0.06224770471453667, -0.024157602339982986, -0.12604470551013947, 0.1010032519698143, -0.027362294495105743, 0.14443768560886383, 0.12074689567089081, -0.1508471965789795, 0.1289788782596588, 0.0012433755910024047, -0.08570846915245056, 0.04486970230937004, -0.20532281696796417, -0.1767570823431015, -0.22064243257045746, -0.03009839355945587, 0.0865718200802803, 0.15718580782413483, -0.08538860827684402, 0.14426332712173462, -0.11045847833156586, -0.01628277264535427, 0.06338854879140854, -0.13341349363327026, 0.1887158453464508, 0.13699978590011597, 0.21361304819583893, -0.13616837561130524, 0.18691928684711456, -0.100896455347538, -0.30149269104003906, 0.20020389556884766, 0.2437698096036911, -0.28584349155426025, -0.009412359446287155, -0.12970340251922607, 0.11278340220451355, -0.055657681077718735, 0.07787023484706879, 0.17077121138572693, 0.3349035978317261, -0.2890634834766388, 0.05544691160321236, 0.2560572028160095, -0.32285192608833313, -0.01179150678217411, 0.0730215460062027, 0.25850656628608704, -0.15935596823692322, 0.12071053683757782, 0.13559845089912415, 0.2716505527496338, -0.13088883459568024, -0.01249512005597353, 0.21548393368721008, -0.19911253452301025, -0.17911352217197418, -0.03953523188829422, 0.19911818206310272, -0.16156139969825745, -0.2694508731365204, 0.10008227080106735, 0.1008882150053978, -0.11058440804481506, -0.28767818212509155, -0.17043089866638184, 0.00593202980235219, 0.13883259892463684, -0.15711675584316254, -0.07447156310081482, 0.09001132100820541, 0.12349619716405869, 0.0794907882809639, 0.02936297468841076, -0.10449300706386566, -0.19183050096035004, -0.13088786602020264, -0.023200830444693565, -0.15605764091014862, -0.19984185695648193, 0.028029868379235268, -0.05031627044081688, -0.06837540864944458, 0.13701686263084412, -0.05516877770423889, 0.07592838257551193, -0.10947472602128983, -0.012218698859214783, -0.07020512968301773, -0.018551083281636238, -0.14658327400684357, -0.09607216715812683, 0.15133675932884216, 0.14428971707820892, 0.1190263032913208, 0.20370988547801971, 0.08277357369661331, 0.20348291099071503, -0.19692519307136536, -0.13469885289669037, 0.0788983404636383, -0.13567312061786652, 0.09430872648954391, 0.12512856721878052, -0.18326729536056519, -0.03536754846572876, 0.025389112532138824, -0.1939118653535843, 0.14819443225860596, -0.008936123922467232, -0.17095094919204712, 0.11388367414474487, 0.07564424723386765, 0.19727405905723572, -0.18045943975448608, 0.12425172328948975, -0.004408452194184065, 0.11280924081802368, -0.15489858388900757, 0.12382235378026962, -0.20364677906036377, -0.12090843915939331, -0.060346513986587524, -0.2889675199985504, -0.09664157032966614, 0.2004171907901764, 0.15715156495571136, 0.015611324459314346, -0.18488894402980804, -0.06401464343070984, 0.00034835340920835733, 0.04757380485534668, -0.13407966494560242, 0.1627386063337326, -0.1810598224401474, 0.16491425037384033, -0.21532052755355835, 0.03992924466729164, 0.11127574741840363, 0.1284690499305725, -0.23160099983215332, -0.04882693663239479, -0.08171935379505157, -0.09408202022314072, 0.15372151136398315, -0.15870711207389832, -0.028986068442463875, -0.2374432533979416, 0.2374720275402069, -0.1639481484889984, 0.08033231645822525, -0.13665014505386353, -0.12310808151960373, -0.09621624648571014, -0.07145541906356812, -0.21560579538345337, 0.03716735169291496, -0.05609608069062233, 0.1762014776468277, 0.09802684187889099, -0.24415439367294312, 0.20578855276107788, -0.2234332114458084, 0.08491373062133789, -0.2425462007522583, -0.20838694274425507, -0.2407483160495758, -0.27021393179893494, 0.12164798378944397, 0.34168991446495056, 0.017411166802048683, -0.20287999510765076, -0.04201002046465874, -0.29490768909454346, 0.22526559233665466, 0.07246863842010498, 0.14855611324310303, 0.01376502588391304, 0.20080211758613586, -0.08816789835691452, 0.2509218454360962, -0.05839970335364342, 0.039032209664583206, -0.19455291330814362, -0.2666511833667755, -0.18067020177841187, -0.09909537434577942, 0.10815243422985077, 0.00788885448127985, 0.12534639239311218, -0.3145579695701599, 0.1555384248495102, 0.2318008691072464, 0.11851371079683304, -0.037828344851732254, 0.022443072870373726, 0.16315440833568573, -0.21631315350532532, 0.16013772785663605, -0.23455879092216492, 0.23437727987766266, 0.23355121910572052, 0.18888120353221893, -0.18309222161769867, 0.2824254333972931, -0.3110252022743225, 0.17080067098140717, 0.02703632041811943, 0.020479027181863785, 0.11706258356571198, 0.15219981968402863, 0.10063203424215317, -0.04917636886239052, -0.18019737303256989, -0.043111223727464676, -0.25630804896354675, 0.037825848907232285, 0.10024885833263397, 0.25112318992614746, 0.1514279544353485, -0.029521729797124863, -0.16086611151695251, -0.038132861256599426, -0.044465478509664536, -0.14110198616981506, 0.25252780318260193, 0.12620653212070465, 0.0780830904841423, -0.12098266184329987, -0.14794228971004486, -0.26534807682037354, -0.002546233357861638, 0.1797131597995758, -0.12354981154203415, -0.23770175874233246, -0.22449401021003723, -0.23927149176597595, 0.11881557106971741, -0.12325296550989151, -0.27438855171203613, -0.05410199239850044, -0.027093758806586266, -0.08807341009378433, -0.07402988523244858, 0.13387157022953033, 0.22880297899246216, -0.2049933820962906, -0.09339800477027893, -0.261099636554718, -0.11428562551736832, -0.19532400369644165, -0.22500471770763397, -0.21521717309951782, -0.2401873767375946, 0.026786286383867264, -0.06493475288152695, -0.04214811325073242, -0.2976638972759247, -0.015807129442691803, 0.028381163254380226, 0.015590744093060493, -0.2395220845937729, 0.11155297607183456, -0.2689914405345917, -0.187775120139122, 0.17959950864315033, 0.0653892457485199, 0.16012738645076752, -0.18499158322811127, 0.050229307264089584, 0.054320354014635086, 0.06899448484182358, -0.1617971658706665, -0.20468701422214508, 0.02743305079638958, -0.07495082914829254, -0.21081404387950897, 0.06673169136047363, 0.04240621626377106, 0.014453097246587276, 0.0964997410774231, 0.21217121183872223, -0.1016484797000885, -0.25267118215560913, -0.020826226100325584, 0.13109885156154633, -0.05075293034315109, -0.1824452131986618, 0.022663719952106476, 0.19926799833774567, -0.10695195943117142, -0.0837123766541481, 0.11669088900089264, 0.27674782276153564, -0.06629079580307007, -0.14531180262565613, -0.25990572571754456, -0.10530607402324677, 0.25888791680336, 0.2623167634010315, 0.12334047257900238, 0.17454524338245392, -0.09535127133131027, -0.25203683972358704, -0.09214169532060623, 0.2595488727092743, 0.16568641364574432, 0.15347374975681305, -0.09869950264692307, -0.22967924177646637, -0.20246806740760803, -0.20912867784500122, 0.07516642659902573, 0.24543055891990662, 0.13564740121364594, 0.16317375004291534, -0.13690201938152313, -0.035074349492788315, -0.039473626762628555, -0.01663707196712494, 0.09730633348226547, 0.33483320474624634, -0.07031015306711197, 0.12731100618839264, -0.005237039178609848, -0.3164023160934448, 0.09931401163339615, -0.19872939586639404, -0.025210555642843246, -0.0927962064743042, 0.3025627136230469, -0.029382815584540367, -0.1172441691160202, -0.1400953084230423, -0.09387194365262985, 0.039531316608190536, 0.3017479181289673, 0.26982900500297546, 0.018667224794626236, 0.3057692050933838, -0.10817625373601913, 0.1817215234041214, -0.04274296388030052, -0.18484735488891602, -0.13204026222229004, 0.10499587655067444, -0.021595019847154617, -0.06930948793888092, 0.2015434354543686, 0.22519129514694214, -0.10147041082382202, 0.13074912130832672, -0.1136888861656189, 0.11791330575942993, 0.21141457557678223, -0.2696796953678131, 0.2394779920578003, 0.13872838020324707, 0.1363082081079483, 0.29222992062568665, 0.10887182503938675, -0.11226708441972733, 0.30985280871391296, -0.2475612312555313, -0.04153525084257126, -0.21745087206363678, 0.06995854526758194, 0.016417041420936584, 0.17119401693344116, -0.02153971418738365, -0.3816535174846649, 0.18832901120185852, 0.24036072194576263, 0.13699595630168915, -0.18092207610607147, 0.01472452562302351, -0.10319709777832031, -0.0037330423947423697, -0.07464101910591125, 0.08255340903997421, -0.002687778789550066, -0.1161782443523407, 0.2554422914981842, -0.2289743721485138, -0.04604967311024666, -0.10747077316045761, -0.25913873314857483, 0.2349845916032791, 0.06941179931163788, 0.12757551670074463, -0.13873779773712158, -0.2147461324930191, -0.1948082000017166, 0.21032920479774475, 0.008840917609632015, 0.16012662649154663, -0.2512202262878418, -0.2248930037021637, -0.08821912854909897, -0.14012618362903595, 0.29934024810791016, -0.06339478492736816, 0.2107134908437729, -0.1456468552350998, -0.16347429156303406, -0.21825802326202393, 0.17053081095218658, -0.13367657363414764, 0.1758243888616562, -0.1449805200099945, 0.12018045783042908, -0.21777111291885376, 0.12748771905899048, 0.20558451116085052, 0.08815834671258926, 0.3780306875705719, -0.1910763680934906, 0.18306414783000946, 0.06732243299484253, 0.025056716054677963, 0.09076690673828125, -0.17568236589431763, 0.16369250416755676, -0.17758454382419586, 0.2205027937889099, 0.019563887268304825, 0.2024088203907013, -0.007812222465872765, 0.13915757834911346, -0.0468902513384819, -0.07563227415084839, 0.2110142707824707, -0.102689728140831, 0.17694689333438873, 0.2684282958507538, 0.08487148582935333, -0.15335328876972198, -0.03109486773610115, 0.020863041281700134, 0.1711428463459015, 0.2564504146575928, -0.053362321108579636, -0.1419159471988678, 0.05993553251028061, -0.0707092359662056, 0.19307084381580353, 0.1244845911860466, -0.09022262692451477, -0.1782996654510498, 0.21859104931354523, 0.14629700779914856, -0.14809395372867584, 0.3209695518016815, -0.16945302486419678, -0.013176348060369492, -0.10025044530630112, -0.05986310914158821, 0.01756446249783039, 0.0805187076330185, -0.04208013787865639, -0.1528259962797165, -0.11613448709249496, -0.14123563468456268, 0.2717909812927246, -0.2201307713985443, -0.07914694398641586, 0.11129065603017807, -0.12612098455429077, 0.011692659929394722, -0.036906566470861435, -0.031873371452093124, -0.010762948542833328, 0.2919292151927948, 0.08454350382089615, -0.12184423953294754, 0.011280186474323273, -0.032356128096580505, -0.22255288064479828, 0.11738701909780502, -0.09431413561105728, 0.18126000463962555, 0.035361163318157196, 0.10862058401107788, -0.03525429219007492, 0.07124709337949753, -0.03895813226699829, 0.21118594706058502, 0.13797926902770996, 0.31772488355636597, -0.25760072469711304, 0.10215943306684494, -0.1693030148744583, 0.14014717936515808, 0.1305522471666336, 0.17592668533325195, -0.2438744604587555, -0.0483054555952549, -0.2501899302005768, -0.12228547036647797, 0.1623893529176712, 0.18096987903118134, -0.14314021170139313, -0.13138392567634583, -0.027093449607491493, 0.05280430242419243, 0.24670624732971191, -0.05619387701153755, 0.024218948557972908, -0.13380911946296692, 0.11695176362991333, -0.10466349869966507, 0.07097040116786957, -0.16056673228740692, -0.1732199341058731, 0.08206350356340408, -0.1830274909734726, 0.07927324622869492, -0.019152401015162468, -0.0969107523560524, -0.19967634975910187, 0.12094440311193466, 0.16809794306755066, -0.1399010419845581, -0.16215404868125916, 0.1377609670162201, -0.0774235650897026, 0.10300704091787338, -0.028920898213982582, -0.17129257321357727, -0.023530172184109688, 0.12343571335077286, -0.021704358980059624, 0.19331128895282745, 0.18733441829681396, -0.16939415037631989, 0.348979115486145, 0.1912693977355957, 0.09575902670621872, -0.07829326391220093, 0.09555447846651077, -0.06603475660085678, -0.24290557205677032, -0.1724427491426468, 0.2518116533756256, 0.0794086828827858, 0.17634421586990356, 0.25154003500938416, 0.14988315105438232, 0.0516766756772995, 0.05129149183630943, 0.030251355841755867, -0.12550944089889526, 0.011253785341978073, 0.10498698800802231, 0.06664862483739853, 0.07190727442502975, 0.06994887441396713, 0.15914301574230194, -0.15272855758666992, 0.07785706222057343, 0.14561563730239868, -0.07799969613552094, -0.06909775733947754, -0.2246595323085785, -0.08216539770364761, 0.1840241402387619, 0.03310991823673248, -0.27441835403442383, 0.14933234453201294, -0.01057455688714981, 0.3089493215084076, -0.31642961502075195, -0.19818022847175598, 0.07082194089889526, -0.03838334232568741, -0.15068234503269196, 0.24275381863117218, 0.21477359533309937, -0.03299902006983757, 0.23003794252872467, 0.14877574145793915, -0.09075469523668289, -0.08526869863271713, -0.17735444009304047, -0.13967826962471008, 0.1172393336892128, -0.03416789695620537, -0.1831497848033905, 0.17605505883693695, -0.07232383638620377, 0.18695811927318573, 0.12164922058582306, 0.0975065678358078, -0.18669119477272034, -0.03385758772492409, -0.17971867322921753, 0.126346156001091, 0.2801048457622528, -0.09164564311504364, -0.12746144831180573, 0.09416931122541428, 0.2632391154766083, -0.07147624343633652, 0.07956914603710175, -0.05694184824824333, 0.1714332103729248, 0.23949939012527466, -0.02592630311846733, 0.014713491313159466, 0.2900485396385193, 0.2007022649049759, -0.09436479955911636, -0.054922547191381454, -0.02826908975839615, 0.04482858255505562, 0.03537965938448906, -0.05044021084904671, 0.05016577988862991, 0.08456967025995255, 0.00020297477021813393, 0.1806427240371704, -0.24485334753990173, 0.0774039775133133, 0.16941215097904205, 0.22976751625537872, 0.29588669538497925, 0.23704606294631958, 0.024166861549019814, 0.06159580871462822, -0.23524510860443115, 0.04477118328213692, -0.17377988994121552, -0.2454468011856079, 0.14597702026367188, 0.07544463872909546, 0.19283033907413483, 0.005499417893588543, 0.18592071533203125, -0.022599676623940468, 0.19487501680850983, 0.169984370470047, 0.16167765855789185, -0.27258163690567017, 0.26021045446395874, -0.24034494161605835, -0.10372614860534668, -0.17234188318252563, 0.1758718192577362, -0.11099718511104584, -0.13887618482112885, 0.09726650267839432, -0.1387830525636673, 0.22497929632663727, 0.0641661137342453, -0.2701684236526489, 0.09795016795396805, 0.26688092947006226, -0.020085545256733894, -0.0911460891366005, -0.02297617308795452, 0.1099451333284378, -0.06282341480255127, 0.24098630249500275, -0.17918671667575836, 0.15248672664165497, 0.3128986656665802, -0.218631774187088, -0.08325299620628357, 0.21181753277778625, -0.24353942275047302, -0.21847383677959442, -0.05396050214767456, 0.14805959165096283, -0.1372947096824646, 0.1948791891336441, 0.07683613896369934, -0.02307041548192501, -0.17188476026058197, -0.052341558039188385, -0.10351531207561493, -0.03123397007584572, 0.1323780119419098, -0.06338264048099518, 0.040293920785188675, -0.0465974360704422, 0.12059266865253448, 0.07941508293151855, 0.13247625529766083, 0.005027362145483494, -0.027255745604634285, 0.24395526945590973, -0.07803994417190552, -0.18245090544223785, 0.07143547385931015, 0.032348278909921646, -0.028716793283820152, 0.009232064709067345, 0.19150814414024353, -0.00650490028783679, -0.12766380608081818, -0.18812069296836853, -0.14824551343917847, 0.18763165175914764, 0.12085948884487152, -0.04798085242509842, -0.24133282899856567, 0.3124859929084778, -0.06407184898853302, 0.06367331743240356, 0.1774568408727646, 0.2392200231552124, -0.14889276027679443, -0.1028105765581131, 0.02062438800930977, -0.2792934477329254, -0.11131059378385544, -0.0732635036110878, 0.012168296612799168, -0.02952205203473568, 0.27097728848457336, 0.09981067478656769, 0.010583707131445408, -0.030364440754055977, 0.019604912027716637, -0.10152617841959, 0.27387192845344543, 0.26858004927635193, -0.05510811507701874, -0.024555686861276627, -0.1968821883201599, -0.231332466006279, -0.1340436488389969, 0.08177970349788666, 0.007043172139674425, 0.04447003826498985, 0.07565975189208984, 0.024406012147665024, -0.1856880784034729, 0.048815757036209106, 0.20289048552513123, 0.06008897349238396, -0.2722596526145935, 0.18591496348381042, -0.17765626311302185, -0.02142210491001606, 0.34281739592552185, -0.227992981672287, -0.07026679068803787, 0.17683963477611542, 0.10453183203935623, -0.22970500588417053, 0.03624984249472618, 0.174390509724617, 0.009373930282890797, -0.4169476330280304, -0.14239855110645294, 0.19935862720012665, 0.13849708437919617, -0.16437701880931854, 0.09425056725740433, 0.04717136546969414, -0.07499261945486069, 0.28772908449172974, -0.14420993626117706, 0.07243013381958008, 0.019257543608546257, -0.22037388384342194, -0.05873725190758705, 0.1598730981349945, 0.011237549595534801, 0.11239621043205261, 0.38845857977867126, 0.05584361031651497, 0.05150735750794411, 0.120766781270504, 0.10790019482374191, 0.2380685657262802, -0.18248021602630615, 0.21254196763038635, -0.25814688205718994, 0.10216283798217773, 0.060896098613739014, -0.1712954044342041, -0.09205165505409241, -0.19675524532794952, 0.05151059851050377, 0.003741453867405653, 0.13995520770549774, -0.10968437045812607, 0.07139911502599716, -0.022378554567694664, -0.312358021736145, 0.17442171275615692, -0.16148079931735992, -0.055465977638959885, -0.07995887845754623, 0.11474163085222244, -0.15661221742630005, -0.14729519188404083, 0.2669486403465271, -0.2011902630329132, 0.1991756707429886, -0.07406612485647202, -0.15794788300991058, -0.07636113464832306, -0.24825288355350494, 0.07508570700883865, 0.14707829058170319, -0.19163644313812256, 0.025330428034067154, 0.260699599981308, 0.10611911118030548, -0.04567115381360054, 0.03640570864081383, 0.18305015563964844, -0.03777668625116348, -0.053212061524391174, -0.16045896708965302, 0.13563407957553864, 0.08074945956468582, 0.18147166073322296, 0.08536028116941452, -0.0042198291048407555, -0.06007009372115135, 0.23200640082359314, 0.15838144719600677, -0.2815999686717987, 0.10642138868570328, -0.024893375113606453, 0.05565759539604187, 0.045815687626600266, 0.20595254004001617, 0.139145627617836, -0.05315669625997543, 0.24810868501663208, 0.23193126916885376, -0.05158131942152977, 0.09227263927459717, -0.055260416120290756, -0.16710126399993896, -0.12413414567708969, 0.08524484932422638, -0.05691131576895714, 0.09321324527263641, 0.16165663301944733, -0.09886180609464645, 0.11797292530536652, 0.01956004649400711, 0.28357845544815063, 0.042311571538448334, -0.13510581851005554, 0.17335791885852814, -0.13139955699443817, 0.14652308821678162, 0.04976695775985718, -0.060008805245161057, -0.0257668886333704, -0.16922883689403534, 0.06957059353590012, -0.024700840935111046, 0.17855995893478394, 0.023188957944512367, 0.256418913602829, -0.2104080319404602, -0.22398917376995087, -0.23913222551345825, 0.1442333161830902, -0.21738441288471222, 0.28564444184303284, -0.009063245728611946, 0.12007996439933777, -0.052474234253168106, 0.058890052139759064, 0.1008780226111412, 0.06459479033946991, -0.17663384974002838, -0.0919601321220398, -0.08269010484218597, 0.1431090086698532, -0.06031711399555206, 0.07123804837465286, -0.056152328848838806, -0.2951801121234894, 0.07067140936851501, -0.00618871720507741, 0.035617612302303314, 0.18812525272369385, 0.19862808287143707, 0.14924924075603485, -0.07442866265773773, -0.2242497354745865, 0.11524908989667892, 0.2312546819448471, -0.13837338984012604, -0.061084676533937454, 0.2825557291507721, 0.13172295689582825, -0.061136629432439804, 0.08645433187484741, 0.10329281538724899, -0.1165693923830986, -0.03337759152054787, 0.056439779698848724, 0.1501467078924179, -0.18547074496746063, 0.0680844634771347, -0.07766672223806381, -0.2868497967720032, -0.1801329255104065, 0.039061304181814194, 0.03153262287378311, -0.0943857878446579, -0.06157256290316582, -0.2617705762386322, 0.03837856650352478, 0.009029246866703033, 0.04838109761476517, -0.08266205340623856, 0.05948761850595474, -0.05395130068063736, -0.22969001531600952, 0.14988966286182404, 0.22054782509803772, -0.013318773359060287, -0.24379384517669678, -0.36240747570991516, -0.2662333846092224, 0.1172901913523674, 0.13113461434841156, -0.11027210205793381, -0.22693242132663727, 0.08192624151706696, 0.014415858313441277, -0.24165324866771698, -0.11197487264871597, 0.10081871598958969, -0.16157718002796173, 0.20812775194644928, -0.17874465882778168, 0.13169832527637482, 0.278992235660553, 0.226252481341362, -0.28986525535583496, -0.04733124375343323, -0.1933382749557495, -0.17419368028640747, 0.19108641147613525, -0.21547943353652954, 0.10783965140581131, 0.12042181938886642, 0.12565550208091736, 0.04749904200434685, 0.013943331316113472, -0.08189614862203598, 0.21967069804668427, 0.3908611536026001, -0.07913096994161606, -0.23577746748924255, 0.35004717111587524, -0.0714159831404686, -0.3201647698879242, -0.24112047255039215, 0.14226718246936798, -0.12674130499362946, -0.19420596957206726, -0.19630755484104156, 0.19105951488018036, 0.1714891791343689, 0.021557139232754707, -0.2507496774196625, 0.03352862223982811, 0.14017228782176971, -0.14327602088451385, 0.2606521248817444, 0.16134928166866302, -0.20664824545383453, 0.0031552729196846485, 0.16056497395038605, -0.44475558400154114, -0.031334422528743744, 0.18583673238754272, 0.21668915450572968, -0.11136875301599503, 0.22562897205352783, 0.1231197789311409, 0.05502196401357651, -0.17805112898349762, 0.07239506393671036, 0.18005959689617157, 0.2247520089149475, -0.17555972933769226, 0.03771451860666275, 0.1316942423582077, -0.11031704396009445, 0.04051898792386055, 0.14373350143432617, 0.437517911195755, 0.2121063470840454, -0.09326498955488205, -0.03007117286324501, -0.3005538284778595, 0.21654564142227173, 0.16177067160606384, 0.00417823251336813, 0.09490146487951279, 0.1160682961344719, -0.1324472278356552, 0.1401267945766449, -0.11516892910003662, 0.05150521174073219, 0.20876169204711914, -0.2758418917655945, -0.07495053857564926, -0.174308180809021, 0.16013188660144806, 0.005341928917914629, -0.11512818187475204, -0.2768847644329071, -0.01658596470952034, 0.155317023396492, -0.041091226041316986, 0.3705337643623352, -0.0038831818383187056, 0.10037565976381302, 0.2240859717130661, 0.19043460488319397, -0.03239208832383156, -0.012573594227433205, 0.10382486134767532, 0.04817309230566025, 0.010553003288805485, -0.11008153110742569, -0.06076512113213539, -3.801689308602363e-05, 0.10838985443115234, -0.14723734557628632, -0.11050833761692047, 0.26472392678260803, -0.12953709065914154, 0.011608750559389591, 0.07343269139528275, 0.20468761026859283, -0.20911113917827606, -0.16225698590278625, 0.15288643538951874, -0.1566561758518219, -0.21825391054153442, -0.07641808688640594, -0.030857941135764122, 0.25073814392089844, -0.08615449070930481, 0.14713844656944275, -0.26732394099235535, -0.03362937271595001, -0.15409676730632782, 0.04293229430913925, -0.09362270683050156, 0.2585546672344208, -0.2179129272699356, 0.038847338408231735, -0.31682780385017395, -0.33637866377830505, 0.1305854618549347, 0.22566211223602295, 0.22733686864376068, 0.22728624939918518, -0.013761807233095169, 0.18934349715709686, 0.22457659244537354, -0.14960698783397675, 0.2075972706079483, -0.058338239789009094, -0.17781753838062286, 0.16730225086212158, 0.060104284435510635, 0.20731207728385925, 0.12770923972129822, -0.10643649846315384, -0.10617625713348389, 0.0955124944448471, -0.06019911170005798, 0.2317592203617096, 0.09359173476696014, 0.16418372094631195, 0.05494800955057144, -0.23920148611068726, 0.2622799873352051, 0.25480586290359497, -0.2571386694908142, 0.06017029657959938, -0.18085607886314392, 0.0680064707994461, -0.0806872621178627, 0.2863874137401581, 0.12638264894485474, -0.13542674481868744, -0.1207333505153656, 0.20400571823120117, 0.039730560034513474, 0.09399784356355667, -0.1713566929101944, -0.1698383241891861, 0.15037581324577332, -0.002541512716561556, 0.23914922773838043, -0.13961385190486908, 0.23440279066562653, -0.19444507360458374, -0.18963485956192017, 0.09033062309026718, 0.17786554992198944, 0.022353125736117363, 0.06267102062702179, 0.35406050086021423, -0.19207727909088135, 0.09642287343740463, 0.07497357577085495, -0.04212707281112671, 0.0482475645840168, -0.07315797358751297, 0.03359566628932953, -0.26834991574287415, 0.039727143943309784, 0.23950037360191345, 0.04120456799864769, 0.19490574300289154, 0.08678929507732391, 0.3091069757938385, 0.07223200798034668, 0.028579840436577797, 0.033511653542518616, 0.36342450976371765, -0.2465137243270874, -0.027893271297216415, 0.046737220138311386, -0.10312420129776001, -0.08330347388982773, 0.1348520666360855, -0.12513907253742218, 0.04442237317562103, -0.16985219717025757, 0.21651367843151093, -0.1112484261393547, 0.09324752539396286, 0.20457951724529266, 0.15975192189216614, -0.042398132383823395, -0.17088812589645386, -0.10430271178483963, 0.12360084801912308, -0.1206960678100586, 0.041775934398174286, 0.24544595181941986, 0.14396674931049347, -0.30892422795295715, 0.06402577459812164, -0.29208141565322876, -0.32409778237342834, 0.12759041786193848, 0.05462219938635826, 0.0695762112736702, 0.14959196746349335, 0.2194431722164154, -0.31033849716186523, 0.0672985315322876, -0.23908187448978424, 0.21450529992580414, -0.2813761532306671, 0.16364340484142303, 0.15122175216674805, 0.2479921579360962, 0.06596499681472778, 0.18371853232383728, -0.05480025336146355, -0.015373362228274345, -0.33558928966522217, 0.0077456203289330006, 0.15414412319660187, 0.10778547078371048, -0.04090581089258194, -0.0006669331924058497, 0.23873615264892578, 0.13728052377700806, 0.17390350997447968, -0.10319404304027557, 0.06974481791257858, 0.015978872776031494, -0.21292182803153992, -0.07339710742235184, 0.25763222575187683, 0.12652936577796936, -0.1603575050830841, 0.035578638315200806, 0.12464750558137894, 0.27056676149368286, -0.20768462121486664, 0.10705576837062836, 0.1952599138021469, 0.0027091731317341328, 0.02858041599392891, 0.1738692969083786, 0.06486842781305313, -0.2592799961566925, 0.013789714314043522, 0.3108566701412201, 0.15013182163238525, 0.01837349310517311, -0.22483433783054352, 0.10879803448915482, 0.22937893867492676, -0.14509962499141693, -0.16048729419708252, 0.05395514890551567, 0.06493279337882996, -0.028162555769085884, -0.03738847374916077, 0.04550270736217499, -0.24459154903888702, -0.05596105754375458, 0.06632819771766663, -0.02884262055158615, -0.3018556833267212, -0.10771457105875015, -0.13200996816158295, 0.1602582335472107, 0.05030714347958565, 0.11947375535964966, 0.17569120228290558, -0.08556580543518066, 0.28371721506118774, -0.03705602511763573, 0.20896264910697937, 0.03903935104608536, -0.14276961982250214, -0.02102796919643879, 0.13471642136573792, 0.059690870344638824, 0.3104066848754883, 0.13094130158424377, 0.10681142657995224, 0.08983177691698074, 0.03795306012034416, -0.20849834382534027, 0.16287578642368317, -0.11440391093492508, -0.18912819027900696, -0.10876642912626266, -0.11117783933877945, -0.3182676136493683, 0.03567620739340782, -0.1522761881351471, -0.11040721088647842, 0.18873272836208344, 0.28268998861312866, -0.030239112675189972, -0.16100698709487915, -0.2625705301761627, 0.13119128346443176, 0.10494143515825272, -0.3375268876552582, -0.0982920303940773, 0.10258756577968597, -0.01716449484229088, 0.2624615430831909, 0.24666842818260193, -0.07713830471038818, 0.21727275848388672, 0.09102602303028107, 0.14442455768585205, 0.15610457956790924, -0.014117919839918613, 0.20714260637760162, -0.03646949678659439, -0.16219326853752136, 0.06585688143968582, 0.13664226233959198, -0.07259076833724976, -0.16300466656684875, 0.19957353174686432, -0.02805222012102604, -0.058373693376779556, 0.22331097722053528, -0.2447715550661087, -0.17580369114875793, -0.21863706409931183, 0.009338847361505032, 0.17511294782161713, -0.07869032770395279, -0.04028967395424843, 0.14637517929077148, 0.1784125715494156, 0.03267500177025795, -0.10236778855323792, 0.2933662235736847, 0.09613442420959473, -0.04703749343752861, -0.022204933688044548, -0.1380118429660797, -0.035675209015607834, -0.12380923330783844, 0.1806149184703827, 0.15575847029685974, -0.17934641242027283, -0.2704331576824188, -0.10092364251613617, 0.2027190923690796, -0.13130103051662445, 0.0065431431867182255, -0.03152070567011833, 0.19268102943897247, -0.18383722007274628, 0.06535322964191437, 0.0688556656241417, -0.127231627702713, -0.2405034750699997, 0.11137408018112183, -0.16049566864967346, -0.0170179083943367, -0.0851922333240509, 0.14216427505016327, -0.11290188878774643, 0.22560319304466248, -0.2574167847633362, -0.22424964606761932, -0.09766560047864914, -0.19985076785087585, -0.05372367426753044, 0.32396504282951355, -0.15791532397270203, 0.14245837926864624, -0.3737901449203491, -0.05713505670428276, 0.02937653288245201, 0.22879892587661743, 0.15076963603496552, 0.16061212122440338, -0.16384261846542358, -0.18684542179107666, 0.06631007045507431, 0.11716079711914062, -0.009884683415293694, -0.0739295482635498, -0.16204504668712616, 0.21665292978286743, 0.03831075504422188, 0.043874289840459824, 0.15283173322677612, 0.00742024602368474, -0.15622065961360931, -0.13199946284294128, -0.09586205333471298, -0.11920316517353058, 0.13023486733436584, -0.14512966573238373, 0.1658248007297516, 0.08087041974067688, -0.16940173506736755, 0.24274842441082, -0.16196027398109436, -0.009309204295277596, 0.053295329213142395, 0.29189619421958923, -0.07769183814525604, 0.10955031961202621, 0.206552192568779, -0.1590089201927185, -0.05900520831346512, -0.25312474370002747, 0.23810908198356628, 0.047150883823633194, -0.13090483844280243, -0.13639292120933533, 0.1807728111743927, -0.03881023824214935, -0.3213346302509308, 0.18797913193702698, -0.010226736776530743, -0.2019205093383789, 0.28281280398368835, 0.2707938849925995, 0.2509171962738037, 0.1122189536690712, -0.11497913300991058, -0.24529719352722168, 0.16311055421829224, -0.050332631915807724, 0.27979040145874023, -0.11892645806074142, 0.1439916491508484, 0.1237383782863617, -0.09863849729299545, -0.17652162909507751, -0.07205083221197128, 0.12028652429580688, 0.0013333030510693789, 0.020716235041618347, 0.051421456038951874, -0.31023645401000977, 0.30368390679359436, 0.19177410006523132, 0.2002055048942566, 0.01980830729007721, 0.20102055370807648, -0.12201802432537079, -0.01971590332686901, 0.07047624886035919, 0.006245470605790615, -0.02972891740500927, -0.07233477383852005, 0.08914525806903839, 0.04463671147823334, 0.007552873808890581, -0.1127403974533081, 0.13964925706386566, 0.07202836871147156, -0.07750167697668076, 0.116627037525177, -0.19091667234897614, -0.14037980139255524, -0.2060796022415161, 0.35412484407424927, -0.012367465533316135, -0.41009828448295593, 0.18811684846878052, 0.2303285449743271, -0.26259845495224, 0.021779770031571388, -0.05898110568523407, 0.18961022794246674, -0.07893003523349762, 0.1973852664232254, 0.0011212307726964355, 0.021676862612366676, -0.16603991389274597, -0.14923925697803497, 0.23040145635604858, -0.014233946800231934, -0.21746774017810822, 0.1303718537092209, 0.00636804336681962, -0.0810491070151329, -0.0010559625225141644, 0.2295377254486084, 0.12976475059986115, -0.04207902401685715, 0.2400352507829666, -0.0020682169124484062, -0.1965840607881546, 0.22986191511154175, 0.19522954523563385, -0.03593914955854416, -0.08764771372079849, -0.14644862711429596, -0.3193828761577606, 0.22855070233345032, 0.18343426287174225, -0.1652233749628067, -0.23585088551044464, 0.13933461904525757, -0.0542634055018425, 0.001654605264775455, 0.23923084139823914, -0.3184362053871155, 0.1509934961795807, 0.16811572015285492, 0.16958215832710266, 0.19137416779994965, 0.15071433782577515, 0.20773929357528687, 0.2499265968799591, -0.0041065094992518425, -0.09221410006284714, 0.30961358547210693, -0.3371810019016266, -0.19594717025756836, 0.09367723762989044, 0.17656396329402924, 0.23582738637924194, 0.15544864535331726, -0.06543926149606705, 0.23750290274620056, 0.008245687000453472, 0.1183665320277214, -0.18415546417236328, 0.15909889340400696, -0.2269202321767807, -0.10044069588184357, 0.08297745138406754, 0.16823287308216095, -0.09254220873117447, -0.121982641518116, 0.0545671321451664, 0.11001651734113693, -0.09299126267433167, -0.06007620319724083, -0.20799480378627777, 0.18571725487709045, 0.07673577219247818, -0.11396999657154083, -0.1996500939130783, 0.03628983721137047, 0.147380068898201, 0.12185485661029816, -0.2179417461156845, -0.04290420562028885, -0.06285246461629868, 0.08042679727077484, -0.016493314877152443, 0.21536773443222046, -0.20169812440872192, 0.16959837079048157, 0.1217462569475174, -0.17508383095264435, -0.1637418568134308, 0.15277837216854095, 0.27327367663383484, 0.24290400743484497, -0.3379376530647278, -0.09457090497016907, 0.19766825437545776, 0.17255714535713196, -0.13391701877117157, -0.04819706082344055, -0.17612825334072113, -0.1836821734905243, -0.28479981422424316, 0.22140435874462128, -0.18711696565151215, -0.11433490365743637, 0.06804294139146805, 0.17300131916999817, -0.09672220796346664, -0.04052447900176048, -0.054101377725601196, 0.1318957656621933, 0.12427032738924026, -0.04239150509238243, 0.19383908808231354, 0.25341227650642395, 0.27468201518058777, -0.09840070456266403, -0.12070132791996002, 0.3756604492664337, -0.1450512409210205, 0.2513434886932373, -0.06825307756662369, 0.14064250886440277, 0.1775592863559723, -0.14331093430519104, 0.1885942667722702, -0.10538510978221893, 0.006120525766164064, 0.16053052246570587, 0.24585959315299988, -0.04938161000609398, -0.04436787590384483, -0.17916390299797058, -0.14528895914554596, 0.06888038665056229, -0.02281344309449196, 0.1339641809463501, 0.11476849764585495, -0.12150895595550537, -0.05507456138730049, -0.0692569762468338, 0.25194838643074036, -0.1474374681711197, 0.23311251401901245, -0.1305123120546341, -0.1082722395658493, 0.010434138588607311, -0.16481710970401764, -0.22314035892486572, -0.06420538574457169, -0.23401035368442535, 0.014059615321457386, 0.0678718313574791, 0.0260758176445961, 0.005794529337435961, -0.10053791850805283, 0.09400825947523117, 0.2518630921840668, 0.1802305430173874, 0.22086189687252045, 0.19131672382354736, -0.16788892447948456, -0.0910520926117897, 0.08165615051984787, 0.17428666353225708, 0.0036916262470185757, -0.1794085055589676, 0.14248661696910858, -0.0561370812356472, -0.21619753539562225, 0.049597661942243576, -0.13792406022548676, 0.09151973575353622, -0.1450921893119812, -0.08251012861728668, -0.12204639613628387, -0.058706264942884445, 0.08786990493535995, 0.10185233503580093, -0.04248827323317528, -0.17587999999523163, 0.11050759255886078, 0.11897213011980057, 0.09156764298677444, 0.32144051790237427, -0.2849712669849396, -0.007957092486321926, 0.008354777470231056, 0.08509254455566406, -0.04335571825504303, -0.25656601786613464, -0.4447256922721863, -0.1279771476984024, -0.20407997071743011, 0.18315814435482025, 0.04276398941874504, 0.19046972692012787, 0.05028316378593445, -0.07454317063093185, 0.01645173877477646, -0.010826840065419674, -0.17481137812137604, -0.029217423871159554, -0.0732308179140091, 0.13717669248580933, -0.1870611608028412, -0.13507536053657532, -0.06437838077545166, -0.38705819845199585, -0.2551519572734833, 0.13750828802585602, -0.23966585099697113, -0.09074276685714722, 0.07905029505491257, -0.21484632790088654, 0.29465535283088684, -0.06860365718603134, -0.16281037032604218, -0.2287261039018631, -0.09211354702711105, 0.2869405448436737, -0.2661164104938507, -0.06500310450792313, 0.06993597745895386, 0.09080461412668228, -0.009522991254925728, 0.14553838968276978, -0.25986284017562866, -0.052203357219696045, 0.02199454791843891, -0.20948779582977295, 0.13416491448879242, 0.2141065001487732, 0.13794228434562683, -0.07975710183382034, -0.19744494557380676, 0.26717716455459595, -0.11073197424411774, -0.016742628067731857, 0.13886289298534393, -0.06992604583501816, -0.27175483107566833, -0.20107422769069672, -0.14585351943969727, 0.23966792225837708, -0.037481777369976044, 0.0963020920753479, 0.08634787797927856, 0.08471572399139404, -0.035146258771419525, 0.031523823738098145, 0.07075151801109314, -0.02757835015654564, -0.036655351519584656, -0.17713439464569092, 0.18979549407958984, -0.017738671973347664, 0.12591227889060974, 0.07595742493867874, -0.023266203701496124, -0.09891284257173538, -0.14347226917743683, 0.15178516507148743, -0.1346541941165924, 0.11557147651910782, -0.2872011959552765, 0.19225139915943146, -0.07792216539382935, -0.13358080387115479, 0.07024036347866058, -0.037839412689208984, -0.12915971875190735, 0.051438670605421066, -0.15057648718357086, -0.31741759181022644, 0.23539462685585022, 0.275652140378952, -0.2097265124320984, -0.10775501281023026, 0.14238032698631287, -0.20318594574928284, -0.06916846334934235, -0.12918181717395782, -0.05828619375824928, 0.1163928434252739, 0.05792924389243126, -0.14629274606704712, -0.015896305441856384, -0.17675559222698212, 0.2134828120470047, 0.23388177156448364, -0.05555354431271553, -0.33275967836380005, -0.1490258276462555, 0.09958836436271667, 0.21686187386512756, 0.18854641914367676, 0.2071826308965683, -0.2859901785850525, -0.047058429569005966, 0.10234109312295914, -0.3104016184806824, -0.3559243977069855, -0.20462685823440552, 0.05226967856287956, -0.008553661406040192, 0.0746898278594017, 0.03861212357878685, -0.0792035460472107, -0.009263082407414913, 0.0792006328701973, -0.12261391431093216, -0.06658810377120972, -0.2297077775001526, 0.2220461219549179, 0.13539540767669678, 0.08983372151851654, -0.18114355206489563, -0.23609857261180878, -0.002496778266504407, 0.14375557005405426, 0.2868965268135071, 0.030784953385591507, -0.1399906873703003, 0.1530446708202362, 0.1301836222410202, 0.07526140660047531, -0.1915074586868286, 0.2785005271434784, -0.16338902711868286, 0.1284477263689041, 0.040032096207141876, 0.13348746299743652, -0.19790445268154144, 0.004041355103254318, 0.2868938744068146, 0.2079107016324997, -0.2961099445819855, -0.08212926983833313, -0.21125532686710358, 0.25717809796333313, 0.2855354845523834, -0.06789470463991165, -0.01852184347808361, 0.1830269694328308, 0.22290490567684174, 0.33475467562675476, 0.006098714657127857, -0.20431502163410187, 0.04045964404940605, 0.15861335396766663, -0.16520412266254425, -0.04304710775613785, 0.17668136954307556, 0.2751123309135437, 0.16347280144691467, 0.14728276431560516, 0.30707594752311707, -0.17873519659042358, -0.004737415350973606, 0.32962071895599365, 0.005363485310226679, 0.2784518301486969, 0.2114195078611374, -0.11251136660575867, 0.06862442940473557, -0.022263163700699806, -0.10105835646390915, -0.14163252711296082, 0.27437669038772583, -0.16085919737815857, 0.10383586585521698, -0.19532205164432526, 0.2039393186569214, -0.041464176028966904, -0.034631192684173584, -0.2581608295440674, -0.1198563203215599, -0.27155303955078125, 0.09996961057186127, -0.08517216145992279, 0.07255230098962784, 0.03651487082242966, 0.21867968142032623, -0.2371685802936554, 0.1230669692158699, 0.021855922415852547, -0.110719233751297, -0.15710406005382538, 0.23000475764274597, -0.22421856224536896, -0.12801945209503174, -0.11448923498392105, 0.02810380794107914, -0.03713590279221535, -0.0953739807009697, 0.2918810248374939, 0.08110503852367401, 0.1403089314699173, -0.08271652460098267, 0.021578555926680565, -0.11313194781541824, -0.0012350238393992186, -0.056349318474531174, 0.17931297421455383, 0.09903284907341003, -0.021595267578959465, -0.07682885229587555, 0.1085268035531044, 0.1343185007572174, -0.09673087298870087, 0.24545323848724365, -0.2545250356197357, 0.21104492247104645, -0.023586895316839218, -0.11789297312498093, 0.11716174334287643, -0.21706326305866241, -0.2767122983932495, -0.12469302862882614, -0.2776060402393341, -0.009699758142232895, -0.12345962971448898, 0.058363527059555054, 0.11710546910762787, 0.12795794010162354, 0.24642658233642578, -0.2768782079219818, 0.17193162441253662, 0.2036348134279251, 0.20890390872955322, -0.14534233510494232, 0.19780534505844116, 0.06177518516778946, 0.05002941936254501, 0.09179828315973282, 0.1552962064743042, -0.2426641285419464, -0.19479718804359436, 0.10505716502666473, -0.06165856122970581, -0.14358963072299957, 0.1738298535346985, -0.13828980922698975, 0.18192161619663239, -0.04972197860479355, -0.05550374463200569, 0.09516455233097076, 0.014732557348906994, 0.0035314694978296757, -0.09087597578763962, -0.119947150349617, 0.0310233011841774, 0.08389763534069061, 0.2539578676223755, 0.040577515959739685, -0.21027393639087677, -0.1921008676290512, -0.165887251496315, 0.11797995120286942, 0.05491337180137634, 0.018187740817666054, -0.1864701360464096, 0.21481281518936157, -0.09984090179204941, 0.06382832676172256, 0.14744119346141815, -0.00107666221447289, -0.11293593794107437, 0.03641046583652496, -0.1092868447303772, -0.2434641420841217, 0.006164726801216602, 0.1770259141921997, -0.04590997099876404, -0.02960699051618576, -0.05424690619111061, -0.08143367618322372, -0.21160496771335602, 0.18153712153434753, -0.052177321165800095, -0.007306316401809454, -0.14899970591068268, -0.14999356865882874, 0.04781632125377655, -0.28464391827583313, -0.12645263969898224, 0.19071011245250702, -0.20668675005435944, -0.25349316000938416, -0.019157903268933296, -0.12180815637111664, -0.16333085298538208, 0.11681312322616577, 0.07381826639175415, -0.005956272594630718, -0.22137057781219482, 0.04489728808403015, -0.05161835625767708, 0.1348724365234375, 0.0659044161438942, -0.04837418347597122, 0.14429853856563568, -0.17447374761104584, -0.10323146730661392, 0.0778215229511261, 0.07196177542209625, -0.2580064833164215, 0.27718299627304077, 0.21473926305770874, 0.09552709013223648, -0.04680634289979935, -0.013025675900280476, 0.024401357397437096, 0.10073910653591156, 0.06480562686920166, -0.1129947230219841, -0.008497587405145168, -0.11875338852405548, 0.1386515349149704, -0.0006566609954461455, 0.1145038977265358, -0.15273499488830566, -0.2514917552471161, 0.17107434570789337, -0.22105471789836884, 0.01839965581893921, 0.037259578704833984, -0.21736647188663483, 0.08386145532131195, -0.11786145716905594, -0.04282765835523605, 0.06970101594924927, -0.13861824572086334, 0.11670608073472977, -0.026757748797535896, 0.04171465337276459, 0.10650212317705154, 0.1879151165485382, 0.23923923075199127, -0.18697862327098846, 0.22705699503421783, -0.13718222081661224, -0.08669110387563705, -0.039716936647892, 0.004895507358014584, 0.014310354366898537, -0.09781137853860855, 0.1115545704960823, -0.08057109266519547, -0.023822369053959846, 0.1948372721672058, -0.03688127547502518, -0.045569051057100296, -0.11733370274305344, 0.11749205738306046, 0.18994854390621185, -0.22959169745445251, 0.057014044374227524, -0.23349066078662872, -0.18768256902694702, -0.27668264508247375, 0.12026742100715637, 0.2875976860523224, -0.021758535876870155, -0.0962512269616127, 0.05026141554117203, 0.250477135181427, 0.06393487006425858, 0.05646807327866554, -0.0976952612400055, 0.1312606930732727, 0.27320459485054016, 0.02131527289748192, 0.029753882437944412, -0.13258160650730133, -0.11752036958932877, -0.09374694526195526, 0.142064169049263, -0.01000267080962658, -0.17542725801467896, -0.12380637973546982, -0.003223869251087308, -0.36763033270835876, 0.19031786918640137, 0.15255068242549896, 0.208536759018898, -0.178251251578331, -0.2907949686050415, 0.04338536038994789, 0.05258755758404732, -0.1077008992433548, 0.01719645969569683, -0.16427399218082428, -0.22415366768836975, 0.3113801181316376, 0.046525195240974426, -0.02728298492729664, 0.18500657379627228, 0.09219586849212646, -0.03576565161347389, 0.2789532542228699, -0.13357646763324738, 0.10052293539047241, -0.001098416280001402, -0.0410306341946125, -0.13410663604736328, -0.2895548939704895, 0.15817350149154663, 0.1332925707101822, 0.08287179470062256, 0.1767551302909851, 0.18658682703971863, 0.0024374397471547127, 0.13131974637508392, 0.03670038655400276, -0.066462941467762, 0.21796603500843048, -0.02468765899538994, 0.15626657009124756, 0.17607200145721436, -0.10397686064243317, -0.08407410234212875, 0.218865767121315, 0.2062164545059204, 0.2089543342590332, -0.11574827134609222, -0.21484997868537903, -0.11451037228107452, -0.2086545079946518, 0.06620851904153824, -0.07966390252113342, 0.07176212221384048, -0.38411977887153625, 0.34848859906196594, 0.031074916943907738, -0.08805947005748749, -0.13281680643558502, -0.11773107200860977, -0.2132941037416458, 0.03271835669875145, -0.27790477871894836, 0.2413240373134613, -0.046366821974515915, -0.08265957236289978, 0.06432825326919556, -0.06778331845998764, 0.06397747993469238, 0.2037641853094101, 0.09841345995664597, 0.0834169015288353, 0.18309102952480316, 0.04564855992794037, -0.18308892846107483, 0.03335655480623245, -0.02735166810452938, 0.08517418056726456, -0.19009770452976227, -0.10619397461414337, -0.28571265935897827, 0.18832063674926758, -0.2056349515914917, 0.048771388828754425, -0.22514131665229797, -0.08802890032529831, 0.18548324704170227, -0.03703887015581131, 0.21541474759578705, 0.1734669804573059, 0.2023574411869049, 0.07035639882087708, -0.12109898030757904, 0.017164094373583794, -0.02045310288667679, -0.14715886116027832, -0.19586913287639618, 0.00675163185223937, 0.06396283954381943, 0.12576007843017578, 0.21931833028793335, -0.1372416764497757, 0.18421027064323425, 0.034914057701826096, 0.07446819543838501, 0.22712615132331848, -0.0069745127111673355, 0.13839910924434662, 0.026518352329730988, 0.06652354449033737, 0.01694575510919094, 0.16609415411949158, -0.0364217609167099, 0.16324979066848755, 0.09077806025743484, 0.19842979311943054, 0.23736660182476044, -0.058702502399683, -0.2982853651046753, 0.03762688487768173, 0.1908991038799286, 0.19901597499847412, 0.384077250957489, -0.190272718667984, 0.025256816297769547, -0.15889659523963928, 0.000276631471933797, -0.19377963244915009, 0.12834532558918, 0.1743128001689911, 0.14837484061717987, -0.027035895735025406, 0.009566694498062134, 0.16564765572547913, -0.20278890430927277, 0.00377166410908103, -0.17093226313591003, -0.09398598968982697, -0.2022297978401184, -0.08651120960712433, 0.09252660721540451, -0.01895587146282196, -0.04612453281879425, 0.1835668534040451, 0.04449905455112457, 0.1797659993171692, 0.19004204869270325, 0.18750840425491333, -0.17322303354740143, 0.05805041268467903, 0.07371783256530762, -0.1309894323348999, -0.2098955661058426, -0.2610711455345154, 0.15910691022872925, 0.10752882808446884, -0.01443447545170784, -0.1291760504245758, -0.2098516821861267, 0.11728274822235107, -0.14807984232902527, 0.12678535282611847, -0.0290791317820549, -0.2431604117155075, -0.18197369575500488, -0.23241806030273438, -0.09591271728277206, -0.18549124896526337, 0.11007386445999146, -0.23115584254264832, -0.21980468928813934, -0.1725928783416748, -0.18047258257865906, 0.11480871587991714, -0.05227030813694, -0.2389305830001831, 0.08208134770393372, -0.03319133073091507, 0.22324202954769135, -0.1353144645690918, 0.08124251663684845, 0.04987706243991852, 0.13900792598724365, -0.06884612143039703, 0.1476912647485733, 0.2633092701435089, -0.16310039162635803, -0.02359306626021862, -0.0781988799571991, -0.24699512124061584, -0.28738120198249817, -0.20564702153205872, 0.26153138279914856, -0.056858841329813004, 0.20008908212184906, -0.049457479268312454, 0.0901995375752449, -0.20011447370052338, 0.0627533495426178, 0.01734979823231697, 0.16496673226356506, 0.036204710602760315, 0.025613248348236084, -0.1481260508298874, -0.22083212435245514, 0.07276055216789246, 0.006923207081854343, 0.007267242297530174, -0.1387602835893631, -0.1685250848531723, 0.0725996196269989, 0.27490875124931335, 0.42227932810783386, -0.13477373123168945, -0.10881679505109787, -0.15584057569503784, -0.05679754912853241, 0.2903934717178345, -0.2570066750049591, -0.05887945741415024, 0.1781560778617859, -0.007893679663538933, 0.06027838587760925, 0.03092193603515625, -0.23305638134479523, -0.1313493698835373, -0.28077536821365356, 0.22935357689857483, -0.024598827585577965, -0.036267440766096115, -0.061429161578416824, 0.3125930726528168, -0.18283557891845703, 0.043963171541690826, -0.2235805243253708, -0.19869758188724518, -0.14907194674015045, 0.02010306715965271, 0.08378103375434875, 0.1882651150226593, -0.1899360567331314, 0.17701050639152527, 0.1786213219165802, 0.0776560828089714, -0.34217366576194763, 0.05553493648767471, -0.06006433814764023, 0.21533085405826569, -0.04383677616715431, 0.1898542195558548, 0.13161809742450714, -0.08335280418395996, -0.11307965964078903, -0.05330919101834297, -0.03752697631716728, 0.1540341079235077, 0.2800461947917938, 0.1663363128900528, -0.05149616301059723, 0.09021918475627899, -0.09468282014131546, 0.08283615112304688, -0.001557782175950706, -0.24286381900310516, -0.07598453015089035, 0.008440906181931496, -0.09563342481851578, 0.15910562872886658, -0.056189969182014465, -0.26272863149642944, -0.16413742303848267, 0.13528402149677277, -0.25881707668304443, 0.18547290563583374, 0.1076788380742073, 0.23338532447814941, 0.1343909054994583, 0.004160718061029911, 0.10232462733983994, -0.14059114456176758, -0.08357415348291397, 0.05456526204943657, 0.18033795058727264, 0.0031504216603934765, -0.276643842458725, 0.14908073842525482, 0.156566321849823, -0.224720299243927, -0.1537472903728485, 0.10739415138959885, -0.21813659369945526, -0.18081778287887573, 0.2710482180118561, -0.08740375936031342, -0.13116095960140228, -0.21747709810733795, 0.14829953014850616, 0.10032226145267487, -0.21797682344913483, -0.1566781848669052, -0.18164077401161194, -0.17042525112628937, 0.16520528495311737, -0.04441742226481438, -0.16112878918647766, 0.16545656323432922, -0.11247454583644867, 0.192390576004982, -0.05666445568203926, 0.2517029941082001, -0.0824122503399849, 0.1850365847349167, -0.2376248687505722, -0.030356373637914658, 0.020356222987174988, -0.2048385888338089, -0.19827011227607727, -0.08126313239336014, -0.20520125329494476, 0.27801981568336487, -0.12319402396678925, -0.1835377961397171, 0.19421562552452087, -0.0005115980748087168, 0.18293721973896027, 0.12641635537147522, 0.35135459899902344, -0.1668567955493927, 0.20487409830093384, -0.00776320043951273, -0.13818301260471344, -0.11990192532539368, -0.18474026024341583, 0.02959999069571495, -0.0823507159948349, -0.2089015245437622, -0.11516635119915009, 0.29055505990982056, -0.0048573254607617855, -0.16424576938152313, -0.21143552660942078, 0.14534622430801392, -0.19244135916233063, 0.20896755158901215, 0.19493553042411804, 0.013087325729429722, 0.02307986468076706, -0.022159604355692863, 0.07289997488260269, -0.07457635551691055, 0.3814920485019684, 0.026544639840722084, 0.12132547050714493, -0.021024959161877632, -0.16105230152606964, 0.23426352441310883, -0.12572257220745087, 0.029663944616913795, -0.25126898288726807, 0.23440155386924744, -0.014240818098187447, 0.0062713720835745335, -0.20857323706150055, -0.12232469022274017, -0.43607282638549805, 0.2756549119949341, -0.05475030094385147, 0.07167636603116989, -0.15362955629825592, -0.1320827454328537, 0.12800705432891846, 0.2218271940946579, -0.11365391314029694, 0.029518671333789825, 0.03441307693719864, -0.10195185244083405, -0.05366969853639603, 0.09440378844738007, -0.19931413233280182, -0.08624164760112762, 0.18015576899051666, -0.1935054212808609, 0.08775635808706284, 